tree
version=v3
num_class=1
num_tree_per_iteration=1
label_index=0
max_feature_idx=13
objective=regression
feature_names=Column_0 Column_1 Column_2 Column_3 Column_4 Column_5 Column_6 Column_7 Column_8 Column_9 Column_10 Column_11 Column_12 Column_13
feature_infos=[0:14] [2000:2020] [0:3] [1:130000] [0:3] [0:555] [1.1000000000000001:256.80000000000001] [0:2.8999999999999999] [0.21530471287944061:16.659532412594078] [0.5669551030891129:17.026993038029396] [0.34008282949916763:15.816615492589124] [0.49080834412759777:16.127968233532393] [0.5791766743592901:17.71984943375406] [0:4]
tree_sizes=5621 5638 5658 5615 5612 5608 5610 5617 5696 5577 5678 5646 5649 5627 5685 5658 5648 5690 5667 5719 5744 5795 5728 5770 5782 5845 5801 5886 5753 5798 5923 5926 5882 5939 5887 5908 5891 5907 5914 5853 5915 5921 5922 5914 5994 6029 5973 5992 5964 5931 5973 5995 5985 6024 6028 6054 6046 6034 5955 6127 6079 6063 6207 6031 6120 6119 6129 6267 6150 6088 6154 6111 6292 6156 6209 6261 6249 6226 6308 6233 6237 6192 6235 6237 6211 6253 6172 6266 6188 6288

Tree=0
num_leaves=63
num_cat=0
split_feature=0 1 7 13 12 1 8 13 3 11 0 1 10 8 7 7 1 1 8 12 9 0 7 0 11 9 8 8 9 11 10 10 12 7 9 8 0 0 12 12 2 1 10 12 10 12 12 9 10 10 10 12 12 12 12 8 4 11 3 8 10 8
split_gain=1215.39 353.822 303.415 272.051 85.6284 79.2992 44.2086 36.8973 36.0089 31.4911 28.2134 24.9327 23.982 21.0363 21.0314 17.4979 15.6424 14.3781 13.1199 13.0668 8.883 8.52509 8.4236 7.9745 7.31495 6.11844 6.06945 5.54543 4.97789 4.72179 4.65851 4.50365 4.49956 4.2782 4.0797 3.57834 3.44254 3.38916 3.33312 2.95924 2.93814 2.86459 2.39125 2.29255 2.03468 1.90205 1.75865 1.73652 1.7495 1.66427 1.58059 1.53892 1.43611 1.41352 1.35802 1.24639 1.38245 1.23922 1.12275 1.11687 1.16767 1.08518
threshold=8.5000000000000018 2018.5000000000002 1.8500000000000003 3.5000000000000004 2.6159962398437551 2018.5000000000002 1.3527208732559255 3.5000000000000004 9806.0000000000018 2.6075646041014844 11.500000000000002 2014.5000000000002 1.7590813929878248 0.94859534650970467 1.8500000000000003 1.8500000000000003 2013.5000000000002 2016.5000000000002 1.5574715096843141 1.1746845664339742 4.6120983492856586 2.5000000000000004 1.6500000000000001 5.5000000000000009 3.0624037501268568 2.767330557770562 3.0875747792781039 1.8104061933965461 3.7136935924434469 3.8684224626193395 2.4995000416587723 1.9216572034991746 5.3350576111211323 1.6500000000000001 3.6156862645640548 0.94859534650970467 2.5000000000000004 3.5000000000000004 1.8101417782385041 1.3021976884788182 1.5000000000000002 2019.5000000000002 2.3320124424382933 4.7422530034025225 2.2634803349769417 3.4446236912705119 1.8841199470235854 4.5223960288231106 1.8168422606758665 2.6457530109957808 1.7590813929878248 0.80857094352902337 1.3021976884788182 2.2087763447387507 3.8189408092500989 1.61983718837276 1.0000000180025095e-35 3.077340084993176 25617.000000000004 1.5103996467434839 1.6997647938776417 3.0276500635654133
decision_type=2 2 2 2 2 2 2 2 2 2 2 2 2 2 2 2 2 2 2 2 2 2 2 2 2 2 2 2 2 2 2 2 2 2 2 2 2 2 2 2 2 2 2 2 2 2 2 2 2 2 2 2 2 2 2 2 2 2 2 2 2 2
left_child=3 7 6 4 9 14 -3 12 27 33 19 22 34 36 -5 52 -14 -15 28 -9 21 35 32 -17 39 45 61 50 -19 40 57 -23 54 38 46 -13 -11 -30 -1 59 47 -28 -27 -22 -38 -18 -2 -29 -49 -42 -8 -26 -7 -21 -6 56 -52 -10 -40 60 -12 -4
right_child=1 2 26 5 11 15 8 10 30 13 24 20 16 17 -16 23 25 18 -20 53 43 31 -24 -25 51 42 41 29 37 -31 -32 -33 -34 -35 -36 -37 44 -39 58 -41 49 -43 -44 -45 -46 -47 -48 48 -50 -51 55 -53 -54 -55 -56 -57 -58 -59 -60 -61 -62 -63
leaf_value=-0.02280577118922833 0.02382610172685487 0.018465178961546178 0.13562760476767116 -0.023506067810202536 -0.051928495038841921 0.022106473990840102 0.072621600916430856 0.096227454997590139 0.038869502382773806 -0.025867327700853211 0.036488259926429338 -0.040797111103659897 -0.054774751391891682 -0.033449854788543766 0.021250739451999248 0.096708110578349188 -0.00048512249700757116 -0.023458833678867343 0.067872046012761061 0.050487985178819257 -0.0092098211077718158 -0.022481080318891788 -0.042343629879039307 0.057603106082831423 0.037301183086139549 0.0053876329439458094 0.17220261436699924 0.051277786944391196 0.0036662353820844616 0.088819054097637781 0.02745984680261997 -0.038266384597910895 -0.07951398308576052 -0.013143384468629223 0.033457645360084866 -0.05060527671448721 -0.01627996688102477 0.026723389645408546 -0.03499341947213714 -0.010500048189299917 0.062101028825882663 0.20286111359297335 0.017363773666978478 -0.034142862907486769 0.00040272577817246076 -0.012672421739792635 0.014628222433520041 0.082350759117431754 0.060365025773051105 0.081013238673399851 0.068656618639817785 0.024950369278418046 0.043458478363014884 0.034467177255364266 -0.063417702868589804 0.10361134089257686 0.090924941760681333 0.058903645258976088 -0.04266710585085727 0.010438050148797571 0.014117964028471612 0.1568915788779566
leaf_weight=41 81 75 10 53 35 13.999999999999998 22 15.999999999999998 12.999999999999998 98 10.000000000000002 159 11.999999999999998 17 52 32 86 9.9999999999999982 10.999999999999998 50 27 57 55 22 43 163 32 44 34 21 65 218 40 23 52 224 108 30 104 13.999999999999998 19 9.9999999999999982 56 13.999999999999998 22 51 145 10.999999999999998 51 30 9.9999999999999982 61 18 19 97 10.999999999999998 23 19 88 53 13.999999999999998 15
leaf_count=41 81 75 10 53 35 14 22 16 13 98 10 159 12 17 52 32 86 10 11 50 27 57 55 22 43 163 32 44 34 21 65 218 40 23 52 224 108 30 104 14 19 10 56 14 22 51 145 11 51 30 10 61 18 19 97 11 23 19 88 53 14 15
internal_value=4.46945e-11 0.0343881 0.0691777 -0.0284111 -0.0355139 0.0278162 0.0532022 0.0163171 0.0608874 -0.0205563 0.0314771 -0.0449794 0.00974621 -0.0103475 -0.00134079 0.0634148 0.00137295 0.00852657 0.0169219 0.0555166 -0.040304 -0.041711 -0.0593765 0.0807764 0.0209983 0.00326557 0.167892 0.0712044 0.00934818 0.0665694 0.0351481 -0.0349945 -0.0648231 -0.0337162 0.0208302 -0.0465335 -0.0187911 0.0144743 -0.035747 0.0106456 0.0635549 0.179502 0.00845003 -0.0177235 -0.0134567 -0.005022 0.0179248 0.0588745 0.0642657 0.0736799 0.0835642 0.030057 0.034117 0.0460765 -0.0603713 0.0890356 0.084177 0.0507648 -0.0385105 0.0144903 0.0234389 0.148386
internal_weight=0 1407 481 1703 1512 191 414 926 339 586 280 926 646 330 105 86 368 102 85 85 699 658 227 54 195 356 67 242 74 176 97 275 172 256 278 383 228 64 233 91 155 42 219 41 130 137 226 106 62 49 66 104 32 69 132 44 33 32 192 77 24 25
internal_count=3110 1407 481 1703 1512 191 414 926 339 586 280 926 646 330 105 86 368 102 85 85 699 658 227 54 195 356 67 242 74 176 97 275 172 256 278 383 228 64 233 91 155 42 219 41 130 137 226 106 62 49 66 104 32 69 132 44 33 32 192 77 24 25
is_linear=0
shrinkage=1


Tree=1
num_leaves=63
num_cat=0
split_feature=0 1 7 6 1 0 8 1 13 3 0 0 0 10 6 6 1 1 3 0 8 11 8 9 1 8 6 11 11 1 7 9 8 0 3 8 9 8 8 10 8 6 7 7 1 2 10 10 7 0 10 8 3 3 8 4 9 9 6 10 9 9
split_gain=1096.89 319.325 273.832 259.958 93.0068 42.0168 39.8983 38.607 33.2998 32.498 28.3417 25.4626 22.1029 21.6465 15.3834 14.4296 14.1768 13.9667 10.653 8.30266 7.98755 6.64906 5.47768 5.30533 5.00896 5.00475 4.96598 4.6609 4.26142 3.97126 3.80589 3.55762 3.09579 2.80387 2.65537 2.66134 2.59418 2.58529 2.31201 2.16102 2.06575 1.92159 1.89947 1.79487 1.54018 1.48846 1.42648 1.4173 1.4093 1.38404 1.36312 1.27858 1.25866 1.22664 1.12487 1.24766 1.1146 1.10578 1.09756 1.02774 1.02462 1.00229
threshold=8.5000000000000018 2018.5000000000002 1.8500000000000003 36.70000000000001 2018.5000000000002 3.5000000000000004 1.3527208732559255 2014.5000000000002 3.5000000000000004 9806.0000000000018 5.5000000000000009 11.500000000000002 2.5000000000000004 1.7239133174246606 41.20000000000001 57.050000000000004 2013.5000000000002 2017.5000000000002 26246.000000000004 4.5000000000000009 0.97472486931163893 3.0128835369244249 3.0875747792781039 2.767330557770562 2018.5000000000002 1.8104061933965461 35.550000000000004 2.3607390959130088 3.8684224626193395 2011.5000000000002 1.6500000000000001 3.4884597530747317 1.1611324640013614 2.5000000000000004 3472.0000000000005 2.1112275915515317 2.3062263372205378 3.1968076211266863 1.5838209324044357 2.3320124424382933 1.7306288124353209 61.550000000000004 1.6500000000000001 1.8500000000000003 2016.5000000000002 1.0000000180025095e-35 1.7590813929878248 2.3037070628370908 1.6500000000000001 3.5000000000000004 1.6335926258518445 1.9783195601904997 9933.5000000000018 2812.5000000000005 1.61983718837276 1.0000000180025095e-35 2.6468662028728249 3.1424005917855373 35.550000000000004 4.153596590677437 2.1528586389686093 4.8965987504543014
decision_type=2 2 2 2 2 2 2 2 2 2 2 2 2 2 2 2 2 2 2 2 2 2 2 2 2 2 2 2 2 2 2 2 2 2 2 2 2 2 2 2 2 2 2 2 2 2 2 2 2 2 2 2 2 2 2 2 2 2 2 2 2 2
left_child=3 8 6 10 7 20 -3 19 13 25 -1 14 15 31 -10 18 -15 27 -9 29 33 38 -4 43 -12 46 -11 42 34 -5 49 41 -17 -6 35 -27 -29 -24 50 -25 -23 60 57 47 -16 -31 -8 -18 -38 -19 -13 -42 -51 -7 55 -48 -40 -14 -36 -41 -2 -26
right_child=1 2 22 4 5 53 9 12 11 26 24 21 17 16 44 32 23 30 -20 -21 -22 40 37 39 61 28 -28 36 -30 45 -32 -33 -34 -35 58 -37 48 -39 56 59 51 -43 -44 -45 -46 -47 54 -49 -50 52 -52 -53 -54 -55 -56 -57 -58 -59 -60 -61 -62 -63
leaf_value=0.090472221284201654 0.010084753040046919 0.017541919787724815 0.14096669149398805 -0.077359288054354047 -0.026776995673066097 0.035553543224479213 0.068990521674806432 -0.027425421631584564 0.11099371373653413 0.024506596513092518 0.022213085697820555 0.034984051212668406 -0.039479141860238973 -0.052036013479422161 0.036198283955454824 -0.039171476035546035 -0.002407792744304364 -0.022011409337735838 0.032164917290210725 -0.042189881786123505 0.001009343669165344 0.012578471375163644 0.16359248496592046 0.0051369033439690806 0.039155072867870316 0.075713186075047748 0.047797265850208909 -0.036382232771979439 0.084378102705592206 -0.039563768655061726 0.010675373449921609 0.030598076377980045 -0.047591520118857589 -0.012292058279319687 0.044224148704892115 0.056793274861924793 -0.024537604339907763 0.19271805882453918 -0.012868309058248997 0.019653770236460411 0.039973895430564885 0.010187318208660196 -0.022779785547978604 0.010276755804402961 0.050824077890978918 -0.059689532048934325 0.065223789811134344 -0.013555456916599172 -0.010424130940809847 0.0026714694901154596 0.011151990716656049 0.026917216926813127 -0.014541995043641535 0.022207756934221834 0.098430776054208927 0.086378692803175561 0.0057948608114384119 -0.03221082774144185 0.057534647366758118 0.0019679300766438246 0.022056593941524625 0.059880719653197703
leaf_weight=33 21 75 25 34 105 33 22 30 9.9999999999999982 60 39 10.000000000000002 155 11.999999999999998 30 195 75 54 9.9999999999999982 77 49 20 32 166 10.000000000000002 41 37 45 21 9.9999999999999982 14.999999999999998 61 248 49 21 34 153 9.9999999999999982 9.9999999999999982 46 25 71 26 18 45 113 9.9999999999999982 46 20 12.999999999999998 14.999999999999998 75 58 36 10.999999999999998 23 40 79 59 9.9999999999999982 120 13.999999999999998
leaf_count=33 21 75 25 34 105 33 22 30 10 60 39 10 155 12 30 195 75 54 10 77 49 20 32 166 10 41 37 45 21 10 15 61 248 49 21 34 153 10 10 46 25 71 26 18 45 113 10 46 20 13 15 75 58 36 11 23 40 79 59 10 120 14
internal_value=0 0.0326687 0.0657188 -0.0269905 -0.0317652 -0.00511651 0.0505421 -0.0371947 0.0155012 0.057843 0.0529352 0.0299032 -0.0332748 0.00925889 0.0527408 -0.0412883 0.00142867 -0.0270119 -0.0125278 -0.0556384 -0.0165736 0.0199484 0.159497 0.00320589 0.0332729 0.0676441 0.0333907 -0.0310798 0.0632409 -0.0622342 -0.0131228 0.0199573 -0.0438852 -0.0221682 0.0603772 0.0671362 -0.0256878 0.170527 0.00826976 0.00800216 0.0272476 0.0168956 -0.0356008 -0.00445434 0.0449738 -0.0580533 0.079386 -0.00664575 -0.022906 -0.0159786 0.0206848 0.0301814 -0.0113902 0.0285905 0.0845838 0.0799681 0.00206223 -0.0370253 0.0540406 0.0164956 0.0202736 0.051245
internal_weight=0 1407 481 1703 1607 272 414 1335 926 339 96 280 1101 646 85 483 373 618 40 234 203 195 67 361 63 242 97 478 176 157 140 273 443 154 155 75 218 42 75 222 120 212 260 139 75 123 66 121 173 125 25 100 71 69 44 33 50 234 80 56 141 24
internal_count=3110 1407 481 1703 1607 272 414 1335 926 339 96 280 1101 646 85 483 373 618 40 234 203 195 67 361 63 242 97 478 176 157 140 273 443 154 155 75 218 42 75 222 120 212 260 139 75 123 66 121 173 125 25 100 71 69 44 33 50 234 80 56 141 24
is_linear=0
shrinkage=0.05


Tree=2
num_leaves=63
num_cat=0
split_feature=0 3 6 7 12 13 7 12 11 8 10 0 8 5 10 9 3 2 3 9 9 4 8 6 11 0 11 9 6 12 0 6 13 9 9 8 12 11 9 10 0 10 9 12 3 6 8 11 9 8 7 8 6 12 6 6 10 11 12 0 7 0
split_gain=989.945 270.908 234.612 183.995 93.9325 54.6603 41.6375 50.9828 34.4678 28.7051 25.7025 25.5784 18.7938 22.2312 15.57 14.4511 12.6894 12.2202 9.63534 13.5973 9.61374 8.29032 7.85378 6.76334 6.99271 6.13459 5.97566 4.99485 4.15277 6.87595 3.59848 3.98359 3.50816 3.33857 3.30982 2.89095 2.87091 2.84428 2.4636 2.31242 2.26679 2.18601 2.09191 2.0262 1.88358 1.80631 1.69118 1.64802 1.631 1.41352 1.28793 1.26118 1.24512 1.22763 1.19553 1.19084 1.18864 1.18383 1.16274 1.15751 1.09946 1.04118
threshold=8.5000000000000018 7310.5000000000009 36.70000000000001 2.1000000000000005 2.6159962398437551 3.5000000000000004 2.1000000000000005 1.1746845664339742 2.6075646041014844 1.3527208732559255 1.7590813929878248 5.5000000000000009 0.8980325822566938 155.00000000000003 2.589848708528121 3.9273615713289032 69800.000000000015 1.5000000000000002 35443.000000000007 3.7136935924434469 4.1027993964819265 1.5000000000000002 3.8783058438616709 64.950000000000017 3.3995213780439761 3.5000000000000004 3.0128835369244249 2.6913946152443167 35.550000000000004 1.9731908549849162 3.5000000000000004 50.900000000000006 1.0000000180025095e-35 4.6567638198536114 4.7242572092239765 1.5838209324044357 1.0964769524480402 3.8089521458466784 3.8198476782178767 2.3320124424382933 2.5000000000000004 2.638328830193752 3.6156862645640548 0.75642807748015117 13219.500000000002 61.550000000000004 2.0280726973239838 2.9790867500280847 3.9373226345557022 4.3987778433328772 1.8500000000000003 3.1052730287130932 41.850000000000009 2.2087763447387507 39.500000000000007 50.900000000000006 2.1343648726360356 2.9238447237625769 2.3006752556570986 2.5000000000000004 1.1500000000000001 9.5000000000000018
decision_type=2 2 2 2 2 2 2 2 2 2 2 2 2 2 2 2 2 2 2 2 2 2 2 2 2 2 2 2 2 2 2 2 2 2 2 2 2 2 2 2 2 2 2 2 2 2 2 2 2 2 2 2 2 2 2 2 2 2 2 2 2 2
left_child=2 3 11 9 8 10 17 41 30 -2 20 -1 40 18 23 -11 27 26 19 -14 42 38 32 24 57 -21 35 50 37 36 -4 -32 -23 -13 54 43 46 -17 49 -29 -10 -8 45 -7 -35 58 -30 -27 -19 -16 -12 -34 -49 -9 -5 -38 -42 59 -3 -6 -61 -47
right_child=1 5 4 34 14 6 7 53 12 15 16 33 13 -15 21 28 -18 48 -20 25 -22 22 -24 -25 -26 47 -28 39 29 -31 31 -33 51 44 -36 -37 55 -39 -40 -41 56 -43 -44 -45 -46 61 -48 52 -50 -51 -52 -53 -54 -55 -56 -57 -58 -59 -60 60 -62 -63
leaf_value=0.085948610215476062 0.020293956065513926 0.020979552253910152 -0.036267159094337288 0.15783219961892991 -0.041036652876780585 0.010452738866511293 0.11014787912368772 0.045790532079278211 -0.023123308039348745 0.010309000538948638 -0.0071182496956511791 0.021641169146945083 -0.020138276809205612 -0.02497931166606791 -0.035459026857847124 0.040864704663936907 -0.03806940646548021 0.038573558947869707 0.060567897446453571 0.0019182352145435289 0.046304365510449697 -0.021699114454289278 -0.06788668045774103 -0.020612194648364914 -0.0064592380503502985 0.0073451132420450458 0.025118950565796605 0.004297454950136061 0.060122606803973515 0.05545212690147662 -0.031695835431416831 -0.013475900577381253 -0.045898015890270476 0.056712018450101202 0.1790803881791922 0.00042859607653573473 0.087520219515199255 0.062567409955792949 -0.013660207400098443 0.014310252970491334 -0.016159952675537548 0.14124269485473634 0.028589221909642221 0.038816782869398596 0.03013493302666272 0.017663521745375225 0.080684604843457547 0.015991519657628878 0.056543211185413861 -0.046334782433002555 0.0078013936879442027 -0.05370791042223573 0.032861571282148359 0.030818436843784231 0.13999578637235308 0.07038174913479732 -0.0052611614267031349 -0.030537718636068429 0.0067013056243013132 -0.02362641998463207 -0.037126701621599097 0.0055770103971720959
leaf_weight=33 51 131 131 21 260 17.000000000000004 10.000000000000002 49 98 12.999999999999998 97 36 30 51 82 26 19 28 9.9999999999999982 40 34 11.999999999999998 64 74 18 9.9999999999999982 159 171 30 62 75 50 112 15.000000000000002 12.999999999999998 47 46 36 9.9999999999999982 87 82 12.999999999999998 40 9.9999999999999982 11.999999999999998 28 14.999999999999998 13.999999999999998 23 47 17 96 50 19 17 12.999999999999998 36 44 15.999999999999998 18 93 49
leaf_count=33 51 131 131 21 260 17 10 49 98 13 97 36 30 51 82 26 19 28 10 40 34 12 64 74 18 10 159 171 30 62 75 50 112 15 13 47 46 36 10 87 82 13 40 10 12 28 15 14 23 47 17 96 50 19 17 13 36 44 16 18 93 49
internal_value=0 0.0310353 -0.025641 0.0696771 -0.0301769 0.0185784 0.0339397 0.0633727 -0.0160087 0.0543726 0.0102177 0.0502884 -0.00721111 0.00363281 -0.0404908 0.0615842 0.00178693 0.0245087 0.0131083 0.00981244 0.0212796 -0.0475736 -0.0524707 -0.0345815 -0.0369689 0.0176942 0.0196563 0.00382261 0.0645078 0.0686318 -0.0304765 -0.0244079 -0.047986 0.0316092 0.157303 0.00791903 0.0764888 0.0534663 -0.0375682 0.00767386 -0.0175028 0.127723 0.0180567 0.0209579 0.0449 0.0161759 0.0669766 0.0262218 0.0466775 -0.0394215 -0.00489339 -0.0495026 0.0291712 0.0416072 0.149853 0.0837439 -0.0128349 -0.0382922 0.0194255 -0.0392118 -0.0349375 0.00997211
internal_weight=0 1407 1703 343 1607 1064 375 91 677 292 689 96 421 205 930 241 391 284 154 144 298 423 284 507 433 114 233 372 228 166 256 125 220 63 51 74 104 62 139 258 216 23 264 27 27 224 45 74 51 129 114 208 64 68 38 59 118 415 147 371 111 77
internal_count=3110 1407 1703 343 1607 1064 375 91 677 292 689 96 421 205 930 241 391 284 154 144 298 423 284 507 433 114 233 372 228 166 256 125 220 63 51 74 104 62 139 258 216 23 264 27 27 224 45 74 51 129 114 208 64 68 38 59 118 415 147 371 111 77
is_linear=0
shrinkage=0.05


Tree=3
num_leaves=63
num_cat=0
split_feature=0 1 7 6 1 0 8 1 13 3 0 0 11 10 6 1 0 6 1 3 0 8 0 10 8 4 8 9 1 11 8 6 9 6 11 6 0 8 10 8 6 7 7 10 11 10 9 1 10 8 0 4 7 2 10 6 9 9 8 10 8 9
split_gain=893.426 260.942 223.228 211.737 75.952 34.4289 32.6389 31.78 26.9762 26.9674 23.0845 20.8537 18.4866 17.6094 12.7789 12.187 9.66319 8.70105 7.79608 20.0004 6.93886 6.58578 5.6934 5.36553 4.77027 4.76075 4.42873 4.29067 4.15561 3.8858 3.3843 3.067 2.8794 2.58266 2.40086 2.38495 2.22319 2.13785 1.82134 1.72269 1.56099 1.55144 1.48983 1.47215 1.46876 1.44144 1.43704 1.28565 1.19474 1.18564 1.13069 1.2576 1.1102 1.05964 1.0516 1.02397 0.987634 0.945307 0.863763 0.835979 0.816509 0.787055
threshold=8.5000000000000018 2018.5000000000002 1.8500000000000003 36.70000000000001 2018.5000000000002 3.5000000000000004 1.3527208732559255 2014.5000000000002 3.5000000000000004 10168.000000000002 5.5000000000000009 11.500000000000002 2.5527864915258101 1.7239133174246606 41.20000000000001 2013.5000000000002 2.5000000000000004 57.050000000000004 2016.5000000000002 35443.000000000007 4.5000000000000009 0.97472486931163893 2.5000000000000004 1.9917611355631692 1.8104061933965461 1.5000000000000002 3.0875747792781039 2.767330557770562 2018.5000000000002 3.8011431237869724 4.5631082388932045 35.550000000000004 3.4884597530747317 35.550000000000004 2.3607390959130088 35.550000000000004 2.5000000000000004 3.1968076211266863 2.3320124424382933 2.3520437890879746 61.550000000000004 1.6500000000000001 1.8500000000000003 2.6457530109957808 3.3995213780439761 1.1820919663867648 2.6468662028728249 2016.5000000000002 2.4730118206252154 1.9783195601904997 11.500000000000002 1.0000000180025095e-35 1.2500000000000002 1.0000000180025095e-35 1.1440112584145361 43.550000000000004 3.1756837804322475 2.6305204851179309 3.0276500635654133 4.153596590677437 3.3135038199857481 4.8965987504543014
decision_type=2 2 2 2 2 2 2 2 2 2 2 2 2 2 2 2 2 2 2 2 2 2 2 2 2 2 2 2 2 2 2 2 2 2 2 2 2 2 2 2 2 2 2 2 2 2 2 2 2 2 2 2 2 2 2 2 2 2 2 2 2 2
left_child=3 8 6 10 7 21 -3 20 13 24 -1 14 16 32 -10 -15 39 18 55 44 30 36 -19 25 50 -13 58 42 -12 35 53 -11 40 -31 41 -26 -6 -28 -29 -9 57 56 48 -37 -20 -24 -27 -16 -17 -25 -8 -52 -7 -5 -36 -14 -18 -2 -4 -40 -43 -30
right_child=1 2 26 4 5 52 9 12 11 31 28 23 17 15 47 27 34 22 19 -21 -22 -23 45 49 29 46 37 38 61 33 -32 -33 -34 -35 54 43 -38 -39 59 -41 -42 60 -44 -45 -46 -47 -48 -49 -50 -51 51 -53 -54 -55 -56 -57 -58 -59 -60 -61 -62 -63
leaf_value=0.081651175022125252 0.013983023377941618 0.015809691704809666 0.11598625063896179 -0.035823063701391225 -0.024141346741290322 0.014833332751603687 0.062706743180751798 -0.038584510554105805 0.10068784594535828 0.02178075844258593 0.019955035461447179 0.035248334286734462 -0.019817464612424375 -0.048287331312894824 0.032498099133372309 -0.0023971164887188934 -0.035547526718841663 -0.034864240544182912 -0.01454946326841248 0.060398117518052463 -0.038013831825999475 0.0010082880999626859 -0.0072257730915832033 0.03632057774811983 0.038435602684815724 -0.012246323116123677 0.14764265418052674 0.0046143265738410044 0.035685094222426404 0.059439038402504397 -0.067077052235603327 0.040934495390816172 0.027568362982653572 0.081848510056734089 -0.015177978658272577 0.052115466827765494 -0.011243254508899183 0.17412813544273376 0.017890529326446677 -0.046159926618708942 0.00919482270071224 -0.0092996073688846048 0.00946366123130752 0.06732082888484002 0.005401634052395821 -0.022654408512909605 0.0078862394833077616 0.04586080574327045 -0.012894034272105229 0.023368940446456311 0.065168114751577383 0.082526110013326007 0.029552024497220726 -0.052917518658736319 -0.026320117505060303 -0.031760025270283224 -0.028509479993954302 0.022181114217115418 0.13495731194814045 0.0019397160410881042 -0.027512423787266017 0.054051082049097338
leaf_weight=33 67 75 10 9.9999999999999982 105 17 22 195 9.9999999999999982 57 39 15.999999999999998 28 11.999999999999998 30 80 162 140 119 9.9999999999999982 77 49 24 24 27 9.9999999999999982 32 166 10.000000000000002 36 50 33 61 20 30 78 49 9.9999999999999982 46 122 71 10.000000000000002 18 20 9.9999999999999982 41 78 45 41 67 15.999999999999998 30 52 97 72 50 72 74 15 9.9999999999999982 15.999999999999998 13.999999999999998
leaf_count=33 67 75 10 10 105 17 22 195 10 57 39 16 28 12 30 80 162 140 119 10 77 49 24 24 27 10 32 166 10 36 50 33 61 20 30 78 49 10 46 122 71 10 18 20 10 41 78 45 41 67 16 30 52 97 72 50 72 74 15 10 16 14
internal_value=0 0.0294835 0.0593599 -0.024359 -0.0286681 -0.00458633 0.0456571 -0.0335746 0.0139646 0.0522605 0.047774 0.0269272 -0.0300181 0.0083461 0.0475948 0.00128368 -0.0351259 -0.0217998 -0.0148216 -0.00772222 -0.0503083 -0.0149574 -0.0291866 0.0179182 0.0607389 0.01016 0.144031 0.00293147 0.0300288 0.056497 -0.0563381 0.0288038 0.0179955 0.0674424 -0.0295441 0.0515935 -0.0200374 0.153949 0.00724477 -0.0415 0.015241 -0.0320945 -0.0039574 0.0552186 -0.0130029 -0.0169577 0.00559845 0.0405157 -0.00595392 0.0267848 0.0720297 0.0764885 0.0259257 -0.0513199 -0.023043 -0.027473 -0.033382 0.0182856 0.127369 0.0150422 -0.0205075 0.0463986
internal_weight=0 1407 481 1703 1607 272 414 1335 926 339 96 280 1101 646 85 373 679 422 217 139 234 203 205 195 249 104 67 361 63 181 157 90 273 56 362 125 154 42 222 317 212 260 139 98 129 65 88 75 121 91 68 46 69 107 102 78 234 141 25 56 26 24
internal_count=3110 1407 481 1703 1607 272 414 1335 926 339 96 280 1101 646 85 373 679 422 217 139 234 203 205 195 249 104 67 361 63 181 157 90 273 56 362 125 154 42 222 317 212 260 139 98 129 65 88 75 121 91 68 46 69 107 102 78 234 141 25 56 26 24
is_linear=0
shrinkage=0.05


Tree=4
num_leaves=63
num_cat=0
split_feature=0 1 7 6 12 8 11 12 7 3 0 1 8 1 2 12 8 3 9 11 6 7 0 6 8 9 4 1 11 6 13 12 7 12 10 6 12 12 9 3 8 8 1 0 12 6 6 11 6 10 4 6 10 8 12 3 2 11 10 10 6 8
split_gain=806.317 235.501 201.463 191.093 77.4729 29.4566 28.1594 24.3806 24.4596 24.338 20.8337 16.9509 15.3474 19.039 13.4986 13.1897 10.9402 10.3492 11.4698 6.78446 6.137 5.89045 5.30933 4.58309 4.30517 3.999 3.87451 3.75044 3.61596 3.34244 3.3091 3.19373 2.96124 2.80967 2.78536 2.76796 2.65442 2.54612 2.39902 2.26516 2.22537 2.15951 2.08023 1.8045 1.2424 1.22193 1.13208 1.1027 1.09888 1.07816 1.40578 1.50194 0.9965 0.994926 0.987406 0.911123 0.856532 0.851637 0.794372 0.784219 0.783022 0.96001
threshold=8.5000000000000018 2018.5000000000002 1.8500000000000003 36.70000000000001 2.6159962398437551 1.3527208732559255 2.6075646041014844 2.2398269295480406 2.1000000000000005 10168.000000000002 5.5000000000000009 2014.5000000000002 0.8980325822566938 2016.5000000000002 1.0000000180025095e-35 1.1746845664339742 5.743165691910554 34046.500000000007 3.7607578790261402 3.4416458934572818 62.250000000000007 1.6500000000000001 3.5000000000000004 43.850000000000009 1.8104061933965461 4.7242572092239765 1.5000000000000002 2018.5000000000002 3.8684224626193395 61.550000000000004 3.5000000000000004 5.3350576111211323 1.6500000000000001 3.4165977951134181 2.8772987607023262 35.550000000000004 3.2953774066529999 1.8101417782385041 3.4683362926369403 3472.0000000000005 3.0797136977722723 2.1112275915515317 2017.5000000000002 2.5000000000000004 3.4165977951134181 50.900000000000006 35.550000000000004 2.9053875387838559 57.050000000000004 2.084931329361225 1.0000000180025095e-35 50.900000000000006 2.1343648726360356 1.9783195601904997 4.2561819152499654 25881.000000000004 1.5000000000000002 2.5667805789304565 1.4928936296555768 3.0232135213224161 41.850000000000009 1.2774901511494587
decision_type=2 2 2 2 2 2 2 2 2 2 2 2 2 2 2 2 2 2 2 2 2 2 2 2 2 2 2 2 2 2 2 2 2 2 2 2 2 2 2 2 2 2 2 2 2 2 2 2 2 2 2 2 2 2 2 2 2 2 2 2 2 2
left_child=3 7 5 10 6 -3 32 8 23 24 59 21 43 -14 44 -10 30 18 -15 20 33 31 -20 53 49 40 29 -12 39 38 36 54 37 47 58 -11 -16 45 57 41 -4 -26 -28 -8 -9 -5 -41 -13 -21 50 -7 -52 -45 -2 -6 -39 -17 -25 -22 -1 -24 -62
right_child=1 2 25 4 11 9 12 14 15 35 27 19 13 17 16 56 -18 -19 22 48 34 -23 60 26 28 -27 42 -29 -30 -31 -32 -33 -34 -35 -36 -37 -38 55 -40 46 -42 -43 -44 52 -46 -47 -48 -49 -50 -51 51 -53 -54 -55 -56 -57 -58 -59 -60 -61 61 -63
leaf_value=0.069125122626622515 0.034798360764980323 0.015019207057853541 0.11446908791859944 -0.023704916930624417 -0.045572642374195553 0.051901095892701837 -0.020730689652644251 0.024848265803432953 0.1028810089826584 0.020691720278639542 0.018957284169319352 -0.035382187959490989 -0.024174140168664357 -0.015193598188067738 0.0035721086218434869 0.03552272582755369 -0.051278612837195398 0.061027979925274846 0.002213796058204025 -0.0087583360553253452 -0.015152493901276851 -0.034237307472662494 0.014054321153805808 0.016098392157370904 0.06517144456142332 0.16172556510338418 -0.0022399229860705573 0.04407865833491087 0.073179265147163761 0.006020483396326503 0.027572372307380039 -0.0654122143983841 -0.010328557154001751 -0.042364225262595763 -0.036099407659924553 0.038887770519112103 -0.0065854270371015784 -0.028414103878395897 0.038602009995116128 0.036324170852700871 0.13713067770004272 0.048128429624964213 0.01176666277522842 -0.014595612860284747 0.013433173330299357 -0.005155342538077653 0.049142974908234646 -0.027134095567793767 -0.027747047990560533 0.082759950919584796 0.078856824014497839 0.06012193262577057 -0.0046165099205811404 0.023191056345240213 -0.054322563005345208 -0.035333287767295184 0.048777233299456151 0.023644881780044393 -0.024195368555100526 0.084604867630534708 0.017324505490250885 0.031815953957848253
leaf_weight=14.999999999999998 30 75 14.999999999999998 28 76 13.999999999999998 98 67 9.9999999999999982 57 39 294 48 38 239 34 9.9999999999999982 9.9999999999999982 40 32 34 55 12.999999999999998 88 41 12.999999999999998 41 24 21 45 11.999999999999998 40 23 155 46 33 88 105 18 24 39 34 75 82 37 12.999999999999998 61 47 9.9999999999999982 10.999999999999998 23 20 36 48 56 87 19 65 85 18 15.999999999999998 40
leaf_count=15 30 75 15 28 76 14 98 67 10 57 39 294 48 38 239 34 10 10 40 32 34 55 13 88 41 13 41 24 21 45 12 40 23 155 46 33 88 105 18 24 39 34 75 82 37 13 61 47 10 11 23 20 36 48 56 87 19 65 85 18 16 40
internal_value=0 0.0280093 0.0563919 -0.023141 -0.0272347 0.0433743 -0.0143675 0.0132663 0.0212061 0.0496475 0.0453853 -0.0366014 -0.00641565 0.00338367 0.00497607 0.0502119 0.000264466 0.011809 0.00846076 -0.0327656 -0.0340038 -0.0484807 0.0167072 0.0167491 0.0577019 0.136829 0.0141867 0.0285273 0.0536722 0.0181451 0.00178491 -0.0530353 -0.0274445 -0.0367825 -0.0256507 0.0273636 0.000838582 -0.0291341 0.0213357 0.0511119 0.130836 0.0574453 0.00681606 -0.0157159 0.0207871 -0.0178233 0.0455235 -0.0342454 -0.0132795 0.0684282 0.0656625 0.0701429 -0.0115511 0.0276554 -0.0492847 -0.0315494 0.0402743 0.0193044 -0.0216117 0.0775686 0.0251092 0.0276755
internal_weight=0 1407 481 1703 1607 414 677 926 473 339 96 930 421 205 453 63 349 157 147 703 661 227 109 410 249 67 332 63 181 216 339 172 256 496 165 90 327 233 171 160 54 75 116 216 104 41 85 341 42 68 57 43 118 78 132 192 53 153 119 33 69 56
internal_count=3110 1407 481 1703 1607 414 677 926 473 339 96 930 421 205 453 63 349 157 147 703 661 227 109 410 249 67 332 63 181 216 339 172 256 496 165 90 327 233 171 160 54 75 116 216 104 41 85 341 42 68 57 43 118 78 132 192 53 153 119 33 69 56
is_linear=0
shrinkage=0.05


Tree=5
num_leaves=63
num_cat=0
split_feature=0 3 6 7 12 13 7 12 11 8 10 0 8 8 8 13 10 9 3 2 9 12 4 6 11 9 11 9 9 9 6 12 3 0 6 9 8 12 9 12 8 11 9 10 6 0 10 12 3 8 6 5 9 0 7 8 12 11 0 9 12 8
split_gain=727.701 201.129 172.461 135.132 69.9193 40.2058 30.9384 37.8682 25.4139 20.6523 19.0282 18.8024 13.851 17.1068 12.6204 14.3451 11.7033 10.7526 9.75774 9.21348 7.11889 6.45022 5.14435 5.09907 5.14377 4.60135 4.3599 3.75947 3.72698 3.3594 3.12562 5.19827 3.03239 2.73375 2.98174 2.5185 2.48244 2.29309 2.28103 2.23894 2.20051 2.13911 1.84814 1.68754 1.66156 1.62856 1.56386 1.52371 1.4564 1.27474 1.23812 1.21451 1.20173 1.04322 1.03889 0.988263 0.975895 0.925786 0.990811 1.00704 0.925557 0.918692
threshold=8.5000000000000018 7310.5000000000009 36.70000000000001 2.1000000000000005 2.6159962398437551 3.5000000000000004 2.1000000000000005 1.1746845664339742 2.6075646041014844 1.3527208732559255 1.7590813929878248 5.5000000000000009 0.8980325822566938 1.6593797653371689 1.3527208732559255 1.5000000000000002 2.589848708528121 3.9273615713289032 69800.000000000015 1.5000000000000002 3.7512666020882741 5.7792008370645096 1.5000000000000002 64.950000000000017 3.3995213780439761 3.6156862645640548 3.0128835369244249 3.8017181816151351 2.6913946152443167 3.4521692911342052 35.550000000000004 1.9731908549849162 11896.500000000002 3.5000000000000004 50.900000000000006 4.6567638198536114 3.1968076211266863 4.2561819152499654 3.776678737007559 1.0964769524480402 1.5838209324044357 3.7883656351524713 4.3809837545174126 2.3320124424382933 45.800000000000004 2.5000000000000004 2.638328830193752 0.75642807748015117 13219.500000000002 2.0280726973239838 61.550000000000004 142.50000000000003 3.9373226345557022 9.5000000000000018 1.8500000000000003 1.61983718837276 2.2087763447387507 2.5667805789304565 2.5000000000000004 3.1943348078689318 2.1506604619123233 2.5070129886390222
decision_type=2 2 2 2 2 2 2 2 2 2 2 2 2 2 2 2 2 2 2 2 2 2 2 2 2 2 2 2 2 2 2 2 2 2 2 2 2 2 2 2 2 2 2 2 2 2 2 2 2 2 2 2 2 2 2 2 2 2 2 2 2 2
left_child=2 3 11 9 8 10 19 46 33 -2 20 -1 45 14 27 -16 23 -11 28 26 50 22 38 24 57 -15 40 -14 54 37 41 39 -17 -4 -35 -13 -5 -24 -18 49 47 -19 -22 -30 -29 -10 -8 -7 -37 -32 60 -31 -21 -52 -12 -41 -9 58 -6 -60 -3 -33
right_child=1 5 4 36 16 6 7 56 12 17 18 35 13 25 15 32 21 30 -20 52 42 -23 29 -25 -26 -27 -28 44 43 51 31 61 -34 34 -36 48 -38 -39 -40 55 -42 -43 -44 -45 -46 -47 -48 -49 -50 -51 53 -53 -54 -55 -56 -57 -58 -59 59 -61 -62 -63
leaf_value=0.073690188472921206 0.017882491578804515 0.018704393322789861 -0.031119450642407398 0.12955093223874162 -0.037209127587117967 0.0089474570992238364 0.095015586614608738 0.039392798591633235 -0.019694154874934835 0.008675629480813558 -0.0062910831365725339 0.018443280308403903 -0.018339809320039219 -0.022107318989237994 0.087469200491905208 0.028401643626632229 -0.03326867288351059 0.031876406544133234 -0.033499329909682275 0.033213679492473606 0.027271416292271835 -0.065547398805618287 -0.042908388199089292 -0.017518679262768174 -0.0055539604328158831 0.0061842698358783596 0.021373244436492897 0.02095991002724451 0.0036784719618592875 -0.036463399595684474 0.051485792597134906 0.052717959156466855 -0.0032629413902759553 -0.027088109155495962 -0.01132490314426832 0.049031150937080374 0.15733545422554018 -0.054357617715048413 -0.008451757710427046 0.065661925180204986 0.0001464950485511663 0.05202161770227344 0.045602409690618517 0.01223206619769549 0.0023679310671712566 -0.010973583580630089 0.12131591943594128 0.033544264901429414 0.025661284538606804 0.069337575038274132 0.016175663877617232 -0.018561037381490075 0.048638365838838661 0.0047216955034527931 0.0071086417938418245 0.078606049815813706 0.026043722543277237 -0.030103990376334301 -0.03486068919301033 -0.023501696647144854 0.0084887096365154884 0.040383706814967668
leaf_weight=33 51 124 131 41 157 17.000000000000004 10.000000000000002 49 98 12.999999999999998 97 36 18 59 9.9999999999999982 31 125 19 19 28 44 25 143 74 18 19 159 17 171 45 30 36 9.9999999999999982 75 50 15.000000000000002 9.9999999999999982 63 9.9999999999999982 29 47 43 20 87 41 118 12.999999999999998 9.9999999999999982 11.999999999999998 14.999999999999998 33 11.999999999999998 23 50 17 30 19 176 50 32 27 26
leaf_count=33 51 124 131 41 157 17 10 49 98 13 97 36 18 59 10 31 125 19 19 28 44 25 143 74 18 19 159 17 171 45 30 36 10 75 50 15 10 63 10 29 47 43 20 87 41 118 13 10 12 15 33 12 23 50 17 30 19 176 50 32 27 26
internal_value=0 0.0266089 -0.021984 0.0599042 -0.0258729 0.0158755 0.0290501 0.0544213 -0.0136491 0.0467884 0.008705 0.043116 -0.00609487 0.00321449 0.0145339 0.0337748 -0.0347714 0.0529054 0.00145098 0.0209206 0.0182229 -0.0409121 -0.0393646 -0.0296481 -0.031721 -0.0152158 0.0167072 0.0016222 0.00323608 -0.0434373 0.0554273 0.059005 0.0206786 -0.0260723 -0.0207828 0.027101 0.134999 -0.0464099 -0.0314304 0.0658367 0.00668155 0.0458481 0.0329999 0.00656282 0.0078173 -0.0149301 0.109881 0.0180574 0.0386445 0.0574364 0.0141813 -0.0326945 0.0401699 0.00927568 -0.00429288 0.0722437 0.0356629 -0.032856 -0.0348825 -0.0304279 0.0168777 0.0475455
internal_weight=0 1407 1703 343 1607 1064 375 91 677 292 689 96 421 205 127 51 930 241 391 284 298 423 398 507 433 78 233 76 372 263 228 166 41 256 125 63 51 206 135 104 74 62 64 258 58 216 23 27 27 45 234 57 51 83 114 59 68 415 239 82 151 62
internal_count=3110 1407 1703 343 1607 1064 375 91 677 292 689 96 421 205 127 51 930 241 391 284 298 423 398 507 433 78 233 76 372 263 228 166 41 256 125 63 51 206 135 104 74 62 64 258 58 216 23 27 27 45 234 57 51 83 114 59 68 415 239 82 151 62
is_linear=0
shrinkage=0.05


Tree=6
num_leaves=63
num_cat=0
split_feature=0 1 7 6 12 7 11 12 7 12 0 1 2 12 10 11 9 0 11 6 4 7 6 6 6 9 4 1 11 6 6 12 2 0 6 12 12 10 9 9 1 11 10 11 9 9 0 11 12 12 6 3 12 6 12 11 2 11 3 3 11 3
split_gain=656.75 192.432 164.217 155.646 63.1022 23.6789 22.936 19.8971 19.9056 19.7238 16.9692 14.0131 11.0269 10.6973 9.19116 8.09954 9.88321 16.2391 5.62137 5.07231 4.92922 4.84775 3.8759 3.93377 3.70025 3.27676 3.22574 3.10962 3.07837 2.75061 2.74476 2.63483 2.63456 2.46721 2.69102 2.39051 2.34196 2.31629 2.0861 1.89613 1.72425 1.59353 1.39472 1.31135 1.26448 1.26155 1.12043 1.0677 0.990089 0.946771 0.89185 0.869653 0.845275 0.821514 0.887454 0.801714 0.776831 0.751292 0.728499 0.712855 0.752954 1.31665
threshold=8.5000000000000018 2018.5000000000002 1.8500000000000003 36.70000000000001 2.6159962398437551 1.5000000000000002 2.6075646041014844 2.2398269295480406 2.1000000000000005 0.87203398636003338 5.5000000000000009 2014.5000000000002 1.0000000180025095e-35 1.1746845664339742 4.9493468383448933 2.6251212128730468 4.124635573731064 3.5000000000000004 3.4416458934572818 62.250000000000007 1.5000000000000002 1.6500000000000001 78.450000000000017 35.550000000000004 43.850000000000009 4.7242572092239765 1.5000000000000002 2018.5000000000002 3.3826012306622277 43.150000000000006 61.550000000000004 5.3350576111211323 1.5000000000000002 3.5000000000000004 50.900000000000006 3.2953774066529999 3.6855290836080763 2.8772987607023262 3.4683362926369403 4.5627704079031703 2017.5000000000002 4.033140332683975 2.8160974436622008 3.5224746134802474 3.7136935924434469 3.2729126726793383 2.5000000000000004 2.9053875387838559 3.4165977951134181 4.7422530034025225 57.050000000000004 2812.5000000000005 3.8189408092500989 35.550000000000004 0.80074296828148939 3.0684024960079226 1.5000000000000002 2.5667805789304565 29476.500000000004 10568.000000000002 3.1896313046976599 6513.0000000000009
decision_type=2 2 2 2 2 2 2 2 2 2 2 2 2 2 2 2 2 2 2 2 2 2 2 2 2 2 2 2 2 2 2 2 2 2 2 2 2 2 2 2 2 2 2 2 2 2 2 2 2 2 2 2 2 2 2 2 2 2 2 2 2 2
left_child=3 7 5 10 6 43 33 8 24 32 -1 21 48 -10 29 -8 20 28 19 36 44 31 23 42 53 41 30 -12 46 -14 38 52 -7 58 -35 -31 47 -21 57 55 -28 -4 -11 -3 -17 -22 -18 -13 -9 -20 -47 -19 -6 -2 -55 -25 -15 -26 -5 60 61 -24
right_child=1 2 25 4 11 9 15 12 13 22 27 18 14 56 -16 16 17 51 49 37 45 -23 59 39 26 -27 40 -29 -30 35 -32 -33 -34 34 -36 -37 -38 -39 -40 -41 -42 -43 -44 -45 -46 50 -48 -49 -50 -51 -52 -53 -54 54 -56 -57 -58 -59 -60 -61 -62 -63
leaf_value=0.070005676421252161 0.018584939233973745 0.011877337826744598 0.10647391049485458 -0.026957074739038946 -0.037898029940468925 0.018363888317444284 0.034698242942492172 0.022378030868330553 0.092723178863525393 0.038798910710546711 0.017031732323364572 -0.03245572324135694 0.024151307201156252 0.031816212175523537 -0.047039715107530355 -0.0037818612963227277 -0.017769157115755409 0.027790260089166238 -0.0070599295012652875 -0.019394962119815104 -0.023330680063029505 -0.030912310264327308 0.062876336818391637 0.045970737381971313 0.014398777222694746 0.14609310260185829 -0.0021690064234795368 0.03990646533978482 0.005152288288006495 0.0032407998535598538 0.0054256520898909207 -0.059207461178302771 0.038897065179688592 -0.025733703474203746 -0.010758658153470607 -0.0065114876537528989 -0.040078560089824182 -0.032606575735237286 0.035405074639452826 0.071100185252726086 0.010582923866187532 0.1244599713597979 0.054561359014200131 0.0312693253159523 0.018336755285660426 -0.011937821034412341 -0.0064410819479131277 -0.024572544533531276 0.012187766599645085 -0.023677440453320743 -0.02078112743985959 0.016027867800245683 -0.046962366767765322 0.03579651278754075 0.022052221478003523 0.058940575700253253 0.044438990793730086 0.021486749401172768 -0.034897512890571768 0.029368452876806263 0.037218043446540831 0.041844161016785585
leaf_weight=33 31 68 19 88 35 61 11.999999999999998 67 9.9999999999999982 36 39 348 12.999999999999998 34 9.9999999999999982 14.000000000000002 58 33 30 119 53 55 10.999999999999998 13.999999999999998 88 12.999999999999998 41 24 29 241 45 40 21 75 50 85 99 46 18 32 75 35 23 9.9999999999999982 11.999999999999998 106 35 49 37 11.999999999999998 39 30 97 24 23 80 19 65 43 9.9999999999999982 25 23
leaf_count=33 31 68 19 88 35 61 12 67 10 36 39 348 13 34 10 14 58 33 30 119 53 55 11 14 88 13 41 24 29 241 45 40 21 75 50 85 99 46 18 32 75 35 23 10 12 106 35 49 37 12 39 30 97 24 23 80 19 65 43 10 25 23
internal_value=0 0.0252784 0.0509347 -0.0208848 -0.0245793 0.0391819 -0.0129666 0.0119516 0.0191242 0.0449433 0.0409602 -0.0330328 0.00446226 0.0452909 0.0002038 -0.00579013 -0.00697805 0.0015745 -0.0295452 -0.0306722 -0.0140415 -0.0438337 0.0518264 0.0555985 0.0151035 0.123557 0.0128011 0.0257459 -0.00907076 0.00159741 0.0164129 -0.0479656 0.0236224 -0.0247687 -0.0197437 0.000698026 -0.0331984 -0.0230782 0.0193042 0.0605876 0.00607578 0.118132 0.0449436 0.0143635 0.00642673 -0.0167293 -0.0135059 -0.0314827 0.0187526 -0.0118078 -0.0143164 0.0221891 -0.0445589 0.0249032 0.0290706 0.0570089 0.0363414 0.01741 -0.0295635 0.0417129 0.0438052 0.0486487
internal_weight=0 1407 481 1703 1607 414 677 926 473 336 96 930 453 63 349 421 409 185 703 661 224 227 254 185 410 67 332 63 122 339 216 172 82 256 125 326 496 165 171 126 116 54 59 78 26 198 93 397 104 42 145 63 132 78 47 94 53 153 131 69 59 34
internal_count=3110 1407 481 1703 1607 414 677 926 473 336 96 930 453 63 349 421 409 185 703 661 224 227 254 185 410 67 332 63 122 339 216 172 82 256 125 326 496 165 171 126 116 54 59 78 26 198 93 397 104 42 145 63 132 78 47 94 53 153 131 69 59 34
is_linear=0
shrinkage=0.05


Tree=7
num_leaves=63
num_cat=0
split_feature=0 1 7 6 12 8 11 3 12 7 0 1 8 8 2 12 8 12 1 11 6 7 9 8 6 8 9 4 11 1 6 6 12 0 6 12 12 10 6 1 3 3 1 0 1 8 6 10 6 8 0 4 12 6 11 11 12 8 10 10 2 3
split_gain=592.717 173.67 148.206 140.471 56.9497 21.7807 20.6998 18.1678 17.9572 17.9648 15.3147 12.6468 11.5964 15.775 9.9518 9.6543 9.31558 9.68857 8.33059 5.07329 4.57776 4.3751 3.79192 3.42858 3.33947 3.10181 2.97575 2.91123 2.90835 2.80643 2.77873 2.47715 2.37793 2.22666 2.42865 2.14573 2.13406 2.09045 2.06828 1.88469 1.77082 1.67168 1.55613 1.55594 1.42668 1.26189 2.76921 1.13494 1.08111 1.02791 0.910978 0.929169 0.893555 0.862189 0.862024 0.810059 0.76286 0.762672 0.709543 0.707757 0.70109 0.65747
threshold=8.5000000000000018 2018.5000000000002 1.8500000000000003 36.70000000000001 2.6159962398437551 1.3527208732559255 2.6075646041014844 10168.000000000002 2.2398269295480406 2.1000000000000005 5.5000000000000009 2014.5000000000002 0.94859534650970467 1.6593797653371689 1.0000000180025095e-35 1.1746845664339742 1.3527208732559255 1.6021304112566799 2013.5000000000002 3.4416458934572818 62.250000000000007 1.6500000000000001 3.6156862645640548 1.8104061933965461 43.850000000000009 3.0875747792781039 3.8017181816151351 1.5000000000000002 3.8684224626193395 2018.5000000000002 43.150000000000006 61.550000000000004 5.3350576111211323 3.5000000000000004 50.900000000000006 3.4446236912705119 3.4165977951134181 2.8772987607023262 35.550000000000004 2017.5000000000002 6211.5000000000009 6715.0000000000009 2017.5000000000002 2.5000000000000004 2019.5000000000002 2.5070129886390222 35.550000000000004 2.2634803349769417 45.800000000000004 2.0432141270790907 11.500000000000002 1.0000000180025095e-35 3.4165977951134181 57.050000000000004 3.077340084993176 1.0808528795001577 3.8189408092500989 1.9945995005505666 3.7449116032778336 3.0232135213224161 1.5000000000000002 29476.500000000004
decision_type=2 2 2 2 2 2 2 2 2 2 2 2 2 2 2 2 2 2 2 2 2 2 2 2 2 2 2 2 2 2 2 2 2 2 2 2 2 2 2 2 2 2 2 2 2 2 2 2 2 2 2 2 2 2 2 2 2 2 2 2 2 2
left_child=3 8 5 10 6 -3 33 23 9 24 59 21 43 16 52 -11 26 41 -16 20 36 32 -15 50 57 -4 -14 31 40 -12 -20 39 56 61 -35 55 54 -22 -9 -26 45 -18 -29 -8 -27 46 -25 -45 -28 -48 -7 -52 -10 -21 -13 -32 -6 -2 -31 -1 -17 -5
right_child=1 2 25 4 11 7 12 38 14 15 29 19 13 22 18 60 17 -19 30 53 37 -23 -24 28 27 44 48 42 -30 58 35 -33 -34 34 -36 -37 -38 -39 -40 -41 -42 -43 -44 47 -46 -47 49 -49 -50 -51 51 -53 -54 -55 -56 -57 -58 -59 -60 -61 -62 -63
leaf_value=0.058484072585900632 0.029585877107456329 0.012840437272874018 0.10343483233451843 -0.025609220674430784 -0.0360031287584986 0.050779948248104612 -0.017892768283431625 0.017596736458832758 0.021259129493594615 0.08808702021837235 0.016180145776329133 -0.030049593448638917 -0.016898334374030429 -0.02009437030410173 -0.040743717116614182 0.030225401722333012 0.026583802402019505 0.075360262766480446 0.02636803835630417 -0.0072126858867704868 -0.018425213962601609 -0.029366693997924982 0.005588536116441614 0.040080341246238979 0.015676100939805006 0.12052771933376789 0.019734757443269094 -0.0020605560619293187 0.063474465622788384 0.030645238072611387 -0.0023143545581795063 0.0051543695169190568 -0.056247087866067892 -0.024447018514076869 -0.010220725304679946 -0.0077237923350185166 -0.036403075807517581 -0.030976246362147127 0.033325737522858563 0.028686332276889256 0.034722218680672531 0.0037970852445472375 0.010053777677938342 -0.011657805842588898 0.14216402292251587 0.036787298381328583 0.051367684602737433 0.00080181437488962822 0.0036202379968017341 0.065790922017324546 0.053419885598123079 0.06834012071291605 0.011578378124112214 -0.024032485932111741 -0.020577084573988731 0.0042490205086736441 -0.044614248238887988 0.019534346359053059 0.048083408474922179 0.073189827799797061 0.042217040846222326 -0.033152637578720272
leaf_weight=14.999999999999998 32 75 25 88 35 22 98 57 67 9.9999999999999982 39 315 14.999999999999998 59 11.999999999999998 34 30 9.9999999999999982 10.999999999999998 32 119 55 19 43 136 32 14.999999999999998 41 21 14.000000000000002 61 45 40 75 50 60 155 46 33 35 41 10.999999999999998 75 108 9.9999999999999982 25 30 22 34 21 15.999999999999998 30 37 9.9999999999999982 26 205 97 46 9.9999999999999982 18 19 43
leaf_count=15 32 75 25 88 35 22 98 57 67 10 39 315 15 59 12 34 30 10 11 32 119 55 19 43 136 32 15 41 21 14 61 45 40 75 50 60 155 46 33 35 41 11 75 108 10 25 30 22 34 21 16 30 37 10 26 205 97 46 10 18 19 43
internal_value=0 0.0240145 0.048388 -0.0198405 -0.0233503 0.0372228 -0.0123183 0.0426171 0.011354 0.018168 0.0389122 -0.0313812 -0.00550062 0.00351883 0.00423914 0.0430263 0.0152915 0.031233 0.00019361 -0.0280679 -0.0291386 -0.041642 -0.0138383 0.049576 0.0143483 0.117379 0.00258804 0.012161 0.0459798 0.0244586 0.00165132 0.0155922 -0.0455673 -0.0235302 -0.0187565 0.000817319 -0.0315385 -0.0219243 0.023364 0.018339 0.0436837 0.0204703 0.00577199 -0.0131355 0.125679 0.0467712 0.0494265 -0.00954925 0.00855325 0.0573067 0.0591482 0.0631505 0.017815 -0.0112174 -0.0293273 0.00274389 -0.042331 0.0236581 0.0379111 0.0665054 0.0345243 -0.0280853
internal_weight=0 1407 481 1703 1607 414 677 339 926 473 96 930 421 193 453 63 115 51 349 703 661 227 78 249 410 67 64 332 181 63 337 216 172 256 125 326 496 165 90 171 160 41 116 228 42 119 94 130 49 51 68 46 104 42 341 266 132 78 24 33 53 131
internal_count=3110 1407 481 1703 1607 414 677 339 926 473 96 930 421 193 453 63 115 51 349 703 661 227 78 249 410 67 64 332 181 63 337 216 172 256 125 326 496 165 90 171 160 41 116 228 42 119 94 130 49 51 68 46 104 42 341 266 132 78 24 33 53 131
is_linear=0
shrinkage=0.05


Tree=8
num_leaves=63
num_cat=0
split_feature=0 1 7 6 12 8 11 3 12 7 3 1 8 1 3 10 12 2 1 11 6 7 0 8 6 8 4 11 2 6 12 12 0 7 12 12 10 6 1 3 8 8 0 8 6 6 12 8 3 1 10 4 6 10 10 10 3 6 3 12 5 8
split_gain=534.927 156.737 133.756 126.923 52.1987 19.6571 19.0002 16.3964 16.2064 16.2132 14.3468 11.4138 10.69 13.4819 9.6792 9.1532 8.713 7.8492 6.88357 4.57864 4.13142 3.94852 3.40792 3.09429 3.01387 2.79939 2.62739 2.62479 2.3912 2.23562 2.19094 2.12174 2.11946 2.02583 1.99506 1.95924 1.88663 1.86662 1.70094 1.59816 1.42756 1.28758 1.19855 1.13886 2.49921 1.13509 0.990603 0.92769 0.917827 0.856872 0.854586 1.14474 1.1657 0.848253 0.773668 0.766884 0.727608 0.699112 0.791934 0.694269 0.683094 0.667416
threshold=8.5000000000000018 2018.5000000000002 1.8500000000000003 34.250000000000007 2.6159962398437551 1.3527208732559255 2.6075646041014844 10168.000000000002 2.2398269295480406 2.1000000000000005 13219.500000000002 2014.5000000000002 0.8980325822566938 2016.5000000000002 34046.500000000007 5.172337303003407 1.1746845664339742 1.0000000180025095e-35 2018.5000000000002 3.4416458934572818 62.250000000000007 1.6500000000000001 3.5000000000000004 1.8104061933965461 43.850000000000009 3.0875747792781039 1.5000000000000002 3.8684224626193395 1.5000000000000002 61.550000000000004 5.7792008370645096 3.1639794557387533 5.5000000000000009 1.6500000000000001 1.8625219073322905 3.6855290836080763 2.8772987607023262 35.550000000000004 2017.5000000000002 6211.5000000000009 1.8723429350185234 3.1968076211266863 2.5000000000000004 2.5070129886390222 35.550000000000004 50.900000000000006 4.2561819152499654 2.0432141270790907 20081.500000000004 2015.5000000000002 2.084931329361225 1.0000000180025095e-35 50.900000000000006 2.3994171946120626 1.8786245603976115 2.1343648726360356 26009.500000000004 35.550000000000004 11339.000000000002 3.4165977951134181 130.00000000000003 2.290720902170873
decision_type=2 2 2 2 2 2 2 2 2 2 2 2 2 2 2 2 2 2 2 2 2 2 2 2 2 2 2 2 2 2 2 2 2 2 2 2 2 2 2 2 2 2 2 2 2 2 2 2 2 2 2 2 2 2 2 2 2 2 2 2 2 2
left_child=3 8 5 10 6 -3 33 23 9 24 32 21 42 -14 18 17 -11 59 54 20 35 30 -20 50 57 -4 29 39 31 38 46 -19 -1 34 45 48 -22 -9 -26 43 53 -27 -8 44 -25 -5 -6 -46 -13 -21 51 -7 -53 -28 -15 -44 -36 -2 -59 -10 -30 -35
right_child=1 2 25 4 11 7 12 37 15 16 -12 19 13 14 -16 -17 -18 28 22 49 36 -23 -24 27 26 41 40 -29 60 -31 -32 -33 -34 61 56 -37 -38 -39 -40 -41 -42 -43 55 -45 47 -47 -48 -49 -50 -51 -52 52 -54 -55 -56 -57 -58 58 -60 -61 -62 -63
leaf_value=0.065481684669371584 0.016646550557643715 0.012198415287459892 0.098263087749481212 -0.019647222965262657 -0.037076205505352275 0.041310359856912067 -0.016998130284553891 0.01671689913461083 0.02019617299187873 0.083682668209075939 0.01852636357728878 -0.02637536001147886 -0.020306910426976781 -0.012485558162065778 0.057523859040811656 -0.043278067484498028 0.032798076881412064 0.0033477298930235096 0.0022214587897253341 -0.021948597968245546 -0.017503953317890508 -0.027898360070857137 0.020917192853700656 0.038076324241105908 0.014892295845867707 0.11450133323669434 0.0061019967780269399 0.060300742018790481 0.0070399913704022755 0.0048966510097185776 -0.05765210208685502 -0.0051839854114624703 0.042586991488933565 -0.00072670784922173378 -0.02341562900104021 -0.036254478042775935 -0.029427434018124705 0.031659450257817905 0.027252015407596315 0.03298610808645807 -0.0089096933975815786 0.13505582332611085 -0.012187722043656722 0.034947932839393618 0.048799301485220596 -0.0032555074963186471 -0.04523159432901095 0.062501377009210143 -0.031257898798893867 -0.0061397033215810854 0.068950355594808416 0.065448378998300305 0.048943245261907575 0.021443669991567733 0.0031890072673559189 -0.00343349827480021 -0.029865791786600045 0.036815775357759921 0.022306277460473426 0.011586950481351881 0.022699278021852176 -0.017908183708786964
leaf_weight=31 31 75 25 43 76 13.999999999999998 98 57 67 9.9999999999999982 46 233 48 37 9.9999999999999982 9.9999999999999982 53 196 39 11.999999999999998 119 55 65 43 136 32 91 21 13.000000000000002 45 23 116 14.999999999999998 13.000000000000002 95 99 46 33 35 41 14.999999999999998 9.9999999999999982 82 25 30 13.999999999999998 73 21 164 30 10.999999999999998 23 20 9.9999999999999982 9.9999999999999982 36 81 12.999999999999998 34 36 14.999999999999998 9.9999999999999982
leaf_count=31 31 75 25 43 76 14 98 57 67 10 46 233 48 37 10 10 53 196 39 12 119 55 65 43 136 32 91 21 13 45 23 116 15 13 95 99 46 33 35 41 15 10 82 25 30 14 73 21 164 30 11 23 20 10 10 36 81 13 34 36 15 10
internal_value=0 0.0228138 0.0459686 -0.0188485 -0.0221105 0.0353616 -0.0115928 0.0404862 0.0107863 0.0172596 0.0382712 -0.0298121 -0.00511089 0.00295065 0.00988458 0.00402719 0.040875 0.00509502 0.00672966 -0.0266645 -0.0276817 -0.0395599 0.0139063 0.0470972 0.0136309 0.11151 0.011553 0.0436809 0.00143183 0.0148126 -0.0432889 0.000175682 0.058016 -0.0223537 -0.0237512 -0.0299616 -0.0208281 0.0221958 0.0174221 0.0414995 0.00548339 0.119395 -0.0129112 0.0444327 0.0469552 -0.0156212 -0.0410718 0.0544413 -0.0283923 -0.0106565 0.0561908 0.0537285 0.0577716 0.00762097 -0.00915054 -0.00951694 -0.0263842 0.0224751 0.0263195 0.0171871 0.0154289 -0.00819691
internal_weight=0 1407 481 1703 1611 414 681 339 926 473 92 930 425 209 161 453 63 443 151 703 661 227 104 249 410 67 332 181 340 216 172 312 46 256 233 496 165 90 171 160 116 42 216 119 94 57 149 51 397 42 68 57 43 101 47 118 176 78 47 103 28 23
internal_count=3110 1407 481 1703 1611 414 681 339 926 473 92 930 425 209 161 453 63 443 151 703 661 227 104 249 410 67 332 181 340 216 172 312 46 256 233 496 165 90 171 160 116 42 216 119 94 57 149 51 397 42 68 57 43 101 47 118 176 78 47 103 28 23
is_linear=0
shrinkage=0.05


Tree=9
num_leaves=63
num_cat=0
split_feature=0 1 7 6 12 8 11 3 13 3 0 1 1 8 8 8 6 10 9 11 6 7 9 12 11 8 8 9 11 12 0 0 10 12 9 10 6 6 6 1 12 10 6 7 8 6 12 3 8 0 10 1 0 6 11 3 6 9 4 10 6 1
split_gain=482.772 141.455 120.715 114.548 47.1093 17.7405 17.1477 14.7978 14.6807 12.948 11.5991 10.3009 9.72662 9.67649 12.9316 8.27537 8.1201 7.42439 5.1896 4.13222 3.72861 3.56354 3.52803 3.25292 2.88352 2.7926 2.58339 2.5761 2.37046 1.97732 1.91281 1.83776 2.0226 1.77361 1.72861 1.70268 1.68462 1.48255 1.46331 1.44732 1.33666 1.28602 1.28184 1.09659 0.983088 0.919846 0.894019 0.860212 1.68361 0.827684 0.793727 0.785396 0.781746 0.776683 0.774058 0.739246 1.10656 0.737275 0.736729 0.657407 0.600596 0.599743
threshold=8.5000000000000018 2018.5000000000002 1.8500000000000003 34.250000000000007 2.6159962398437551 1.3527208732559255 2.6075646041014844 10168.000000000002 3.5000000000000004 13219.500000000002 11.500000000000002 2014.5000000000002 2013.5000000000002 0.94859534650970467 1.6593797653371689 1.5367842757886063 41.20000000000001 1.7239133174246606 3.8017181816151351 3.4416458934572818 62.250000000000007 1.6500000000000001 3.6156862645640548 1.7956265400862044 3.0128835369244249 1.8104061933965461 3.0797136977722723 2.767330557770562 3.8011431237869724 5.7792008370645096 5.5000000000000009 3.5000000000000004 1.1820919663867648 3.4165977951134181 3.6730951666403207 2.8772987607023262 35.550000000000004 35.550000000000004 35.550000000000004 2019.5000000000002 1.3021976884788182 2.3320124424382933 45.800000000000004 1.8500000000000003 1.7306288124353209 61.550000000000004 4.2561819152499654 6513.0000000000009 2.5070129886390222 2.5000000000000004 2.4730118206252154 2016.5000000000002 11.500000000000002 57.050000000000004 2.9053875387838559 16576.500000000004 35.550000000000004 2.6305204851179309 1.0000000180025095e-35 1.4928936296555768 32.250000000000007 2016.5000000000002
decision_type=2 2 2 2 2 2 2 2 2 2 2 2 2 2 2 2 2 2 2 2 2 2 2 2 2 2 2 2 2 2 2 2 2 2 2 2 2 2 2 2 2 2 2 2 2 2 2 2 2 2 2 2 2 2 2 2 2 2 2 2 2 2
left_child=3 8 5 9 6 -3 31 25 12 30 16 21 -2 42 15 18 -10 34 -15 20 33 29 -16 -20 40 52 -4 43 37 46 -1 -5 -33 54 45 59 -9 -27 -30 -28 -12 -29 -8 50 -26 57 -6 48 -39 -44 -19 -18 -7 -21 -13 56 -46 -14 -54 -22 -11 -34
right_child=1 2 26 4 11 7 13 36 10 60 24 19 17 14 22 -17 51 27 23 53 35 -23 -24 -25 44 28 39 41 38 -31 -32 32 61 -35 -36 -37 -38 47 -40 -41 -42 -43 49 -45 55 -47 -48 -49 -50 -51 -52 -53 58 -55 -56 -57 -58 -59 -60 -61 -62 -63
leaf_value=0.062207597590261891 -0.038493067344340187 0.011588494683654669 0.087654306491216027 -0.025374244272936393 -0.035222395685942549 0.045629252561114053 0.0040375110984314233 0.015881054260228813 0.07754594445228577 0.020802953669003078 0.0085976469666376471 -0.027400190332511655 0.0097562827920513375 -0.013700644370345844 -0.018384915637641643 0.045214601771699059 0.023313813540153206 -0.0019106544548412785 0.02587696389459512 -0.00632275384523382 -0.010752728570471793 -0.026503441767259078 0.0047013219688897545 0.0050728539825372759 0.0077779583027586339 0.027292804695941787 0.107137483500299 0.0033728462889024719 0.044021336651510666 -0.054769496684489043 0.040457640588283543 -0.0053272115452022394 -0.023663849723443653 -0.032898259758949278 0.021782282770921788 -0.027956063073614368 0.030076477879827673 0.049449235200881958 0.06088944613933564 0.12830303430557252 -0.0085333347187510553 0.012135243185808317 -0.016148223420034868 0.0084175191405746665 0.015787762332530247 0.0068983460377369608 -0.042970014802397122 0.033299309400648909 0.03320053693652153 -0.0099313067071538398 -0.010466470942469087 0.033758086065451304 0.048424248117953539 -0.022286743647418918 -0.020489662433875372 0.015791079926958235 0.031091137616722671 0.016846109239131581 0.061709875166416177 -0.018979166483177861 0.0074089728697965098 -0.015617139670902339
leaf_weight=31 11.999999999999998 75 14.999999999999998 131 76 22 11.999999999999998 57 9.9999999999999982 35 61 294 67 21 59 18 30 80 34 32 34 55 23 42 20 27 42 166 36 23 14.999999999999998 29 57 155 48 46 33 44 20 9.9999999999999982 13.999999999999998 56 98 18 21 77 73 29 25 118 41 45 15.999999999999998 9.9999999999999982 47 52 27 81 30 85 10.999999999999998 39
leaf_count=31 12 75 15 131 76 22 12 57 10 35 61 294 67 21 59 18 30 80 34 32 34 55 23 42 20 27 42 166 36 23 15 29 57 155 48 46 33 44 20 10 14 56 98 18 21 77 73 29 25 118 41 45 16 10 47 52 27 81 30 85 11 39
internal_value=0 0.0216731 0.0436702 -0.0179061 -0.0210049 0.0335936 -0.0110131 0.0384619 0.010247 0.0363576 0.0198096 -0.0283215 0.00610219 -0.00485535 0.00326115 0.0140785 0.0352234 0.00694626 0.00830065 -0.0253313 -0.0262976 -0.0375819 -0.0119095 0.01438 0.0130907 0.0447424 0.105935 0.00224101 0.0414968 -0.0411245 0.0551152 -0.021236 -0.0168992 -0.0284635 0.0131682 -0.0197867 0.021086 0.0376669 0.0500457 0.111208 0.00539986 0.00558318 -0.0118683 -0.00309685 0.0178975 0.0113306 -0.0390182 0.0405251 0.043562 -0.0127519 -0.00480973 0.0295804 0.0533813 -0.0101237 -0.0264477 0.0199214 0.0243959 0.0136365 0.0570888 -0.0166288 0.0176 -0.0203949
internal_weight=0 1407 481 1703 1611 414 681 339 926 92 280 930 646 425 197 115 85 634 97 703 661 227 82 76 195 249 67 361 181 172 46 256 125 496 273 165 90 125 56 52 75 222 228 139 120 225 149 98 69 216 121 75 68 42 341 100 48 148 46 119 46 96
internal_count=3110 1407 481 1703 1611 414 681 339 926 92 280 930 646 425 197 115 85 634 97 703 661 227 82 76 195 249 67 361 181 172 46 256 125 496 273 165 90 125 56 52 75 222 228 139 120 225 149 98 69 216 121 75 68 42 341 100 48 148 46 119 46 96
is_linear=0
shrinkage=0.05


Tree=10
num_leaves=63
num_cat=0
split_feature=0 1 7 6 12 7 11 13 12 3 0 1 1 11 6 9 0 10 9 7 4 11 6 6 0 9 1 9 12 11 2 4 7 12 9 9 6 12 10 6 11 11 7 9 12 6 9 9 6 0 6 9 10 0 1 6 9 9 11 3 3 11
split_gain=435.701 127.663 108.945 103.379 42.5161 15.8008 15.4758 13.2494 13.2309 11.6855 10.4682 9.34818 8.77827 7.44308 7.32839 7.14172 10.6405 6.70051 4.23113 4.33749 3.29307 2.60238 2.52893 2.64331 2.37374 2.32493 2.28736 2.23339 2.20813 2.07464 1.91142 1.72631 1.6906 1.67164 1.56007 1.44982 1.2441 1.20634 1.16524 1.16474 1.01802 1.01578 0.989668 0.989058 0.959992 0.959036 0.860763 0.857419 0.830161 0.743953 0.737374 0.720291 0.716339 0.708921 0.70882 0.688267 0.66539 0.603693 0.57176 0.568828 0.560033 0.621425
threshold=8.5000000000000018 2018.5000000000002 1.8500000000000003 34.250000000000007 2.6159962398437551 1.5000000000000002 2.6075646041014844 3.5000000000000004 0.87203398636003338 13219.500000000002 11.500000000000002 2013.5000000000002 2013.5000000000002 2.6251212128730468 41.20000000000001 4.124635573731064 3.5000000000000004 1.7239133174246606 4.5282596621614424 1.5000000000000002 1.5000000000000002 3.0128835369244249 78.450000000000017 35.550000000000004 3.5000000000000004 2.767330557770562 2016.5000000000002 4.7242572092239765 3.6855290836080763 3.3826012306622277 1.5000000000000002 1.5000000000000002 1.6500000000000001 1.8625219073322905 3.6730951666403207 4.5627704079031703 57.050000000000004 1.3021976884788182 2.3795071871460118 39.500000000000007 3.8089521458466784 3.5224746134802474 1.8500000000000003 3.2729126726793383 4.5248215889326078 50.900000000000006 3.084602563997207 3.7136935924434469 61.550000000000004 2.5000000000000004 62.250000000000007 3.2232444617761762 2.4730118206252154 2.5000000000000004 2016.5000000000002 57.050000000000004 2.6305204851179309 4.5282596621614424 3.0684024960079226 31386.500000000004 10568.000000000002 3.1896313046976599
decision_type=2 2 2 2 2 2 2 2 2 2 2 2 2 2 2 2 2 2 2 2 2 2 2 2 2 2 2 2 2 2 2 2 2 2 2 2 2 2 2 2 2 2 2 2 2 2 2 2 2 2 2 2 2 2 2 2 2 2 2 2 2 2
left_child=3 7 5 9 6 41 32 12 30 31 14 24 -2 -8 -9 20 29 34 19 28 47 37 23 40 -6 42 44 39 46 53 -7 -1 33 45 48 58 -20 -12 -27 -4 -10 -3 52 -22 -21 -5 -13 -15 56 -48 -30 -35 -19 -17 -16 -45 -14 -41 -25 -28 61 -24
right_child=1 2 27 4 11 8 13 10 22 -11 21 18 17 15 54 16 -18 25 36 26 43 -23 60 35 -26 38 59 -29 50 -31 -32 -33 -34 51 -36 -37 -38 -39 -40 57 -42 -43 -44 55 -46 -47 49 -49 -50 -51 -52 -53 -54 -55 -56 -57 -58 -59 -60 -61 -62 -63
leaf_value=0.038434759974479676 -0.036568414838984611 0.0094521034313776696 0.10323490755898612 -0.017709618442973429 -0.045637854113095053 0.014678774554221358 0.034205687077095114 0.073668646365404142 0.028353636128746945 0.016720043193250288 0.0081677647637676629 -0.029667055642475255 0.0092684686110083899 -0.003422180403556142 0.02214812291165193 -0.014328743889927865 0.017625091976140428 -0.0018151217754348182 -0.0033427360754173536 -0.019508858580104631 -0.019787555223084848 0.017002617491719624 0.040343143571825592 0.036943407622831208 -0.032213941831437373 0.0034520956870189613 -0.0036425298757173799 0.11924334030884963 -0.033945341696341828 0.0043796748828126833 0.032168403125944593 0.059097218609625295 -0.007241672530527348 -0.025707729894554977 0.02069316862616688 0.058586881216615441 -0.018810468443776842 -0.0081066678943378587 0.01238965093937662 0.080919479406796946 0.04182026988516252 0.026519331820309161 0.0079966431431886236 -0.0097406601179423798 -0.028125227615237239 -0.0026426228295479502 -0.02569245332609052 0.014791533444076778 0.0065534288186108241 -0.018788944637809109 -0.021531952229829936 -0.01832074542021887 -0.0099431475701105849 -0.0053179664430873736 0.032070182893011306 -0.01749956902021017 0.016003803713649605 0.096157253247040969 0.047896377220749853 -0.01501262766224417 0.02314694717526436 0.029958751976490023
leaf_weight=14.999999999999998 11.999999999999998 68 28 43 69 61 11.999999999999998 9.9999999999999982 23 46 61 115 67 14.000000000000002 30 58 66 80 26 99 53 120 34 13.999999999999998 63 176 22 12.999999999999998 150 29 21 31 23 132 48 32 26 13.999999999999998 46 13.000000000000002 36 9.9999999999999982 18 107 48 13.999999999999998 230 11.999999999999998 77 47 12.999999999999998 44 41 35 45 39 81 12.999999999999998 80 22 9.9999999999999982 25
leaf_count=15 12 68 28 43 69 61 12 10 23 46 61 115 67 14 30 58 66 80 26 99 53 120 34 14 63 176 22 13 150 29 21 31 23 132 48 32 26 14 46 13 36 10 18 107 48 14 230 12 77 47 13 44 41 35 45 39 81 13 80 22 10 25
internal_value=0 0.0205894 0.0414867 -0.0170108 -0.0199547 0.0319139 -0.0104625 0.00973462 0.0366203 0.0345398 0.0188191 -0.0269054 0.00579708 -0.00461258 0.0334622 -0.00574047 0.0014525 0.00659895 -0.0248666 -0.0258278 -0.0117506 0.0124362 0.0422577 0.0453047 -0.039231 0.00212896 -0.0193288 0.100638 -0.0280645 -0.0072966 0.0191578 0.0523595 -0.0201742 -0.0214508 0.0125098 0.0493944 -0.0110766 0.00512987 0.00530402 0.0961588 0.0365706 0.0116402 -0.00294201 -0.0139371 -0.0223224 -0.014009 -0.0260308 0.00498415 0.010764 -0.0245211 -0.0329553 -0.023861 -0.00456925 -0.0109376 0.0281014 -0.0118132 0.0129547 0.0885384 0.0462651 -0.00932758 0.0340885 0.035943
internal_weight=0 1407 481 1703 1611 414 681 926 336 92 280 930 646 425 85 413 188 634 798 746 225 195 254 185 132 361 191 67 555 122 82 46 256 233 273 126 52 75 222 54 59 78 139 199 147 57 392 26 225 277 163 176 121 93 75 146 148 26 94 44 69 59
internal_count=3110 1407 481 1703 1611 414 681 926 336 92 280 930 646 425 85 413 188 634 798 746 225 195 254 185 132 361 191 67 555 122 82 46 256 233 273 126 52 75 222 54 59 78 139 199 147 57 392 26 225 277 163 176 121 93 75 146 148 26 94 44 69 59
is_linear=0
shrinkage=0.05


Tree=11
num_leaves=63
num_cat=0
split_feature=0 1 7 6 12 8 11 3 12 7 3 1 8 1 3 10 12 2 9 9 0 7 8 6 8 11 4 12 0 2 1 8 12 0 7 12 2 9 6 3 6 1 1 0 0 6 12 6 10 2 2 10 10 4 6 12 10 9 6 12 9 2
split_gain=393.22 115.216 98.3228 93.2997 38.3708 14.4524 13.9669 12.1249 12.0303 12.2549 10.566 8.46955 8.14133 10.9308 8.63038 7.14034 6.8161 5.99954 5.85519 3.45685 3.83718 2.98922 2.3812 2.18144 2.12607 2.09852 2.06403 1.919 1.88121 1.83162 1.80661 1.5907 1.57196 1.54112 1.52577 1.50866 1.44912 1.3555 1.26846 1.24343 1.21178 1.19534 1.1671 1.09162 1.0709 0.998562 0.950889 0.86553 0.852349 1.38574 0.798495 0.77241 0.752816 1.00312 0.92743 0.750612 0.749885 0.650063 0.643761 0.669723 0.623182 0.619322
threshold=8.5000000000000018 2018.5000000000002 1.8500000000000003 34.250000000000007 2.6159962398437551 1.3527208732559255 2.6075646041014844 10168.000000000002 2.2398269295480406 2.1000000000000005 12305.000000000002 2014.5000000000002 0.94859534650970467 2016.5000000000002 34046.500000000007 5.172337303003407 1.1746845664339742 1.0000000180025095e-35 3.6730951666403207 4.5282596621614424 2.5000000000000004 1.5000000000000002 1.8104061933965461 43.850000000000009 3.0797136977722723 3.8684224626193395 1.5000000000000002 1.4929564220001821 3.5000000000000004 1.5000000000000002 2016.5000000000002 4.7129240401741042 3.1639794557387533 5.5000000000000009 1.6500000000000001 1.8625219073322905 1.5000000000000002 3.5405364188917656 61.550000000000004 6211.5000000000009 57.050000000000004 2019.5000000000002 2017.5000000000002 3.5000000000000004 3.5000000000000004 57.650000000000013 4.4005722578333009 50.900000000000006 1.8246136788326897 1.5000000000000002 1.5000000000000002 1.7067180423953408 2.084931329361225 1.0000000180025095e-35 50.900000000000006 2.0689183281129604 1.5667319514782141 3.2232444617761762 35.550000000000004 0.80074296828148939 4.0434348710250463 1.5000000000000002
decision_type=2 2 2 2 2 2 2 2 2 2 2 2 2 2 2 2 2 2 2 2 2 2 2 2 2 2 2 2 2 2 2 2 2 2 2 2 2 2 2 2 2 2 2 2 2 2 2 2 2 2 2 2 2 2 2 2 2 2 2 2 2 2
left_child=3 8 5 10 6 -3 34 22 9 23 33 21 44 -14 18 17 -11 -10 -15 20 37 31 52 58 -4 39 27 -25 -20 32 -22 -6 -19 -1 35 47 51 -13 45 48 -21 -26 -28 -32 56 -29 -23 -5 -24 -50 -30 -9 53 -7 -55 -12 -8 -37 -2 -60 -46 -18
right_child=1 2 24 4 11 7 12 36 15 16 55 19 13 14 -16 -17 61 29 28 40 30 46 25 26 41 -27 42 38 50 -31 43 -33 -34 -35 -36 57 -38 -39 -40 -41 -42 -43 -44 -45 60 -47 -48 -49 49 -51 -52 -53 -54 54 -56 -57 -58 -59 59 -61 -62 -63
leaf_value=0.05690325955549877 0.013601646235873621 0.010456817800800006 0.079022448658943187 -0.016824137696693109 -0.035262267202685736 0.034438793733716014 -0.020286036448346246 0.0267172518831033 0.014939300662575705 0.073218599557876587 0.028056846288117495 -0.030146513353375828 -0.01768792666165003 -0.013466079022478442 0.054611883666366337 -0.038356953170150525 0.024172170531442938 0.0027958337044579748 0.0022175315661089761 -0.00245254778303206 -0.022123439176694345 -0.021680982466390792 0.050120444710438077 0.02715279129999025 0.096690654470807033 0.052260958971012211 -0.0022602927235023276 0.011161357798131608 0.014232433120218609 0.013415186562841491 -0.019699760392690318 -0.047384509940942128 -0.0045477890101430036 0.036812778030123026 -0.0068795888968136007 -0.024422343222029283 0.031248371695217332 -0.024126275760285996 0.0038824840567799079 0.027940520725962592 -0.017869945063900491 0.11592571258544922 0.0082310373501095456 -0.0084894974176695902 -0.0072988926065399463 0.020713471282377011 -0.032566748176302229 -0.002510491818455713 0.0319240128796082 0.043612242241700488 0.029409224763512612 0.01323267485111438 0.06035025228153576 0.056695649027824403 0.041973676830530167 0.013180332701351192 -0.011243503432246815 -0.017404707724397835 0.028726704729100067 0.016786902154917304 0.0062152093107050123 0.035442849131006947
leaf_weight=30 31 75 14.999999999999998 43 109 13.999999999999998 27 12.999999999999998 103 9.9999999999999982 10.999999999999998 187 48 29 9.9999999999999982 9.9999999999999982 34 196 35 25 190 47 12.999999999999998 21 42 21 41 114 65 28 39 36 116 13.999999999999998 23 132 19 187 45 41 26 9.9999999999999982 75 49 38 36 35 13.999999999999998 64 42 9.9999999999999982 58 10.999999999999998 23 20 37 152 44 24 23 10.999999999999998 19
leaf_count=30 31 75 15 43 109 14 27 13 103 10 11 187 48 29 10 10 34 196 35 25 190 47 13 21 42 21 41 114 65 28 39 36 116 14 23 132 19 187 45 41 26 10 75 49 38 36 35 14 64 42 10 58 11 23 20 37 152 44 24 23 11 19
internal_value=0 0.01956 0.0394123 -0.0161602 -0.018957 0.0303182 -0.00993936 0.0347123 0.00924789 0.0148252 0.0328128 -0.0255602 -0.00438195 0.00306292 0.00974776 0.00342438 0.0353564 0.00436752 0.00652013 -0.0228488 -0.0238294 -0.0339571 0.0403973 0.0116704 0.095606 0.0374003 0.00990258 0.0127917 0.0117892 0.0011649 -0.0193803 -0.0382719 6.55124e-05 0.0505108 -0.0191655 -0.0203783 0.0189838 -0.0271364 0.0112451 0.0354499 -0.0103124 0.10039 0.00452289 -0.0134577 -0.0108146 0.0134539 -0.0263273 -0.0133085 0.0380371 0.0365552 0.016256 0.0157017 0.0483745 0.0460634 0.0498482 0.0165895 -0.0126075 -0.0226679 0.0191948 0.0228838 -0.00426511 0.0282126
internal_weight=0 1407 481 1703 1611 414 681 339 926 473 92 930 425 197 149 453 63 443 139 703 652 227 249 410 67 181 332 216 110 340 278 145 312 44 256 233 90 374 195 160 51 52 116 88 228 150 82 57 119 106 75 71 68 57 43 48 179 176 78 47 49 53
internal_count=3110 1407 481 1703 1611 414 681 339 926 473 92 930 425 197 149 453 63 443 139 703 652 227 249 410 67 181 332 216 110 340 278 145 312 44 256 233 90 374 195 160 51 52 116 88 228 150 82 57 119 106 75 71 68 57 43 48 179 176 78 47 49 53
is_linear=0
shrinkage=0.05


Tree=12
num_leaves=63
num_cat=0
split_feature=0 1 7 6 12 8 11 3 12 7 3 1 8 8 8 3 12 2 1 11 12 0 1 11 0 1 1 5 2 8 10 6 1 11 0 0 10 2 1 12 3 6 6 6 11 6 4 12 0 10 8 12 8 8 4 10 3 2 3 6 4 12
split_gain=354.881 103.982 88.7409 84.203 34.6297 13.3362 12.6051 11.2875 10.8574 11.06 9.53582 7.71687 7.35946 9.45305 7.85756 6.49132 6.15153 5.06901 4.15744 3.46375 2.94842 2.53847 2.15724 2.02761 1.9616 1.93206 1.83628 1.83071 1.81517 1.80701 1.63807 1.60785 1.51354 1.46584 1.39086 1.37969 1.54218 1.22663 1.16977 0.999952 0.956184 1.13725 0.940517 1.11263 0.863807 0.837507 1.0128 1.34961 0.83246 0.789842 0.688983 0.677427 0.637327 0.635691 0.621037 0.611698 0.579867 0.558938 0.53844 0.533774 0.523362 0.750456
threshold=8.5000000000000018 2018.5000000000002 2.1000000000000005 34.250000000000007 2.6159962398437551 1.3527208732559255 2.6075646041014844 9806.0000000000018 2.2398269295480406 2.1000000000000005 12305.000000000002 2013.5000000000002 0.8980325822566938 1.6593797653371689 1.5367842757886063 69800.000000000015 1.1746845664339742 1.0000000180025095e-35 2018.5000000000002 2.4471463070839112 1.7614879595891069 2.5000000000000004 2017.5000000000002 3.2550528317813869 3.5000000000000004 2019.5000000000002 2019.5000000000002 155.00000000000003 1.5000000000000002 1.6852458627478806 1.4928936296555768 43.150000000000006 2019.5000000000002 4.2660471015146166 5.5000000000000009 3.5000000000000004 1.1820919663867648 1.5000000000000002 2015.5000000000002 3.0477666713953027 15449.000000000002 35.550000000000004 61.550000000000004 57.650000000000013 3.8011431237869724 43.850000000000009 1.5000000000000002 1.4929564220001821 3.5000000000000004 1.7067180423953408 2.699405377018349 2.0689183281129604 3.0797136977722723 5.4904400471740908 1.0000000180025095e-35 1.4928936296555768 2507.5000000000005 1.5000000000000002 21363.500000000004 50.900000000000006 1.5000000000000002 2.3338577429108356
decision_type=2 2 2 2 2 2 2 2 2 2 2 2 2 2 2 2 2 2 2 2 2 2 2 2 2 2 2 2 2 2 2 2 2 2 2 2 2 2 2 2 2 2 2 2 2 2 2 2 2 2 2 2 2 2 2 2 2 2 2 2 2 2
left_child=3 8 5 10 6 -3 35 25 9 23 34 24 48 14 18 17 -11 -10 -14 21 56 50 -15 27 53 29 30 42 49 54 -21 -19 52 -32 -1 -5 -37 -31 -23 60 41 -25 43 45 -39 -2 47 -47 55 -9 -13 -12 -4 -6 -7 -8 -20 -18 -45 -56 -33 -62
right_child=1 2 32 4 11 7 12 28 15 16 51 19 13 22 -16 -17 57 31 20 26 -22 38 -24 40 -26 -27 -28 -29 -30 37 33 39 -34 -35 -36 36 -38 44 -40 -41 -42 -43 -44 58 -46 46 -48 -49 -50 -51 -52 -53 -54 -55 59 -57 -58 -59 -60 -61 61 -63
leaf_value=0.05405809660752614 0.018859531890600922 0.0099339767964556833 0.078790414333343509 -0.021792821267633947 -0.038775523669189876 0.036584707846244173 -0.019813186318978021 0.025785312322633609 0.014192335552296341 0.069557670354843143 0.026654003763740716 -0.02681867675855756 -0.011882910765707494 -0.01592438773990705 0.04167530023389393 -0.025352739915251735 0.022963562268106377 0.018726506005399501 0.032813090356913474 -0.0088343710145581452 0.0041795472403601654 -0.025676235039868663 0.0018996802139251185 0.015169027447700502 -0.029101884637087114 0.049629400877488988 -0.0024939441615167788 -0.004554817878471857 0.031408043645999653 0.031257552641237939 -0.021537802451937142 0.0057698684704411054 0.1101294231414795 -0.0063868252478320817 0.034972139660801205 -0.0043449545024235826 -0.017501979133036607 0.037150146612306922 -0.01836640132044939 -0.0019996478773828133 0.012043405792621129 0.031245910816571933 0.0036883599300765336 0.029537730216979981 0.052402394513289131 0.024836797349982793 0.0051587220391237677 0.0099294025162906998 -0.0045840935678117803 0.012616642802709438 -0.032432753727378617 0.012521316564163646 0.091856121874990926 -0.050410754084587096 0.053887741338639029 -0.011048387486575726 0.018520740363746884 0.033670706890131297 0.015885516358181261 0.041765583306550981 0.0041592704537530755 -0.0077342149491111444
leaf_weight=30 25 75 11.999999999999998 131 54 14.999999999999998 23 13.999999999999998 103 9.9999999999999982 10.999999999999998 160 25 58 18 19 34 12.999999999999998 11.000000000000002 33 53 93 24 22 63 36 17 22 22 104 262 101 9.9999999999999982 17 13.999999999999998 29 96 41 133 160 34 22 45 9.9999999999999982 11.999999999999998 18 89 97 45 61 83 37 42 14.999999999999998 21 148 20 19 26 15.999999999999998 36 21
leaf_count=30 25 75 12 131 54 15 23 14 103 10 11 160 25 58 18 19 34 13 11 33 53 93 24 22 63 36 17 22 22 104 262 101 10 17 14 29 96 41 133 160 34 22 45 10 12 18 89 97 45 61 83 37 42 15 21 148 20 19 26 16 36 21
internal_value=0 0.018582 0.0374417 -0.0153522 -0.0180091 0.0290281 -0.00944239 0.0332154 0.00878549 0.0140839 0.0311721 -0.0242821 -0.00416286 0.00252601 0.0110705 0.00325316 0.0335886 0.00450549 0.00601653 -0.0224297 0.0113437 -0.0251888 -0.0107076 0.0110868 -0.0354807 0.038931 -0.0184967 0.00938253 0.0187792 0.0370882 -0.0193686 0.00149116 0.0922615 -0.0206146 0.0479853 -0.0182072 -0.0144495 0.0344125 -0.0213744 0.000786567 0.0183411 0.0232075 0.0103716 0.0115065 0.0406035 0.010222 0.00916343 0.0122627 -0.0106349 0.0150748 -0.0287362 0.0157601 0.0889526 -0.0413049 0.0451666 -0.0122273 0.0235922 0.026802 0.0196778 0.0486457 0.00360805 -0.00022254
internal_weight=0 1407 481 1703 1611 417 681 342 926 473 92 930 425 209 127 453 63 434 109 798 84 469 82 410 132 245 329 332 97 209 312 331 64 279 44 256 125 157 226 318 78 44 310 265 53 229 204 115 216 75 243 48 54 69 52 171 31 53 36 37 158 57
internal_count=3110 1407 481 1703 1611 417 681 342 926 473 92 930 425 209 127 453 63 434 109 798 84 469 82 410 132 245 329 332 97 209 312 331 64 279 44 256 125 157 226 318 78 44 310 265 53 229 204 115 216 75 243 48 54 69 52 171 31 53 36 37 158 57
is_linear=0
shrinkage=0.05


Tree=13
num_leaves=63
num_cat=0
split_feature=0 1 7 6 12 8 3 13 11 3 1 3 0 1 6 11 10 0 3 1 7 8 11 11 8 1 1 4 0 3 0 6 1 12 11 1 0 0 6 12 12 6 11 2 8 10 2 7 12 3 8 3 10 4 6 8 1 10 8 1 8 10
split_gain=320.28 93.8441 80.1895 75.9932 31.271 11.7645 9.96652 9.80475 9.10058 13.3707 8.89961 8.6317 7.82887 6.9794 5.79314 5.28145 4.89271 3.84553 3.51119 2.9172 2.90031 2.08384 2.03994 1.83298 1.77264 1.74478 1.70719 1.63347 1.53204 1.76504 1.43027 1.38656 1.37891 1.35538 1.32294 1.2398 1.18548 1.07465 1.03611 1.00114 0.982931 1.18162 0.996028 0.980455 2.0665 1.02573 0.966207 0.953447 0.873435 0.800792 0.759871 0.68366 0.666258 0.837757 0.769291 0.603255 0.591893 0.556701 0.545955 0.540387 0.532912 0.523167
threshold=8.5000000000000018 2018.5000000000002 1.8500000000000003 34.250000000000007 2.2701373889695211 1.3527208732559255 10568.000000000002 3.5000000000000004 3.153823368590456 33505.500000000007 2014.5000000000002 3743.5000000000005 11.500000000000002 2013.5000000000002 41.20000000000001 2.6291919984701364 1.7239133174246606 2.5000000000000004 2812.5000000000005 2019.5000000000002 1.5000000000000002 1.8104061933965461 2.8663031604197777 3.8011431237869724 3.0875747792781039 2018.5000000000002 2016.5000000000002 1.5000000000000002 3.5000000000000004 37282.500000000007 6.5000000000000009 35.550000000000004 2017.5000000000002 4.4005722578333009 2.5667805789304565 2016.5000000000002 3.5000000000000004 3.5000000000000004 35.550000000000004 4.4005722578333009 1.8101417782385041 50.900000000000006 2.7323350061739831 1.0000000180025095e-35 2.5599574195552015 1.9430636794519003 1.5000000000000002 1.8500000000000003 1.5701519083578022 5868.5000000000009 3.1968076211266863 5001.5000000000009 2.084931329361225 1.0000000180025095e-35 50.900000000000006 1.5367842757886063 2018.5000000000002 2.6457530109957808 2.5599574195552015 2016.5000000000002 2.5599574195552015 1.8341689657098199
decision_type=2 2 2 2 2 2 2 2 2 2 2 2 2 2 2 2 2 2 2 2 2 2 2 2 2 2 2 2 2 2 2 2 2 2 2 2 2 2 2 2 2 2 2 2 2 2 2 2 2 2 2 2 2 2 2 2 2 2 2 2 2 2
left_child=3 7 5 11 8 -3 21 13 9 27 20 -1 14 -2 -9 17 34 58 48 28 33 52 -14 31 -4 -13 47 32 51 -30 36 -23 -5 -6 -15 -19 -20 -37 -25 -22 41 -29 -42 44 -24 -45 -8 -18 55 -28 -26 -17 53 -7 -55 -10 -38 -33 -12 -16 -36 -51
right_child=1 2 24 4 10 6 46 12 18 -11 15 25 22 16 59 19 26 35 30 -21 39 23 43 38 50 -27 49 40 29 -31 -32 57 -34 -35 60 37 56 -39 -40 -41 42 -43 -44 45 -46 -47 -48 -49 -50 61 -52 -53 -54 54 -56 -57 -58 -59 -60 -61 -62 -63
leaf_value=0.05058479327708483 -0.03281708024442196 0.009437277855429178 0.075776241064071659 -0.012611790644851595 -0.0302697290371104 0.030906106691275328 0.013526910108824572 0.064572114199399941 0.028176527563482517 0.046072522727772597 -0.024761933830149217 0.012172185765722624 -0.001121427075967433 0.007430564962083332 0.018860022804389399 -0.014973876202658313 -0.0038763992462008904 -0.020425385390674067 -0.0054148985323711086 1.244853236571406e-05 -0.018625780311413109 0.020824962574988604 0.037067208687464402 0.036000458435672858 0.088832681439816957 0.03004833988490559 0.017887702719731766 -0.012370841245318199 -0.0042257201875555419 -0.018570800769973445 -0.017793081204096475 0.031228992118636462 0.011896642689437915 -0.039936797939814056 0.0164790606443453 -0.018216674254629122 -0.00047192118945531551 -0.008102680258161854 0.050194314941763879 -0.02956385582685471 -0.018565883021801712 0.0013900802082692585 -0.009182398238320004 0.0057779682526495641 0.011982913137986682 0.01484173840169957 0.026894334440722187 0.007391618869521401 0.0084338356275111444 -0.0027348777148872615 0.10462295532226562 -0.020993767067500689 0.054969857497648759 0.051224605674329016 0.037816401422023777 0.012529559585858475 0.012050832516473273 0.040532768890261653 -0.029644778292430077 0.027523380882210204 0.0094292069282872898 0.0049975564654118248
leaf_weight=32 11.999999999999998 75 25 11 82 13.999999999999998 66 9.9999999999999982 14.000000000000002 9.9999999999999982 232 39 31 144 30 87 128 184 39 33 52 30 11.999999999999998 36 32 21 10.999999999999998 117 51 37 11.999999999999998 82 12 65 91 58 15.999999999999998 48 20 35 120 18 37 57 26 69 17 22 28 25 9.9999999999999982 103 10.999999999999998 23 20 10.999999999999998 23 20 76 45 38 175
leaf_count=32 12 75 25 11 82 14 66 10 14 10 232 39 31 144 30 87 128 184 39 33 52 30 12 36 32 21 11 117 51 37 12 82 12 65 91 58 16 48 20 35 120 18 37 57 26 69 17 22 28 25 10 103 11 23 20 11 23 20 76 45 38 175
internal_value=0 0.0176529 0.0355696 -0.0145846 -0.0171086 0.0273568 0.0313213 0.00834622 -0.00622201 -0.010847 -0.0215662 0.0296135 0.0161611 0.00495898 0.0288244 -0.0193277 0.00567399 -0.0220762 0.00428926 -0.0140428 -0.0302619 0.0362029 0.0106411 0.0334898 0.0863176 0.0184288 0.0018543 -0.0126539 -0.0157112 -0.0102572 -0.00172311 0.0302741 0.000175218 -0.0345443 0.0107249 -0.017944 0.000749197 -0.0136368 0.0410697 -0.0230262 -0.0136645 -0.0105361 -0.0163545 0.0128646 0.0199043 0.0107415 0.0162648 -0.00222376 0.0144989 0.00475339 0.0925923 -0.0182373 0.0437036 0.0415295 0.0449882 0.0212919 0.00691329 0.0330533 -0.0259668 0.024058 0.0144024 0.004031
internal_weight=0 1407 481 1703 1611 414 339 926 468 325 1143 92 280 646 85 909 634 598 143 311 234 256 195 188 67 60 361 315 278 88 90 132 23 147 273 290 78 106 56 87 292 135 157 164 38 126 83 150 53 211 42 190 68 57 43 25 39 102 308 75 129 200
internal_count=3110 1407 481 1703 1611 414 339 926 468 325 1143 92 280 646 85 909 634 598 143 311 234 256 195 188 67 60 361 315 278 88 90 132 23 147 273 290 78 106 56 87 292 135 157 164 38 126 83 150 53 211 42 190 68 57 43 25 39 102 308 75 129 200
is_linear=0
shrinkage=0.05


Tree=14
num_leaves=63
num_cat=0
split_feature=0 1 7 6 12 3 9 3 12 7 1 3 8 0 12 12 11 0 0 4 4 12 5 4 9 11 5 1 6 12 1 9 12 3 7 6 8 12 3 11 6 6 6 3 6 8 1 8 3 9 6 4 12 6 0 9 9 9 6 9 6 8
split_gain=289.053 84.6943 72.4023 68.5839 28.2221 10.893 9.90701 10.3394 8.88452 9.138 8.08982 7.80382 6.31259 5.97065 5.5599 5.16408 5.0358 3.91084 3.66857 3.40598 3.16203 2.30753 1.97746 1.84552 1.74683 1.64025 1.57917 1.43375 1.31545 2.29568 1.30781 1.28896 1.2149 1.20847 1.19415 1.22573 1.14944 1.13827 1.02002 1.01396 1.00177 0.862948 0.975799 0.847772 0.817998 0.769824 0.749929 0.745866 0.708308 1.00237 0.668444 0.8421 1.16924 0.646015 0.599286 0.595081 0.571831 0.562258 0.529793 0.527512 0.510275 0.48549
threshold=8.5000000000000018 2018.5000000000002 2.1000000000000005 34.250000000000007 2.2701373889695211 6715.0000000000009 4.124635573731064 35443.000000000007 2.2398269295480406 2.1000000000000005 2015.5000000000002 13219.500000000002 1.3527208732559255 3.5000000000000004 5.5997632450672841 1.1746845664339742 3.1196293733496945 9.5000000000000018 3.5000000000000004 1.5000000000000002 1.5000000000000002 4.1348812816715697 220.00000000000003 1.5000000000000002 3.9563761016608496 3.2550528317813869 155.00000000000003 2019.5000000000002 35.550000000000004 3.2785252599650092 2017.5000000000002 4.7242572092239765 1.7722381030765637 3743.5000000000005 1.5000000000000002 35.550000000000004 3.9904157015874584 3.1639794557387533 25617.000000000004 3.8089521458466784 50.900000000000006 61.550000000000004 57.650000000000013 20601.500000000004 35.550000000000004 2.1353622802215622 2016.5000000000002 5.743165691910554 10568.000000000002 4.4408391675121974 43.850000000000009 1.5000000000000002 1.2405277411167306 41.850000000000009 2.5000000000000004 4.5627704079031703 3.2589746465496963 3.3631853710080915 39.500000000000007 4.5554106360694551 32.250000000000007 1.6852458627478806
decision_type=2 2 2 2 2 2 2 2 2 2 2 2 2 2 2 2 2 2 2 2 2 2 2 2 2 2 2 2 2 2 2 2 2 2 2 2 2 2 2 2 2 2 2 2 2 2 2 2 2 2 2 2 2 2 2 2 2 2 2 2 2 2
left_child=3 8 5 11 6 12 7 23 9 25 19 33 -3 16 17 -11 38 57 55 36 48 -21 37 30 46 26 41 -18 45 39 -5 58 40 -1 -22 -36 -6 -19 54 59 -25 42 50 44 -27 -14 -15 -23 49 -7 -2 52 -52 -24 -12 -8 -17 -10 -4 61 -13 -30
right_child=1 2 31 4 10 20 18 -9 14 15 13 60 28 24 -16 56 27 22 -20 21 34 47 53 32 -26 43 -28 -29 29 -31 -32 -33 -34 -35 35 -37 -38 -39 -40 -41 -42 -43 -44 -45 -46 -47 -48 -49 -50 -51 51 -53 -54 -55 -56 -57 -58 -59 -60 -61 -62 -63
leaf_value=0.048055553715676075 0.016984113525599243 0.012862953160903558 0.084344079026154109 -0.0099833242165354562 -0.015624320446648569 0.038252440059468866 -0.0053611685264300796 0.033408623992895278 0.004973414604966012 0.06340690970420837 -0.021359569926042946 0.016522816813417843 0.025002573740979035 -0.014980367605820439 -0.032188705083998764 0.018523828592151403 -0.013574931546662972 0.0025529880367403915 0.014471596077783033 -0.025752534636919452 0.0058723195055283093 -0.033728198004865102 0.0050756876915693267 -0.011321913315491244 0.010428490777584641 0.013298226599223341 -0.0044797705168920484 -0.00074035195453513061 0.041622766429050405 0.025067074537277224 0.012906903843395413 0.097362249631148132 -0.016029702776365659 0.030442757053034647 0.012440236904207737 0.025955250276171644 -0.024483646676899534 -0.0036170461538952226 -0.02493651552104402 0.055488823602596916 0.0013205762098853788 0.0029816053913802737 0.018122765978073909 0.0082056323182769127 0.025415165262917677 0.036771600631376106 -0.0075282959764452796 -0.045178925114519458 0.017947017521198309 0.021329310877869528 0.027484688013792037 0.0046701151115055919 0.0095919561419369921 0.021482183833916983 -0.0161983063214854 0.006077074512528877 0.028957499435235713 0.014813809533293049 0.074102542711340855 0.045742644706080041 0.0041769701564176517 0.033851791515543656
leaf_weight=32 25 33 28 13.000000000000002 69 21 47 12.999999999999998 18 9.9999999999999982 245 35 33 53 10.999999999999998 24 73 207 64 139 43 87 10.000000000000002 121 10.999999999999998 26 22 31 44 25 11.999999999999998 12.999999999999998 165 13.999999999999998 62 23 78 117 174 11.999999999999998 18 45 36 22 30 24 93 17 13.999999999999998 14.999999999999998 9.9999999999999982 89 105 14.999999999999998 73 14.999999999999998 29 75 23 31 10.999999999999998 37
leaf_count=32 25 33 28 13 69 21 47 13 18 10 245 35 33 53 11 24 73 207 64 139 43 87 10 121 11 26 22 31 44 25 12 13 165 14 62 23 78 117 174 12 18 45 36 22 30 24 93 17 14 15 10 89 105 15 73 15 29 75 23 31 11 37
internal_value=0 0.0167702 0.0337911 -0.0138554 -0.0162532 0.0261915 -0.00591091 -0.0103265 0.00792891 0.0127218 -0.0204879 0.0281328 0.0331655 -0.0174606 0.00292438 0.0304509 -0.0197457 0.00379824 0.00607431 -0.0263328 0.0168274 -0.0299671 0.00137038 -0.0120547 -0.00878584 0.0099976 0.00846471 -0.00974924 0.0364179 0.0388891 0.00100399 0.0833078 -0.0131286 0.0426951 0.0126623 0.0160972 -0.0203252 0.00032492 -0.0218588 0.0416759 -0.00968476 0.00938335 0.0104704 0.0165222 0.0197894 0.029958 -0.0102335 -0.0356 0.02749 0.0312011 0.00926745 0.00832178 0.0111478 0.0149196 -0.0201748 -0.00259385 0.0242328 0.0129092 0.0797253 0.0401959 0.0135705 0.0380731
internal_weight=0 1407 481 1703 1611 417 468 342 926 473 1143 92 239 753 453 63 596 442 126 390 178 243 349 329 157 410 332 104 206 149 25 64 304 46 128 85 147 324 492 124 139 310 265 78 56 57 146 104 50 36 229 204 115 25 318 62 53 93 51 112 46 81
internal_count=3110 1407 481 1703 1611 417 468 342 926 473 1143 92 239 753 453 63 596 442 126 390 178 243 349 329 157 410 332 104 206 149 25 64 304 46 128 85 147 324 492 124 139 310 265 78 56 57 146 104 50 36 229 204 115 25 318 62 53 93 51 112 46 81
is_linear=0
shrinkage=0.05


Tree=15
num_leaves=63
num_cat=0
split_feature=0 1 7 6 1 0 8 1 3 13 3 0 11 1 6 10 0 6 11 8 7 10 11 9 9 2 9 4 6 8 4 6 11 9 9 8 0 11 1 0 2 8 3 6 7 9 8 10 7 8 11 8 0 8 0 8 8 0 6 3 1 6
split_gain=260.87 76.4366 65.3431 61.8969 23.1306 9.93982 9.83294 9.55971 8.10645 7.97338 7.04295 6.42979 6.16892 5.85287 4.90523 3.98783 3.50005 3.0872 4.37636 6.96026 2.39376 2.08041 2.08004 1.93769 1.74529 1.72215 1.50984 1.37829 1.76253 1.31045 1.2137 1.6279 1.20411 1.16995 1.16328 1.1529 1.15042 1.08159 0.980435 0.837693 0.802946 0.766592 0.760039 0.732137 0.695819 0.919007 0.679326 1.28464 0.672026 0.661756 0.655687 0.615197 0.600073 0.616451 0.593205 0.577935 0.508983 0.490839 0.478138 0.473902 0.463891 0.460524
threshold=8.5000000000000018 2018.5000000000002 2.1000000000000005 34.250000000000007 2018.5000000000002 3.5000000000000004 1.0820404815110913 2014.5000000000002 10568.000000000002 3.5000000000000004 13219.500000000002 11.500000000000002 2.5527864915258101 2013.5000000000002 41.20000000000001 1.7239133174246606 2.5000000000000004 57.050000000000004 2.6146373192459795 1.5161532787787053 1.5000000000000002 1.2930665208868872 3.3702548524317057 3.5235614599044784 2.5744982694949381 1.5000000000000002 3.5405364188917656 1.5000000000000002 44.45000000000001 2.5599574195552015 1.5000000000000002 48.300000000000004 3.8089521458466784 3.3833678264884544 4.7242572092239765 3.5419156192019696 5.5000000000000009 3.8011431237869724 2015.5000000000002 3.5000000000000004 1.5000000000000002 3.652791724997535 1491.5000000000002 61.550000000000004 1.8500000000000003 2.3571478260829033 2.5070129886390222 1.8075980642038159 1.8500000000000003 1.6852458627478806 3.1065541768177591 2.5453349888631132 6.5000000000000009 3.4765255238357979 2.5000000000000004 1.9945995005505666 5.4904400471740908 2.5000000000000004 39.500000000000007 36824.500000000007 2016.5000000000002 32.250000000000007
decision_type=2 2 2 2 2 2 2 2 2 2 2 2 2 2 2 2 2 2 2 2 2 2 2 2 2 2 2 2 2 2 2 2 2 2 2 2 2 2 2 2 2 2 2 2 2 2 2 2 2 2 2 2 2 2 2 2 2 2 2 2 2 2
left_child=3 9 6 10 7 22 -3 20 25 13 36 14 16 -2 -11 33 51 18 19 -14 35 -19 54 59 -13 30 44 29 55 -26 31 -8 49 43 58 -5 -1 -32 -18 -40 -10 -22 -33 -15 45 -17 47 50 -25 -27 -44 -9 53 -41 -6 -29 -37 -23 -4 -20 -16 -12
right_child=1 2 34 4 5 -7 8 12 40 11 61 24 17 15 60 26 38 21 23 -21 41 57 -24 48 27 32 -28 28 -30 -31 37 42 -34 -35 -36 56 -38 -39 39 52 -42 -43 46 -45 -46 -47 -48 -49 -50 -51 -52 -53 -54 -55 -56 -57 -58 -59 -60 -61 -62 -63
leaf_value=0.046060654424851938 -0.030115424973579746 0.0076390467260194859 0.080126872020108375 -0.026185105647891761 -0.012823253081490597 0.01372641996422317 0.050527818500995636 -0.021708193001479414 0.012169056475448255 0.058950255885720254 0.015696675793400835 -0.0088949854640911034 -0.009185252351065475 0.009615959819995995 0.016853960327183209 -0.0068039568072500905 -0.020429450648183797 -0.0034663165212962138 -0.012423665040542427 0.044667385965585713 -0.012443067843005771 -0.019281883401086008 0.0013244981198829223 -0.0064297923105366434 0.032647610455751423 0.043515486678197268 0.0067332648081217146 0.019884861420307841 0.0032355662982330329 0.013187636715930798 0.019119367982523564 0.04330103302543814 0.053042631099621457 0.01486806343249881 0.092494137929036074 -0.033128851065129944 0.029193149060010911 0.031320230665561909 -0.017407302703799272 -0.0067740718506022609 0.024354908527696836 -0.023411137582452009 0.035540534406900408 0.0029138853835696675 0.0077180426820026085 0.00055003480599473485 0.021291539684025338 0.042716426676825479 0.0058167270241448518 0.033055212741924654 0.022585821825279191 -0.026758388954180257 -0.016213763798945225 -0.015061271952136475 -0.0062503866385668523 0.010306988223520523 -0.042830913557725794 -0.012801695861727806 0.070397415368453328 -0.019882938253783414 0.024880751023689907 0.0039681218141181902
leaf_weight=31 11.999999999999998 69 28 64 105 72 11.999999999999998 236 66 9.9999999999999982 35 11.999999999999998 15.000000000000002 137 30 56 87 29 68 9.9999999999999982 21 139 47 81 11.999999999999998 21 105 28 76 31 39 10.999999999999998 11.999999999999998 78 12.999999999999998 66 14.999999999999998 34 123 66 17 66 14.999999999999998 58 24 176 20 19 12.999999999999998 54 28 81 52 34 51 36 17 37 23 31 45 10.999999999999998
leaf_count=31 12 69 28 64 105 72 12 236 66 10 35 12 15 137 30 56 87 29 68 10 21 139 47 81 12 21 105 28 76 31 39 11 12 78 13 66 15 34 123 66 17 66 15 58 24 176 20 19 13 54 28 81 52 34 51 36 17 37 23 31 45 11
internal_value=0 0.0159317 0.0321016 -0.0131626 -0.0154406 -0.00223512 0.0248819 -0.0181587 0.0283007 0.00753246 0.0267262 0.0145798 -0.0162098 0.0044779 0.0260559 0.00513267 -0.0191625 -0.0114701 -0.00732789 0.0123558 -0.0273372 -0.015875 -0.00789635 -0.0098776 0.00957733 0.0325715 0.00168424 0.0107886 0.00838379 0.0186183 0.0297536 0.0331962 0.038337 0.00969268 0.0791424 -0.0312277 0.0405604 0.024802 -0.0158032 -0.0143396 0.014665 -0.0207637 0.0309598 0.00762252 -0.00038665 -0.00122507 0.0293043 0.0318891 -0.00473612 0.0359841 0.0271049 -0.0229986 -0.0118572 -0.00959172 -0.0106744 0.0144973 -0.035116 -0.0179196 0.0757391 -0.0147594 0.02167 0.012892
internal_weight=0 1407 481 1703 1611 275 417 1336 348 926 92 280 1102 646 85 634 679 423 218 25 234 205 203 193 195 265 361 183 140 43 178 105 87 273 64 147 46 73 362 275 83 87 93 195 256 232 82 62 94 75 43 317 152 100 156 64 83 176 51 99 75 46
internal_count=3110 1407 481 1703 1611 275 417 1336 348 926 92 280 1102 646 85 634 679 423 218 25 234 205 203 193 195 265 361 183 140 43 178 105 87 273 64 147 46 73 362 275 83 87 93 195 256 232 82 62 94 75 43 317 152 100 156 64 83 176 51 99 75 46
is_linear=0
shrinkage=0.05


Tree=16
num_leaves=63
num_cat=0
split_feature=0 1 7 6 12 3 9 3 12 7 1 3 8 11 3 12 0 0 4 0 1 11 4 0 11 10 5 1 1 6 12 1 9 12 6 9 7 6 10 6 11 3 6 6 6 8 0 11 9 12 8 4 6 4 12 9 12 11 9 3 8 9
split_gain=235.436 68.984 58.9721 55.862 23.3006 8.99439 8.11806 9.04405 7.27908 7.5504 6.63864 6.44268 5.09597 4.848 4.74835 4.33372 3.05813 2.93822 2.63477 2.5528 2.34115 2.09673 1.5399 1.38309 1.34833 1.33489 1.324 1.31653 1.30198 1.08706 1.90063 1.07139 1.04986 1.01988 1.00276 1.10958 0.974984 0.992607 0.888303 0.884663 0.828221 0.766374 0.936001 0.73016 0.872867 0.631936 0.620201 0.571023 0.797743 0.568646 0.543945 0.538417 0.537944 0.662147 0.975117 0.519747 0.515249 0.510255 0.492265 0.475369 0.474452 0.465571
threshold=8.5000000000000018 2018.5000000000002 2.1000000000000005 34.250000000000007 2.2701373889695211 6715.0000000000009 4.124635573731064 35443.000000000007 2.2398269295480406 2.1000000000000005 2013.5000000000002 3743.5000000000005 1.3527208732559255 2.5527864915258101 69800.000000000015 1.1746845664339742 9.5000000000000018 3.5000000000000004 1.5000000000000002 2.5000000000000004 2019.5000000000002 3.8333002958539328 1.5000000000000002 2.5000000000000004 3.2550528317813869 1.4222054835791231 155.00000000000003 2018.5000000000002 2015.5000000000002 35.550000000000004 3.2785252599650092 2017.5000000000002 4.7242572092239765 1.7722381030765637 59.500000000000007 3.0013617792083731 1.5000000000000002 35.550000000000004 2.1987486759910619 50.900000000000006 3.8089521458466784 15449.000000000002 35.550000000000004 61.550000000000004 57.650000000000013 2.1353622802215622 3.5000000000000004 3.0684024960079226 4.4408391675121974 3.148408535886372 2.699405377018349 1.5000000000000002 43.850000000000009 1.5000000000000002 1.4929564220001821 3.2589746465496963 5.3350576111211323 4.2660471015146166 4.5627704079031703 21363.500000000004 2.5271814904922931 4.5554106360694551
decision_type=2 2 2 2 2 2 2 2 2 2 2 2 2 2 2 2 2 2 2 2 2 2 2 2 2 2 2 2 2 2 2 2 2 2 2 2 2 2 2 2 2 2 2 2 2 2 2 2 2 2 2 2 2 2 2 2 2 2 2 2 2 2
left_child=3 8 5 11 6 12 7 22 9 24 23 -1 -3 19 16 -11 60 58 47 50 25 38 31 -6 26 -15 43 -13 -21 45 40 -5 -4 39 35 51 -20 -38 -18 -24 61 42 -26 44 52 -14 -30 -7 -49 -23 -12 -27 -2 54 -54 -17 -25 -37 -8 -46 -10 -31
right_child=1 2 32 4 10 18 17 -9 14 15 13 27 29 20 -16 55 21 -19 36 28 -22 49 33 56 41 34 -28 -29 46 30 -32 -33 -34 -35 -36 57 37 -39 -40 -41 -42 -43 -44 -45 59 -47 -48 48 -50 -51 -52 -53 53 -55 -56 -57 -58 -59 -60 -61 -62 -63
leaf_value=0.04350787778384984 0.01525394354760647 0.011733486540051121 0.071952124027644879 -0.0089007572629130789 -0.035832560434937481 0.015847449412999245 -0.0046963000506598587 0.031635630331360375 0.015755897868288363 0.057800095379352573 -0.021819261544635881 0.010292112497588208 0.02253504157715449 -0.0028444138355553151 -0.021839873678982259 0.016470657063958546 0.0016309017645432912 0.01309318930070731 0.0051914838826294645 -0.020917412228882312 -8.8807811367918156e-05 0.01853783067315817 -0.01024866334455134 -0.023367216610822125 0.011997539718339051 -0.013626837849808046 -0.0042245742145248432 0.025820263936406091 -0.016606643920143448 0.03434746229049554 0.022566996388137341 0.011817381880246104 0.087869430505312415 -0.014523600343981702 -0.017530757255633089 -0.010258229811906175 0.011139671683251378 0.023301767331102622 -0.0047858855144087492 0.0016319098743274988 0.050163242096702254 0.0092953800593557605 0.026582721332934774 0.0025805714304765895 0.025971124693751336 0.033198092652795212 -0.010803606625782645 0.034091452780095018 0.019137868403146668 0.0058914250723319135 -0.026533094910253963 -0.023026602149009704 0.02067708977394634 0.0042449760611765501 0.0080056745122119629 0.026417818896729374 -0.033591859042644501 0.00031732764238348376 0.0057069960081328952 0.013143391928707178 0.0085628358665137336 0.041552703683414766
leaf_weight=32 25 33 51 13.000000000000002 48 12.999999999999998 47 12.999999999999998 41 9.9999999999999982 233 39 33 25 19 24 235 64 43 110 33 20 121 69 22 39 22 21 105 81 25 11.999999999999998 12.999999999999998 165 170 93 62 23 70 18 11.999999999999998 34 22 45 9.9999999999999982 24 82 22 14.999999999999998 15.999999999999998 83 25 18 89 97 29 14.999999999999998 12.999999999999998 14.999999999999998 26 52 31
leaf_count=32 25 33 51 13 48 13 47 13 41 10 233 39 33 25 19 24 235 64 43 110 33 20 121 69 22 39 22 21 105 81 25 12 13 165 170 93 62 23 70 18 12 34 22 45 10 24 82 22 15 16 83 25 18 89 97 29 15 13 15 26 52 31
internal_value=0 0.0151351 0.0304965 -0.0125045 -0.0146685 0.0236378 -0.00527116 -0.00926826 0.00715584 0.0114942 -0.0185163 0.0253899 0.029975 -0.0171394 0.00262598 0.0276097 0.00369707 0.00557812 0.0151288 -0.0199293 -0.0128424 0.00150519 -0.0108845 -0.029062 0.00901786 -0.0139955 0.00762805 0.015727 -0.016601 0.0328972 0.0351437 0.00104395 0.0751853 -0.0118655 -0.0148154 -0.0121 0.0113268 0.0144306 0.000158196 -0.00871017 0.0376793 0.0149334 0.0192901 0.00846921 0.00946917 0.0270247 -0.014062 0.0248619 0.0280292 0.0129172 -0.0230574 -0.0172986 0.0083314 0.00748304 0.00998903 0.0219134 -0.025193 -0.00896123 -0.00217937 0.0167067 0.011734 0.0363418
internal_weight=0 1407 481 1703 1611 417 468 342 926 473 1143 92 239 1011 453 63 434 126 178 613 398 341 329 132 410 365 332 60 297 206 149 25 64 304 340 170 128 85 305 139 124 78 44 310 265 57 187 50 37 36 316 64 229 204 115 53 84 106 62 36 93 112
internal_count=3110 1407 481 1703 1611 417 468 342 926 473 1143 92 239 1011 453 63 434 126 178 613 398 341 329 132 410 365 332 60 297 206 149 25 64 304 340 170 128 85 305 139 124 78 44 310 265 57 187 50 37 36 316 64 229 204 115 53 84 106 62 36 93 112
is_linear=0
shrinkage=0.05


Tree=17
num_leaves=63
num_cat=0
split_feature=0 1 7 6 1 3 0 10 13 3 0 1 8 6 13 10 2 7 0 4 9 8 2 11 11 4 9 8 1 9 6 0 11 9 8 9 6 10 11 2 8 8 7 7 10 10 3 9 9 9 0 10 0 6 8 9 1 10 10 11 6 13
split_gain=212.481 62.2581 53.2223 50.4154 18.906 8.11744 8.10716 8.01876 6.48158 5.81452 5.25388 5.00178 4.60596 4.15857 3.64936 3.22205 3.21164 13.1524 4.32091 2.37788 2.25895 1.95295 1.88156 1.68134 1.49337 1.40293 1.28176 1.26785 1.18817 1.06954 1.00086 1.68508 0.990862 0.947502 0.944281 0.884203 0.765136 0.735313 0.726686 0.685272 1.62134 0.677395 0.670344 0.661068 0.62892 0.590891 0.515838 0.761601 0.514687 0.504366 0.485355 0.474434 0.458747 0.431519 0.410982 0.40196 0.401639 0.399893 0.368252 0.518664 0.363737 0.776489
threshold=8.5000000000000018 2018.5000000000002 2.1000000000000005 34.250000000000007 2018.5000000000002 6715.0000000000009 3.5000000000000004 2.5709835878968179 3.5000000000000004 3743.5000000000005 11.500000000000002 2013.5000000000002 1.3629270854831967 41.20000000000001 3.5000000000000004 1.7239133174246606 1.0000000180025095e-35 1.2500000000000002 3.5000000000000004 1.5000000000000002 2.8701630221328052 5.743165691910554 1.5000000000000002 3.3702548524317057 2.8663031604197777 1.5000000000000002 2.767330557770562 3.1052730287130932 2018.5000000000002 3.2232444617761762 35.550000000000004 11.500000000000002 2.5667805789304565 4.7242572092239765 2.0011190442558751 4.5992839764900273 59.500000000000007 2.3320124424382933 2.7053481231847569 1.0000000180025095e-35 2.5599574195552015 2.5070129886390222 1.8500000000000003 1.6500000000000001 1.9430636794519003 2.7482060468649174 10568.000000000002 4.4408391675121974 3.3085637769720564 2.6305204851179309 2.5000000000000004 2.4730118206252154 6.5000000000000009 39.500000000000007 2.5599574195552015 2.0521594083983197 2016.5000000000002 0.81488417660374701 1.7936818441069267 3.3137205185305478 41.850000000000009 3.5000000000000004
decision_type=2 2 2 2 2 2 2 2 2 2 2 2 2 2 2 2 2 2 2 2 2 2 2 2 2 2 2 2 2 2 2 2 2 2 2 2 2 2 2 2 2 2 2 2 2 2 2 2 2 2 2 2 2 2 2 2 2 2 2 2 2 2
left_child=3 8 5 9 7 12 23 16 11 -1 13 -2 -3 -10 21 32 17 -5 29 46 43 25 -21 50 -12 48 42 -27 -11 -18 45 41 -13 53 -24 -33 -31 -28 52 40 -26 58 51 55 -41 -14 47 -7 -9 -19 -6 -17 -22 -4 57 -20 -15 -34 -32 -60 -8 -62
right_child=1 2 33 4 6 19 60 14 10 28 24 15 30 56 -16 26 18 49 20 22 38 -23 34 -25 39 27 37 -29 -30 36 31 35 54 -35 -36 -37 -38 -39 -40 44 -42 -43 -44 -45 -46 -47 -48 -49 -50 -51 -52 -53 -54 -55 -56 -57 -58 -59 59 -61 61 -63
