tree
version=v3
num_class=1
num_tree_per_iteration=1
label_index=0
max_feature_idx=13
objective=regression
feature_names=Column_0 Column_1 Column_2 Column_3 Column_4 Column_5 Column_6 Column_7 Column_8 Column_9 Column_10 Column_11 Column_12 Column_13
feature_infos=[0:14] [2000:2020] [0:3] [1:138000] [0:2] [0:555] [1.1000000000000001:256.80000000000001] [0:2.8999999999999999] [0.38281256569510752:16.123416145917691] [0.10723373656662906:15.075324810822314] [0.36773121685119686:16.2955108286802] [0.55119618147044935:14.88721330726338] [0.44332114551380702:16.343557830687185] [0:4]
tree_sizes=5518 5525 5615 5534 5570 5643 5594 5645 5670 5621 5586 5731 5752 5762 5669 5715 5714 5770 5623 5750 5728 5763 5715 5722 5787 5799 5788 5796 5750 5866 5789 5838 5808 5805 5826 5783 5912 5886 5828 5915 5918 5964 5974 5903 5797 5905 5972 5854 5993 6048 6054 5966 5990 5971 6007 5939 6019 6094 6071 6126 6016 6093 6080 6112 6074 6133 6084 6227 6164 6064 6256 6141 6163 6260 6204 6196

Tree=0
num_leaves=63
num_cat=0
split_feature=0 1 7 7 10 1 12 7 9 12 3 8 1 1 0 9 12 0 7 0 11 12 2 11 9 2 12 1 1 0 8 11 3 9 0 9 4 9 0 10 10 12 10 10 11 10 7 8 0 12 0 4 3 2 8 9 0 1 3 1 3 10
split_gain=1198.47 364.992 285.792 260.538 122.215 72.5705 50.0678 49.3961 33.3337 33.5533 30.7689 27.4499 25.4927 23.895 19.5683 17.6617 12.2598 10.0608 9.38864 9.3503 9.17004 8.63692 7.58854 7.48459 7.18317 7.10617 6.2414 5.9978 5.23623 4.61941 4.32276 4.05287 3.68953 3.56717 3.1907 3.12207 2.91408 2.88693 2.57732 2.31623 2.30583 2.24452 2.21532 2.11834 2.05928 1.90966 1.89379 1.87696 1.78713 1.71442 1.70061 1.69311 1.60795 1.53714 1.52154 1.49335 1.44913 1.28469 1.27454 1.14208 1.1297 1.12236
threshold=8.5000000000000018 2018.5000000000002 1.8500000000000003 1.8500000000000003 2.2859945758369395 2018.5000000000002 1.5427016202857582 1.5000000000000002 1.3162841949243276 2.5663791916673691 10070.000000000002 3.6444903585580697 2014.5000000000002 2016.5000000000002 7.5000000000000009 5.5481752099399628 2.7003303793126201 3.5000000000000004 2.1000000000000005 3.5000000000000004 3.2498694627650937 4.2874292139105217 1.0000000180025095e-35 2.5746811550871809 1.9110979111620221 1.5000000000000002 2.443590532498892 2016.5000000000002 2019.5000000000002 2.5000000000000004 2.6784440226442014 2.8967265313220127 5745.0000000000009 1.9783604662719341 11.500000000000002 2.863201249140372 1.5000000000000002 1.0473143417239485 2.5000000000000004 6.0895514547427423 2.9843197698377129 3.6895284590295621 3.2929697734169019 0.87083977198586227 2.4676860525127693 0.53756674749548949 1.5000000000000002 2.9845684963981882 3.5000000000000004 2.5663791916673691 3.5000000000000004 1.0000000180025095e-35 31003.500000000004 1.5000000000000002 4.6911520962073121 2.1290772739019617 11.500000000000002 2017.5000000000002 38540.000000000007 2018.5000000000002 24207.500000000004 1.7171234218930487
decision_type=2 2 2 2 2 2 2 2 2 2 2 2 2 2 2 2 2 2 2 2 2 2 2 2 2 2 2 2 2 2 2 2 2 2 2 2 2 2 2 2 2 2 2 2 2 2 2 2 2 2 2 2 2 2 2 2 2 2 2 2 2 2
left_child=3 6 7 4 8 14 11 -3 23 47 24 30 21 15 58 26 -11 31 -7 -18 22 46 40 48 34 43 36 -19 32 -25 -2 38 41 -12 -9 -4 -8 -31 42 -23 -15 49 -14 -24 -27 -22 -6 -10 -1 53 -39 -36 -28 -26 -37 -51 -32 -29 -5 -52 -40 -21
right_child=1 2 35 5 12 18 13 10 9 16 33 -13 17 20 -16 -17 19 27 -20 61 45 39 25 29 28 44 52 57 -30 37 56 -33 -34 -35 51 54 -38 50 60 -41 -42 -43 -44 -45 -46 -47 -48 -49 -50 55 59 -53 -54 -55 -56 -57 -58 -59 -60 -61 -62 -63
leaf_value=-0.038259750627340966 0.022497056722997916 0.018852195510104898 0.15239945308799563 0.024757551628468735 -0.057283903589064912 0.095100811604915708 0.01832300138598239 0.070854956521729434 -0.028654084126142426 0.068922255562348322 0.048879385960661118 0.10652000762004155 -0.045448995556339314 0.03509021431323682 -0.037694577391685399 -0.068033657600695921 -0.0010885476935096638 -0.036587795178741035 0.053443056751361177 0.034577539034199953 0.052662475333168306 -0.066789791030402029 0.018446302377715676 -0.026990492725716422 0.051915784373665827 0.017394774506953144 0.00042355765733186496 -0.022252271956811728 0.091785794719255701 -0.018785411605123582 0.048384853103624385 -0.033187253833030693 0.050813479037887105 0.026075071680945149 0.078599815205694673 0.16999652914184826 -0.0050774283427811656 -0.011614087707830682 -0.034081566284765379 -0.085447880503181237 0.019664852763002089 0.053078595990722351 -0.05436624591805881 0.0068102592321472588 0.032199162341380115 0.030732729650199384 -0.04449906982999547 -0.012557205450555274 -0.026560988250044847 0.083343418756907164 -0.0045304217867883174 0.098125699604337382 -0.010927300534782915 0.072881000930850676 0.19234053462225692 0.067210857725464729 0.033171389661407744 -0.006016027945727434 0.0057713579592896368 0.018816611463611292 -0.043818073942706787 0.01768228280239088
leaf_weight=85 37 79 23 45 56 38 51 31 55 10.999999999999998 27 15.999999999999998 261 47 19 9.9999999999999982 53 138 21 33 12.999999999999998 80 45 118 18 55 52 43 17 104 49 75 47 47 17 32 18 33 55 21 50 22 95 299 41 42 60 27 53 32 11 32 78 17 9.9999999999999982 26 23 17 10.999999999999998 10 65 13.999999999999998
leaf_count=85 37 79 23 45 56 38 51 31 55 11 27 16 261 47 19 10 53 138 21 33 13 80 45 118 18 55 52 43 17 104 49 75 47 47 17 32 18 33 55 21 50 22 95 299 41 42 60 27 53 32 11 32 78 17 10 26 23 17 11 10 65 14
internal_value=-3.03204e-10 0.0342367 0.0697695 -0.0281395 -0.0338408 0.0387874 0.0159331 0.054397 -0.0162591 0.000901779 0.0628296 0.0453641 -0.0448886 0.0113402 0.0061517 -0.00319407 0.0188204 -0.0405166 0.0802735 0.0133092 0.0164715 -0.0599789 0.0144799 -0.0242592 0.0709536 0.0116892 6.41956e-05 -0.0308497 0.0653869 -0.0195054 0.0363871 -0.0439904 0.0626166 0.0343956 0.083409 0.167207 0.0122185 -0.0139153 -0.0456925 -0.0706692 0.027139 0.0674405 -0.0478286 0.00833242 0.0237175 0.0359161 -0.0506711 -0.0233539 -0.0337667 0.070838 -0.0045358 0.0913514 -0.00638696 0.0620989 0.175317 0.0761116 0.043525 -0.017652 0.0210281 0.00658721 -0.0393555 0.0295449
internal_weight=0 1403 477 1707 1573 134 926 412 607 193 333 125 966 801 75 209 111 749 59 100 592 217 537 414 259 440 199 198 179 276 109 551 162 74 80 65 69 158 476 101 97 115 356 344 96 55 116 82 138 93 54 49 130 35 42 58 72 60 56 21 120 47
internal_count=3110 1403 477 1707 1573 134 926 412 607 193 333 125 966 801 75 209 111 749 59 100 592 217 537 414 259 440 199 198 179 276 109 551 162 74 80 65 69 158 476 101 97 115 356 344 96 55 116 82 138 93 54 49 130 35 42 58 72 60 56 21 120 47
is_linear=0
shrinkage=1


Tree=1
num_leaves=63
num_cat=0
split_feature=0 1 6 7 10 7 0 9 1 11 3 3 1 11 9 10 11 0 0 0 8 5 2 11 9 2 11 1 1 9 0 6 10 6 11 1 3 0 9 6 0 9 7 9 6 11 10 5 0 11 11 2 10 7 10 11 4 8 10 7 10 10
split_gain=1081.62 329.406 276.087 257.927 106.861 44.58 32.4397 31.5368 29.1827 28.8638 42.4827 27.769 23.5157 15.3443 13.6831 9.57125 20.9632 8.98056 8.05205 7.85475 7.48567 11.7732 7.21335 6.75484 6.48281 5.64721 5.21656 4.73999 4.7257 4.19871 4.16902 4.10916 4.08724 3.85028 3.71393 3.52824 3.3298 3.27811 3.23492 3.21937 2.8796 2.81767 2.72055 2.60545 3.20955 2.41214 2.40652 2.28576 2.11529 2.05582 1.87856 2.78219 1.65256 1.63575 1.68403 1.56071 1.52803 1.37319 1.31895 1.28452 1.12666 1.0425
threshold=8.5000000000000018 2018.5000000000002 36.70000000000001 1.8500000000000003 2.2859945758369395 1.5000000000000002 5.5000000000000009 1.3162841949243276 2016.5000000000002 3.2293418099069817 68452.500000000015 10070.000000000002 2014.5000000000002 3.5647171819261385 2.4692330081502125 1.7171234218930487 3.6123576483281066 6.5000000000000009 2.5000000000000004 4.5000000000000009 4.7813772324358297 147.50000000000003 1.0000000180025095e-35 2.5746811550871809 1.9110979111620221 1.5000000000000002 3.21640947418916 2018.5000000000002 2019.5000000000002 4.6867351688951802 2.5000000000000004 35.550000000000004 3.4622455941190102 37.95000000000001 2.5435306953136165 2016.5000000000002 5745.0000000000009 11.500000000000002 1.8595861244052536 35.550000000000004 11.500000000000002 2.863201249140372 2.1000000000000005 1.0473143417239485 49.150000000000013 2.6634388529865789 3.2646289680659835 155.00000000000003 3.5000000000000004 2.4676860525127693 3.1685265690261644 1.5000000000000002 1.674440031257084 1.8500000000000003 0.87083977198586227 3.7686456616254151 1.0000000180025095e-35 4.6911520962073121 4.0150889183271419 1.6500000000000001 3.4622455941190102 1.1725726893070993
decision_type=2 2 2 2 2 2 2 2 2 2 2 2 2 2 2 2 2 2 2 2 2 2 2 2 2 2 2 2 2 2 2 2 2 2 2 2 2 2 2 2 2 2 2 2 2 2 2 2 2 2 2 2 2 2 2 2 2 2 2 2 2 2
left_child=2 9 6 5 7 -3 -1 23 -9 14 15 24 19 18 22 16 31 20 34 29 21 26 45 52 40 47 -10 -8 36 58 -25 -11 42 -15 60 59 50 -16 -33 -13 -7 -5 -17 -32 -45 -2 -39 53 -37 -27 -26 55 -4 54 -24 -52 -42 -43 -6 -20 -14 -28
right_child=1 3 4 41 12 11 27 8 17 10 -12 39 13 33 37 32 -18 -19 35 -21 -22 -23 25 30 28 49 61 -29 -30 -31 43 38 -34 -35 -36 48 -38 46 -40 -41 56 57 -44 44 -46 -47 -48 -49 -50 -51 51 -53 -54 -55 -56 -57 -58 -59 -60 -61 -62 -63
leaf_value=0.089179826164856937 0.01900608297833737 0.017909585943893542 -0.021913107797022789 0.14477947639382405 -0.051274588704109197 0.067312211519287485 0.020360617432743311 -0.029058184431466672 -0.011638226676732304 0.025808134561647541 -0.043932267267476115 0.024771318663942055 -0.04563762130596305 0.012312729762246212 0.01763549167662859 0.023997893886906763 0.12062338411808014 -0.015551171511073004 -0.039090958941056866 -0.042984834916983981 0.0039025043345432969 0.079942305684089665 0.017523987466831589 -0.025640968137057657 0.083718121593648748 0.016333423525264318 0.033304339461028579 0.048979886945175091 0.087196504193193775 -0.077607696056365971 -0.017846140478146623 0.032629736699163914 0.012703052976240331 -0.019498161269495121 -0.037944184896754635 -0.033337757052207477 0.048272805962156745 0.00120240889445995 0.065172818445024039 0.046435417014139668 0.074669824628268974 0.16149670444428921 0.04153872318565846 -0.011520569192944094 0.016295430767682514 0.035025153515186716 -0.01125664390077313 -0.0065946868215890041 -0.019112574857925731 0.030589204972110148 0.047716892883181573 0.072334617599844928 -0.035023498138256164 0.02150055855271165 0.0070006170886395304 0.063332945853471753 0.093219415098428737 0.18272350549697877 -0.06211334707008468 -0.029450926946645434 -0.053199568435327332 0.017982679698616267
leaf_weight=39 47 79 31 23 46 31 39 56 9.9999999999999982 23 17 47 186 14.999999999999998 20 35 9.9999999999999982 22 161 79 47 9.9999999999999982 45 118 10.999999999999998 66 32 23 17 35 104 11.999999999999998 26 26 162 49 47 96 21 27 17 32 60 40 13.999999999999998 47 65 23 56 41 32 40 107 27 245 32 32 9.9999999999999982 72 44 67 17
leaf_count=39 47 79 31 23 46 31 39 56 10 23 17 47 186 15 20 35 10 22 161 79 47 10 45 118 11 66 32 23 17 35 104 12 26 26 162 49 47 96 21 27 17 32 60 40 14 47 65 23 56 41 32 40 107 27 245 32 32 10 72 44 67 17
internal_value=0 0.0325249 -0.0267325 0.066281 -0.0317752 0.0516772 0.0534516 -0.015251 0.00138412 0.0151364 0.0317436 0.0596881 -0.0418421 -0.0376182 0.0104441 0.0386232 0.0539395 0.0137375 -0.0393011 -0.0557882 0.0192923 0.0297751 0.0144255 -0.0230462 0.0674059 0.0117779 0.0212722 0.0309774 0.0621175 -0.0623991 -0.0185301 0.0420317 0.0302688 -0.00786003 -0.0438552 -0.0332043 0.0594858 -0.00145603 0.053339 0.0326758 0.0792386 0.158847 0.0350763 -0.0132195 -0.00430901 0.0270156 -0.00382764 0.0086252 -0.025751 0.0217959 0.0640685 0.0619902 -0.0320784 0.00972948 0.00863355 0.0555249 0.0867838 0.166551 -0.0578881 -0.0370219 -0.0476402 0.0279887
internal_weight=0 1403 1707 477 1606 412 101 608 194 926 204 333 998 766 722 187 66 138 725 232 116 69 541 414 259 447 59 62 179 153 276 56 121 41 415 310 162 181 33 74 80 65 95 158 54 94 161 340 105 107 115 104 138 317 290 64 49 42 118 205 253 49
internal_count=3110 1403 1707 477 1606 412 101 608 194 926 204 333 998 766 722 187 66 138 725 232 116 69 541 414 259 447 59 62 179 153 276 56 121 41 415 310 162 181 33 74 80 65 95 158 54 94 161 340 105 107 115 104 138 317 290 64 49 42 118 205 253 49
is_linear=0
shrinkage=0.05


Tree=2
num_leaves=63
num_cat=0
split_feature=0 3 6 7 10 7 12 0 9 8 8 12 3 7 6 10 10 12 2 6 10 11 0 11 8 2 9 11 8 6 10 8 2 7 0 10 9 7 6 11 12 10 6 9 6 11 9 0 6 8 6 10 11 12 9 12 5 6 6 9 8 8
split_gain=976.164 256.53 249.169 235.199 96.4421 43.2326 39.4755 29.2768 28.462 26.1469 25.8662 25.3858 20.7738 16.1231 14.8043 14.3443 12.326 11.5024 9.86259 8.21518 7.98783 7.61261 6.99596 6.11818 6.06448 5.76095 5.48826 5.88958 4.73964 4.03309 3.9012 3.58931 3.43782 3.3781 3.14789 3.01437 2.98557 2.97844 2.96521 2.90305 2.7342 2.66229 2.58835 2.49977 2.48507 2.41052 1.8804 1.85989 1.76995 1.71943 1.71844 1.67239 1.6513 2.05904 1.82375 1.40474 1.31885 1.29101 1.25228 1.24527 1.2393 1.19346
threshold=8.5000000000000018 10070.000000000002 36.70000000000001 2.1000000000000005 2.2859945758369395 1.5000000000000002 1.5915575141550351 5.5000000000000009 1.3162841949243276 3.7056611160924486 3.9867422199662212 2.5663791916673691 40187.500000000007 2.3000000000000003 43.150000000000006 5.4326345528566131 5.7506768993570505 2.716995633348827 1.0000000180025095e-35 62.250000000000007 3.2164315518810289 2.9547737897956492 3.5000000000000004 2.6721738882336346 3.0633781763864314 1.5000000000000002 1.7818349939968643 3.7686456616254151 3.4927231275297381 35.550000000000004 3.7476239505099591 4.7528254208930987 1.5000000000000002 1.0000000180025095e-35 3.5000000000000004 3.93803077417587 2.863201249140372 1.6500000000000001 35.550000000000004 2.7888524736150768 2.6363064553445672 1.698948100727095 44.45000000000001 1.0868188369501759 51.850000000000001 3.2916802346122069 2.4859733379330566 11.500000000000002 32.250000000000007 3.4664262042916989 50.900000000000006 0.73838303888694834 3.107381566592633 3.6895284590295621 2.0096395439591399 3.469872380043372 155.00000000000003 54.850000000000001 57.650000000000013 1.3609611985576917 4.6911520962073121 3.6509975011487814
decision_type=2 2 2 2 2 2 2 2 2 2 2 2 2 2 2 2 2 2 2 2 2 2 2 2 2 2 2 2 2 2 2 2 2 2 2 2 2 2 2 2 2 2 2 2 2 2 2 2 2 2 2 2 2 2 2 2 2 2 2 2 2 2
left_child=2 3 7 5 8 55 9 -1 23 24 42 28 14 15 32 19 40 -13 39 20 45 -12 -19 41 47 46 44 29 -10 -28 -21 48 -8 -22 57 -35 -5 -37 -29 -16 -14 50 -7 -36 51 -6 56 -3 -9 -26 -4 -23 -31 54 -54 -2 -20 -25 -27 -44 -38 -34
right_child=1 6 4 36 13 10 12 31 11 -11 21 17 16 -15 18 -17 -18 22 25 30 33 26 -24 34 49 58 27 38 -30 52 -32 -33 61 35 43 37 60 -39 -40 -41 -42 -43 59 -45 -46 -47 -48 -49 -50 -51 -52 -53 53 -55 -56 -57 -58 -59 -60 -61 -62 -63
leaf_value=0.084720834249105204 0.0098832119023427381 0.034604516113176942 -0.025163066703261752 0.13475170701742173 -0.037688907513008026 0.04072186375657718 0.02492257372676572 0.029275337094441058 -0.023478162084706128 0.11769918501377107 0.030344110354781153 0.057947101046641671 0.006959218421418752 0.011697093782325587 0.020809593690630002 -0.069486192232225005 -0.062528540343046196 -0.0011986386777727673 0.0078458766183615025 -0.02194527541395537 -0.024878113484010103 0.067302427440881732 0.026307371663065945 -0.017450850180421886 0.041735050562889349 0.016315966789161081 0.036574123319118253 0.063507856322186335 0.013167405016720297 0.040747552880874054 -0.036758028942605728 0.050723828574021662 0.031882725283503534 -0.04483449649119723 -0.013123083731895963 -0.059757690450974878 0.15342187248170377 -0.041172585713452309 0.086899131834506996 0.043059755696190728 -0.01037460981689107 -0.032549496216855892 0.028500504156245905 0.0095252750057946232 0.062558085570732766 -0.016593715608386055 -0.0012016814715137764 0.018976534064859153 0.0084602138710518689 0.062846791531358456 -0.0047524940036237241 0.086815670898982455 0.054405081042876613 0.046380876430443363 0.071783529056443113 0.022191161821995462 -0.0058092726982737842 -0.027276825110117593 0.031412504199478365 0.010960406333208085 0.1735873293876648 0.051828143447637559
leaf_weight=39 44 32 33 20 414 18 79 32 75 9.9999999999999982 19 14.999999999999998 35 14.999999999999998 79 41 9.9999999999999982 53 255 86 15.999999999999998 15.999999999999998 41 130 31 58 31 42 9.9999999999999982 12.999999999999998 92 14.999999999999998 11.999999999999998 207 43 84 32 29 20 18 65 131 17 17 30 13.999999999999998 97 47 14.999999999999998 13.999999999999998 14.999999999999998 35 26 21 36 49 19 45 18 25 9.9999999999999982 20
leaf_count=39 44 32 33 20 414 18 79 32 75 10 19 15 35 15 79 41 10 53 255 86 16 16 41 130 31 58 31 42 10 13 92 15 12 207 43 84 32 29 20 18 65 131 17 17 30 14 97 47 15 14 15 35 26 21 36 49 19 45 18 25 10 20
internal_value=0 0.0308986 -0.0253959 0.0594531 -0.0301865 0.0466606 0.0148903 0.050779 -0.0144885 0.0399244 0.0547328 0.00131491 0.0105053 -0.03975 0.0138818 -0.040535 -0.00960057 0.017287 0.0104863 -0.0392749 -0.0415287 0.0609351 0.0107987 -0.0218939 0.0336523 0.00735014 0.0630878 0.058421 -0.0191669 0.052254 -0.0296013 0.0294286 0.0305229 -0.0472989 -0.0165891 -0.04842 0.150652 -0.0549881 0.0710534 0.0249385 -0.00430777 -0.0288584 0.0248585 -0.00670605 0.0739769 -0.0369989 0.00478102 0.0253069 0.0226322 0.0483031 -0.0187848 0.0806939 0.0573172 0.0599125 0.0644958 0.016368 0.00689899 -0.0199775 0.0198915 0.01806 0.158223 0.0443486
internal_weight=0 1403 1707 504 1606 442 899 101 608 134 349 194 765 998 655 983 110 109 544 942 764 289 94 414 124 447 270 189 85 127 178 62 111 336 235 320 62 113 62 97 100 179 60 60 81 428 371 79 47 45 48 51 96 83 62 93 274 175 76 42 42 32
internal_count=3110 1403 1707 504 1606 442 899 101 608 134 349 194 765 998 655 983 110 109 544 942 764 289 94 414 124 447 270 189 85 127 178 62 111 336 235 320 62 113 62 97 100 179 60 60 81 428 371 79 47 45 48 51 96 83 62 93 274 175 76 42 42 32
is_linear=0
shrinkage=0.05


Tree=3
num_leaves=63
num_cat=0
split_feature=0 1 6 7 10 7 9 0 11 3 3 1 1 11 9 10 11 0 10 9 0 2 9 2 4 1 1 1 0 1 6 10 6 3 6 9 0 9 1 0 2 8 11 10 5 6 11 11 2 3 7 10 3 4 6 11 0 6 10 7 8 10
split_gain=880.988 269.528 224.875 211.298 87.2515 36.2738 26.4585 26.4223 23.4551 34.6864 22.7728 21.2834 21.2724 15.1732 11.1334 11.0415 10.9813 8.2352 7.61482 17.4743 6.61032 5.98315 5.64476 4.63666 4.62969 4.09665 4.02749 3.96499 3.81851 3.54083 3.34433 3.34158 3.1366 2.87799 2.86817 2.71855 2.66861 2.64594 2.39133 2.31535 2.18542 2.13223 2.05549 2.00897 1.89685 1.82856 1.6838 1.60209 2.28719 1.4328 1.40512 1.48185 1.29833 1.29585 1.29486 1.23255 1.15987 1.15855 1.06624 1.03997 0.985225 0.973499
threshold=8.5000000000000018 2018.5000000000002 36.70000000000001 1.8500000000000003 2.185009817706693 1.5000000000000002 1.325976050449502 5.5000000000000009 3.2293418099069817 68452.500000000015 10465.000000000002 2016.5000000000002 2014.5000000000002 3.5268219061490269 2.4692330081502125 2.1500141818476703 3.21640947418916 3.5000000000000004 1.7171234218930487 2.6685426448921219 4.5000000000000009 1.0000000180025095e-35 1.9110979111620221 1.5000000000000002 1.5000000000000002 2019.5000000000002 2018.5000000000002 2016.5000000000002 3.5000000000000004 2011.5000000000002 35.550000000000004 3.4622455941190102 57.050000000000004 5745.0000000000009 37.95000000000001 1.8595861244052536 11.500000000000002 2.3575343509434172 2017.5000000000002 11.500000000000002 1.5000000000000002 4.6911520962073121 2.6634388529865789 3.2929697734169019 155.00000000000003 35.550000000000004 2.4676860525127693 3.1685265690261644 1.5000000000000002 4333.0000000000009 1.8500000000000003 0.87083977198586227 26009.500000000004 1.0000000180025095e-35 39.500000000000007 3.7686456616254151 2.5000000000000004 35.550000000000004 4.0150889183271419 1.6500000000000001 4.6714496294374284 1.674440031257084
decision_type=2 2 2 2 2 2 2 2 2 2 2 2 2 2 2 2 2 2 2 2 2 2 2 2 2 2 2 2 2 2 2 2 2 2 2 2 2 2 2 2 2 2 2 2 2 2 2 2 2 2 2 2 2 2 2 2 2 2 2 2 2 2
left_child=2 8 7 5 6 -3 24 60 14 18 22 -8 20 17 21 16 -13 37 19 30 29 42 39 44 -4 33 -9 59 -18 -6 -10 40 38 47 -15 -32 -16 52 61 -7 -20 54 -2 -38 50 -12 -25 -24 55 -36 51 -23 -14 -41 -5 -49 -40 -35 -31 -19 -1 -26
right_child=1 3 4 41 12 10 11 26 9 -11 45 15 13 34 36 -17 28 27 31 -21 -22 23 25 46 32 -27 -28 -29 -30 58 35 -33 -34 57 49 -37 43 -39 56 53 -42 -43 -44 -45 -46 -47 -48 48 -50 -51 -52 -53 -54 -55 -56 -57 -58 -59 -60 -61 -62 -63
leaf_value=0.075818129654588381 0.01705895147900632 0.016210279446331004 0.01228898699310693 0.14681199510892234 -0.070707639876533959 0.060922612538260805 -0.025476851686835292 0.018170742628475033 0.022965388850349447 -0.039784947889583082 0.022413797271640404 -0.017343596375926775 -0.03445089996885508 0.011112238566080729 0.015886124188546093 0.062894324890591879 0.0034861672024887342 -0.034677519801483363 0.026928278081108786 0.10935579121112825 -0.038667372114296203 0.016048206695251997 0.075943035429174258 0.014708947041777498 -0.019368360548590622 0.079110904125606313 0.044551474341879727 -0.017313127322248309 0.026608525353826976 -0.046449477841024815 0.028817753121256829 0.011477159930822942 -0.028570067914583355 0.031948116123676304 -0.0039179089533932067 0.058650628583771847 0.00099900828588905984 -0.04408640215446899 -0.019992705063486937 0.067226858700022971 0.043741955911671682 0.16490796327590942 0.031846426665148836 -0.010445211640012171 -0.006146466505268346 0.039940023371441799 0.027610521054849391 0.043076805956661704 0.065256724953651424 -0.023444222055730365 0.019633993351211153 0.0061767383585003928 -0.040586394982889663 0.08430912774056197 0.13140452384948731 0.056954359076917177 -0.01162065763432437 0.04835883363297111 -0.056168686649570733 -0.025418359225408901 0.094018111824989314 -0.029491846628011544
leaf_weight=29 47 79 10.999999999999998 30 34 31 44 39 23 17 46 27 300 14.999999999999998 20 10.999999999999998 26 93 68 9.9999999999999982 79 45 10.999999999999998 66 48 17 23 74 57 46 11.999999999999998 26 93 14.999999999999998 17 21 98 143 64 17 27 9.9999999999999982 47 63 23 22 41 32 40 21 27 245 121 32 25 32 117 38 73 45 9.9999999999999982 47
leaf_count=29 47 79 11 30 34 31 44 39 23 17 46 27 300 15 20 11 26 93 68 10 79 45 11 66 48 17 23 74 57 46 12 26 93 15 17 21 98 143 64 17 27 10 47 63 23 22 41 32 40 21 27 245 121 32 25 32 117 38 73 45 10 47
internal_value=0 0.0293537 -0.0241261 0.0598881 -0.0286771 0.04667 -0.0124163 0.0482401 0.0136249 0.0285954 0.0538962 0.00430246 -0.0370298 -0.0332845 0.00939497 0.0151313 0.010355 -0.0350523 0.0348118 0.0484733 -0.0504128 0.0129863 0.0605197 0.010575 -0.0196758 0.055721 0.0279571 -0.026651 0.0193654 -0.0564775 0.0376014 0.02736 -0.0206286 0.0533541 -0.00740093 0.0478023 -0.00133935 -0.0382102 -0.0179527 0.0716169 0.0317069 0.14367 0.0244527 -0.00347916 0.00771829 0.028084 0.0196525 0.0577969 0.0558776 -0.0147088 0.00872425 0.00770852 -0.0362143 0.0783826 0.139809 0.0500156 -0.0145809 0.0437143 -0.0524117 -0.0316582 0.0804848 -0.0243768
internal_weight=0 1403 1707 477 1606 412 545 101 926 204 333 165 1061 829 722 121 110 776 187 66 232 541 265 447 380 185 62 212 83 153 56 121 369 168 53 33 181 564 276 80 95 65 94 161 340 68 107 115 104 38 317 290 421 49 55 64 181 53 119 138 39 95
internal_count=3110 1403 1707 477 1606 412 545 101 926 204 333 165 1061 829 722 121 110 776 187 66 232 541 265 447 380 185 62 212 83 153 56 121 369 168 53 33 181 564 276 80 95 65 94 161 340 68 107 115 104 38 317 290 421 49 55 64 181 53 119 138 39 95
is_linear=0
shrinkage=0.05


Tree=4
num_leaves=63
num_cat=0
split_feature=0 1 6 7 10 12 7 9 0 12 3 1 10 1 11 6 3 2 0 9 12 9 0 4 11 0 1 8 1 2 6 11 6 9 1 10 6 3 6 9 6 6 10 3 4 12 11 3 4 0 11 0 12 3 8 6 8 6 12 7 9 7
split_gain=795.092 243.249 202.949 190.697 78.7445 33.2509 32.7371 23.8788 23.8461 22.5518 20.5525 19.1984 18.7031 17.3379 13.6938 11.9896 11.8568 9.66707 7.43227 7.42031 6.80068 5.09439 4.98693 4.1783 3.73029 3.71399 3.63481 3.63361 3.5784 3.5774 3.00322 2.88842 2.58853 2.38796 2.37367 2.11822 2.09789 1.99459 1.98604 1.96575 1.89875 1.65027 1.53589 1.52352 1.45353 1.31208 1.29777 1.2931 1.27855 1.25225 1.23355 1.33505 1.20327 2.68041 1.11339 1.06652 0.991352 0.976293 0.962282 0.93857 0.897552 0.848797
threshold=8.5000000000000018 2018.5000000000002 36.70000000000001 1.8500000000000003 2.185009817706693 1.5427016202857582 1.5000000000000002 1.325976050449502 5.5000000000000009 2.5663791916673691 10465.000000000002 2014.5000000000002 1.4312233201429023 2013.5000000000002 3.5268219061490269 43.150000000000006 5003.0000000000009 1.0000000180025095e-35 3.5000000000000004 2.6253727563290492 4.0905883981114863 1.9110979111620221 3.5000000000000004 1.5000000000000002 3.7686456616254151 11.500000000000002 2018.5000000000002 3.4927231275297381 2016.5000000000002 1.5000000000000002 35.550000000000004 2.773624173593356 37.95000000000001 2.3575343509434172 2012.5000000000002 1.698948100727095 50.900000000000006 22384.000000000004 35.550000000000004 2.863201249140372 50.900000000000006 35.550000000000004 0.51611680047985764 20002.500000000004 1.5000000000000002 2.5881416990394288 2.7888524736150768 4333.0000000000009 1.0000000180025095e-35 2.5000000000000004 2.9971389631819325 2.5000000000000004 3.6895284590295621 6386.5000000000009 2.6104128829101367 57.650000000000013 4.6911520962073121 61.550000000000004 3.1763883362354393 1.6500000000000001 2.7534909027632848 1.1500000000000001
decision_type=2 2 2 2 2 2 2 2 2 2 2 2 2 2 2 2 2 2 2 2 2 2 2 2 2 2 2 2 2 2 2 2 2 2 2 2 2 2 2 2 2 2 2 2 2 2 2 2 2 2 2 2 2 2 2 2 2 2 2 2 2 2
left_child=2 5 8 6 7 12 -3 23 60 27 21 20 -2 -7 18 42 22 37 33 29 45 36 -11 -4 30 54 -10 -9 59 43 -23 35 -16 50 -22 40 48 46 -26 -5 -25 -12 -15 -19 57 -6 -17 -34 -8 -33 51 -13 53 -32 -14 -31 -41 -45 -51 -20 -1 -37
right_child=1 3 4 39 11 13 10 9 26 16 41 14 25 15 32 17 -18 19 28 -21 34 24 -24 31 38 -27 -28 -29 -30 55 52 49 47 -35 -36 61 -38 -39 -40 56 -42 -43 -44 44 -46 -47 -48 -49 -50 58 -52 -53 -54 -55 -56 -57 -58 -59 -60 -61 -62 -63
leaf_value=0.066324391535350261 0.085676170973216781 0.015399765647664855 0.011674537949941376 0.12473652699719305 -0.02757756175554317 -0.045953042698757995 0.063865519095869627 -0.020790836586820662 0.017262205702419847 0.0005443116242531687 0.021293107582175216 -0.037020109249995305 0.021788528114557268 0.042175595182925463 0.010556627263625464 0.022226396778739613 0.072122394386678931 0.0088668318692938768 -0.0329436440942108 -0.0057755187699262151 -0.065158172519434066 0.033915109341514524 0.0255116253428989 -0.022027306550222895 0.057227586671000433 0.018283724004609717 0.042323900791613953 0.011618129322305323 -0.016447471040049316 0.014621358242215991 0.064319178691277137 -0.01929103398198883 -0.0037220138429855821 -0.041882081861262556 -0.050762857099374142 -0.012968511879444124 0.058373106587113754 0.012884700691793115 0.077078412142064845 0.1386268373578787 -0.0041678464323261074 0.037943022323518316 0.024908262784733917 0.015164237027056516 -0.0043973791070479468 -0.041187006196418366 0.036940484798767347 -0.022272010697495372 0.081028530796368917 -0.015157000140849655 -0.02676884364534883 -0.029977560534395955 0.041696755446138836 0.045399315241310335 0.039978253897630947 0.028777398355305198 0.15666256666183473 0.0034013137689613729 -0.00450679324567318 -0.024147441122266983 0.082136806488037117 -0.028085467007297738
leaf_weight=13.999999999999998 17 79 10.999999999999998 23 23 13.999999999999998 17 64 39 36 46 286 9.9999999999999982 15.999999999999998 14.999999999999998 47 9.9999999999999982 222 93 116 42 29 45 46 42 45 23 9.9999999999999982 74 79 39 75 17 143 90 9.9999999999999982 33 40 18 32 22 22 66 22 52 77 22 21 30 48 47 88 21 36 53 15.999999999999998 9.9999999999999982 89 38 45 25 130
leaf_count=14 17 79 11 23 23 14 17 64 39 36 46 286 10 16 15 47 10 222 93 116 42 29 45 46 42 45 23 10 74 79 39 75 17 143 90 10 33 40 18 32 22 22 66 22 52 77 22 21 30 48 47 88 21 36 53 16 10 89 38 45 25 130
internal_value=0 0.027886 -0.0229198 0.0568937 -0.0272433 0.0129436 0.0443365 -0.0117955 0.0458281 0.00408733 0.0512014 -0.0351783 0.036928 0.00920075 -0.0316203 0.0101819 0.0207565 0.00807715 -0.0332997 0.00557327 -0.0478922 0.0574938 0.014415 -0.018692 0.0529349 0.0292546 0.0265593 -0.0164112 -0.0253184 0.00831589 0.0480159 -0.0195972 -0.00703089 -0.0362997 -0.0553432 -0.0234892 0.068036 0.0217681 0.0631828 0.136487 -0.0162492 0.0266798 0.0282775 0.0061717 0.00250102 -0.0380568 0.0269178 -0.0139733 0.0748206 -0.0145691 -0.0344036 -0.035363 0.0522756 0.0552376 0.037091 0.0170055 0.142921 0.0057327 -0.0104511 -0.0300753 0.0764606 -0.0270057
internal_weight=0 1403 1707 477 1606 926 412 545 101 165 333 1061 125 801 829 787 91 705 776 596 232 265 81 380 185 108 62 74 212 480 125 369 53 564 132 208 80 109 60 65 68 68 82 385 163 100 69 38 47 161 421 374 96 75 63 95 42 111 86 138 39 140
internal_count=3110 1403 1707 477 1606 926 412 545 101 165 333 1061 125 801 829 787 91 705 776 596 232 265 81 380 185 108 62 74 212 480 125 369 53 564 132 208 80 109 60 65 68 68 82 385 163 100 69 38 47 161 421 374 96 75 63 95 42 111 86 138 39 140
is_linear=0
shrinkage=0.05


Tree=5
num_leaves=63
num_cat=0
split_feature=0 3 6 7 10 7 12 9 0 12 8 8 3 11 12 12 6 8 6 11 2 6 8 6 8 2 12 6 11 4 9 2 8 0 6 9 6 3 6 9 6 3 9 11 2 12 8 11 12 10 8 8 9 8 3 0 6 9 0 0 8 8
split_gain=717.571 189.709 183.162 173.51 71.0669 31.4449 29.2494 21.5709 21.5211 20.0645 19.727 18.6468 15.6917 13.6351 13.1885 10.6975 9.62236 7.93172 6.57502 5.85179 5.79164 5.58382 5.26473 5.06631 4.64125 4.58619 4.28731 3.93686 3.82332 3.80284 3.42445 3.29223 3.28854 3.12502 3.02797 3.00145 2.97511 2.52817 2.51227 2.36139 2.27819 2.26313 2.13119 1.93195 1.85217 1.81101 2.20628 1.7862 1.70187 1.6479 1.59971 1.40899 1.37531 1.36259 1.22117 1.09455 1.08862 1.03212 1.00419 0.999809 0.894696 0.850342
threshold=8.5000000000000018 10070.000000000002 36.70000000000001 2.1000000000000005 2.185009817706693 1.5000000000000002 1.5915575141550351 1.3162841949243276 5.5000000000000009 2.5663791916673691 3.7056611160924486 4.0400766854934771 20998.000000000004 5.8528003493008418 4.0905883981114863 2.716995633348827 37.95000000000001 3.6036438287702803 43.850000000000009 3.107381566592633 1.0000000180025095e-35 64.950000000000017 4.9118029975001933 35.550000000000004 2.9593593766348332 1.5000000000000002 3.6895284590295621 45.800000000000004 3.7686456616254151 1.5000000000000002 4.5448108789068327 1.0000000180025095e-35 3.4927231275297381 2.5000000000000004 32.250000000000007 1.4905078945477255 35.550000000000004 21363.500000000004 57.050000000000004 2.6512919111403304 44.45000000000001 6386.5000000000009 2.863201249140372 2.7888524736150768 1.5000000000000002 2.2085165718049669 3.6706681777668351 2.5746811550871809 5.1192683240337544 0.66175516920215871 3.4664262042916989 4.1998678853149789 1.9399409303064092 3.9292782172296152 557.00000000000011 11.500000000000002 50.900000000000006 1.3609611985576917 2.5000000000000004 2.5000000000000004 4.6911520962073121 4.6714496294374284
decision_type=2 2 2 2 2 2 2 2 2 2 2 2 2 2 2 2 2 2 2 2 2 2 2 2 2 2 2 2 2 2 2 2 2 2 2 2 2 2 2 2 2 2 2 2 2 2 2 2 2 2 2 2 2 2 2 2 2 2 2 2 2 2
left_child=2 3 8 5 7 54 10 29 61 32 24 40 18 25 16 -11 -6 48 36 35 43 22 45 28 55 31 41 -17 -21 -4 33 -14 -9 -19 37 -13 -8 -10 47 -33 -7 49 -5 -20 -22 -18 -47 -31 -16 -25 -26 -43 -38 -35 -2 -3 -51 -42 -49 -48 -44 -1
right_child=1 6 4 42 14 11 12 9 34 15 -12 19 13 -15 17 27 21 30 20 23 44 -23 -24 26 50 -27 -28 -29 -30 38 -32 39 -34 53 -36 -37 52 -39 -40 -41 57 51 60 -45 -46 46 59 58 -50 56 -52 -53 -54 -55 -56 -57 -58 -59 -60 -61 -62 -63
leaf_value=0.068302061639983078 0.029868103699250654 0.027817355886101725 0.011090811020271346 0.11594435513019562 0.010028795674443244 0.035589505732059483 0.02103767240869588 -0.019762411969355666 0.045112966001033789 0.059341245809836053 0.10182953119277954 0.05509014938558851 0.012661170385894366 -0.055637111030519007 -0.048067745309451536 0.024865922131335969 -0.020774523106714092 -0.039567183267952194 0.020899834862888555 0.031216460562521416 0.0069194142356830309 -0.01773019711571661 -0.0045468898907796871 0.057285940827745387 0.034387378676070106 0.014975786906614587 0.039758940447460527 0.002428572684141767 0.054366206484181549 -0.022769950902809137 -0.063611702919006349 0.0023158070120861698 0.011037222941231448 -0.03408625034822358 0.0064956798538332809 0.027197046499819529 0.033174286223948003 0.021467375153532395 -0.025841695150380498 -0.0074830838497514296 0.025232765166198507 0.066915291547775244 0.13169549666345121 0.041251482628285888 0.02010530833034746 -0.035757297453480767 -0.030904417415785659 -0.01841437032140077 -0.062450534820556639 0.075105371534824383 0.0537402976836477 0.044112143771989007 0.055244348347187049 -0.02138122433394778 0.01212638620764199 0.014480769603978844 0.063179623503838808 0.0092642057612538336 -0.011000361712554044 -0.021789058758359819 0.14882944107055665 0.085210369229316713
leaf_weight=29 10.999999999999998 25 10.999999999999998 20 14.999999999999998 22 58 65 20 13.999999999999998 9.9999999999999982 13.999999999999998 50 9.9999999999999982 116 34 30 101 43 31 189 77 17 33 45 71 22 46 42 77 9.9999999999999982 165 9.9999999999999982 36 15.999999999999998 31 24 26 93 98 17 10.000000000000002 32 15.999999999999998 31 364 183 73 25 50 13.999999999999998 21 9.9999999999999982 51 82 40 31 25 122 36 9.9999999999999982 9.9999999999999982
leaf_count=29 11 25 11 20 15 22 58 65 20 14 10 14 50 10 116 34 30 101 43 31 189 77 17 33 45 71 22 46 42 77 10 165 10 36 16 31 24 26 93 98 17 10 32 16 31 364 183 73 25 50 14 21 10 51 82 40 31 25 122 36 10 10
internal_value=0 0.0264917 -0.0217738 0.0510473 -0.0258811 0.0400597 0.0127253 -0.0112057 0.0435367 0.00363165 0.0342743 0.046944 0.00895071 0.00200186 -0.0334194 0.0190206 -0.0295996 -0.0415548 0.0163304 0.0524208 0.0125081 -0.0304404 -0.0319938 0.0555232 0.0288263 0.00350288 0.0603262 0.0119644 0.0445355 -0.0178746 -0.0351008 0.000900398 -0.0156558 -0.0335842 0.0252313 0.0358749 0.0279219 0.0317481 -0.0187476 -0.00133549 0.0225552 0.0634468 0.129378 0.0264189 0.00877743 -0.032755 -0.0333715 -0.016322 -0.0506179 0.0667041 0.0389796 0.051468 0.0396655 -0.0266385 0.0142249 0.0196102 0.0705412 0.0157277 -0.0137759 -0.029406 0.135775 0.0726375
internal_weight=0 1403 1707 504 1606 442 899 545 101 169 134 349 765 394 1061 94 722 339 371 285 279 707 630 240 124 384 167 80 73 376 198 313 75 188 62 45 92 46 365 263 64 145 62 59 220 613 583 272 141 114 59 31 34 87 93 65 81 42 195 219 42 39
internal_count=3110 1403 1707 504 1606 442 899 545 101 169 134 349 765 394 1061 94 722 339 371 285 279 707 630 240 124 384 167 80 73 376 198 313 75 188 62 45 92 46 365 263 64 145 62 59 220 613 583 272 141 114 59 31 34 87 93 65 81 42 195 219 42 39
is_linear=0
shrinkage=0.05


Tree=6
num_leaves=63
num_cat=0
split_feature=0 1 6 7 10 12 7 0 9 1 3 10 1 1 5 6 12 12 6 4 0 11 12 9 10 0 1 11 11 0 1 0 12 3 9 1 9 3 0 0 2 6 12 6 6 11 9 3 11 1 12 6 12 4 11 9 10 7 6 3 9 12
split_gain=647.607 199.252 165.304 156.015 64.194 27.1122 26.4628 19.4228 19.0119 19.2746 16.7748 15.1834 14.435 14.3801 10.1459 9.53626 7.58195 15.9178 6.33425 6.92827 5.89746 4.319 4.29775 4.05064 3.98774 3.95915 3.43334 3.37373 3.259 3.07647 2.94978 2.67175 2.58499 2.4864 2.42229 2.31582 2.21168 1.96537 1.94057 1.75212 1.62171 1.534 1.38762 2.5936 1.36436 1.3574 1.3182 1.14477 1.11212 1.09865 1.09611 1.09911 1.08852 1.03762 0.991104 0.901511 0.828676 0.797361 0.779291 0.914123 0.773981 0.744038
threshold=8.5000000000000018 2018.5000000000002 36.70000000000001 1.8500000000000003 2.2859945758369395 1.5427016202857582 1.5000000000000002 5.5000000000000009 1.3162841949243276 2016.5000000000002 10465.000000000002 1.4312233201429023 2013.5000000000002 2013.5000000000002 75.000000000000014 37.95000000000001 2.5663791916673691 2.716995633348827 43.150000000000006 1.5000000000000002 3.5000000000000004 2.5746811550871809 4.3970180602559745 1.9110979111620221 1.4941779096860606 3.5000000000000004 2016.5000000000002 2.5435306953136165 3.8630151939822022 11.500000000000002 2018.5000000000002 3.5000000000000004 3.3330657865229409 37247.500000000007 1.5816678419459553 2018.5000000000002 2.6512919111403304 5745.0000000000009 2.5000000000000004 11.500000000000002 1.0000000180025095e-35 39.500000000000007 3.6895284590295621 35.550000000000004 35.550000000000004 2.8761102838762409 1.9201020021551329 36947.500000000007 2.9297044430775014 2016.5000000000002 2.4327175247429182 50.900000000000006 2.3188071826390662 1.0000000180025095e-35 3.6071085061659285 2.0223842235907008 1.3395067490767871 1.6500000000000001 61.550000000000004 36155.500000000007 2.7534909027632848 3.2444121670494481
decision_type=2 2 2 2 2 2 2 2 2 2 2 2 2 2 2 2 2 2 2 2 2 2 2 2 2 2 2 2 2 2 2 2 2 2 2 2 2 2 2 2 2 2 2 2 2 2 2 2 2 2 2 2 2 2 2 2 2 2 2 2 2 2
left_child=2 5 7 6 8 11 -3 60 21 52 23 -2 22 -7 33 -14 40 -18 46 24 27 50 -6 39 -20 -19 47 36 37 -13 -9 45 58 49 48 -33 38 42 -17 -8 -11 -5 43 -25 -12 -23 -16 -22 -21 -15 51 -4 -10 -41 -29 -39 -43 -49 59 -26 -1 -60
right_child=1 3 4 41 12 13 10 30 9 16 44 29 15 14 18 20 17 25 19 34 26 31 -24 28 32 -27 -28 54 -30 -31 -32 35 -34 -35 -36 -37 -38 55 -40 53 -42 56 -44 -45 -46 -47 -48 57 -50 -51 -52 -53 -54 -55 -56 -57 -58 -59 61 -61 -62 -63
leaf_value=0.059593066573143005 0.077223335294162532 0.014046246329723282 -0.022936695869322177 0.13052445207323346 -0.038672956608343821 -0.041965792381337713 0.052016921155154709 0.015594449116346928 -0.018408242159704161 -0.016177700160314206 0.019183157805515372 0.033519344433905585 0.009527355693280698 -0.0015190638768343399 0.031601951132680099 -0.036419426847335908 0.072421414606894052 0.0013525614728375028 0.037435040034745869 0.00085196820650650551 -0.022454090379703213 -0.022628569097031613 -0.056385130347574468 0.043158671141348109 0.016524029161423596 0.022651678118854764 -0.013513017412082391 -0.028932457635628767 0.066399918070861277 0.01640219620325499 0.038171362014406407 -0.0096380804347890349 0.024447723921943221 -0.0082137744453575582 -0.01222264939595176 0.016182001531124115 -0.042277653193941306 0.041442679378547169 -0.027838487954516163 0.057222967638688928 0.0049541960998127866 0.10879353473061007 0.037623971203962964 0.060050106429039164 0.034322226284579802 -0.014096828603688334 0.018907875112162381 -0.034655786125824366 0.0091159095455146787 0.0069537841810053723 -0.027751616539783999 -0.0035318487026961519 -0.032956678494811063 0.072508779633790252 -0.01592861244425876 0.026600377527730808 0.1260380040515553 -0.026328664076955693 0.0047305633193658048 0.0075676558830309664 0.074276695013046276 0.014171407499816269
leaf_weight=13.999999999999998 17 79 27 35 69 13.999999999999998 31 39 36 23 46 63 14.999999999999998 65 43 215 11.999999999999998 48 19 79 71 74 68 44 99 40 58 174 21 45 23 66 47 64 23 9.9999999999999982 102 38 95 17 14.999999999999998 19.000000000000004 21 47 22 126 39 58 84 93 101 9.9999999999999982 20 32 15.999999999999998 13.999999999999998 10.999999999999998 57 60 40 25 32
leaf_count=14 17 79 27 35 69 14 31 39 36 23 46 63 15 65 43 215 12 48 19 79 71 74 68 44 99 40 58 174 21 45 23 66 47 64 23 10 102 38 95 17 15 19 21 47 22 126 39 58 84 93 101 10 20 32 16 14 11 57 60 40 25 32
internal_value=0 0.0251671 -0.0206851 0.0514207 -0.0245871 0.0116434 0.0400627 0.0413599 -0.0117797 0.0011363 0.0462348 0.0333009 -0.0323895 0.00826365 0.00915719 -0.0299908 0.0111759 0.0184005 0.0127158 0.0105344 -0.0306915 -0.0178322 -0.0474644 0.0519195 0.0152734 0.011034 -0.0241343 -0.0333493 0.0478544 0.0263872 0.0239698 -0.014221 0.0137588 0.000100366 0.00296732 -0.0062407 -0.0358911 0.0454797 -0.0337898 0.0613199 -0.00783616 0.123413 0.0492093 0.0518828 0.0240811 -0.0172536 0.0255645 -0.0274463 0.00511069 0.00346812 -0.0250545 -0.0176921 -0.0236041 0.0672055 -0.0278374 0.0374467 0.115117 -0.0305284 0.011584 0.0139467 0.0690056 0.00801434
internal_weight=0 1403 1707 477 1606 926 412 101 608 194 333 125 998 801 787 861 138 100 565 483 846 414 137 265 297 88 244 602 185 108 62 276 278 222 186 76 412 164 310 80 38 65 112 91 68 200 82 186 163 158 138 37 56 49 190 52 30 115 231 139 39 92
internal_count=3110 1403 1707 477 1606 926 412 101 608 194 333 125 998 801 787 861 138 100 565 483 846 414 137 265 297 88 244 602 185 108 62 276 278 222 186 76 412 164 310 80 38 65 112 91 68 200 82 186 163 158 138 37 56 49 190 52 30 115 231 139 39 92
is_linear=0
shrinkage=0.05


Tree=7
num_leaves=63
num_cat=0
split_feature=0 1 6 7 10 12 7 9 3 12 3 1 8 1 3 11 5 6 4 0 12 8 9 8 0 4 1 8 11 8 1 3 10 6 0 12 3 6 6 8 0 1 6 6 10 0 11 2 8 4 3 10 7 3 6 8 7 6 2 7 10 8
split_gain=584.466 179.825 149.268 140.804 59.1734 24.4688 23.8827 18.089 17.9326 15.8274 15.1393 14.3855 14.0389 12.9781 10.3939 10.3021 9.15668 5.71666 6.25277 5.59653 5.18729 3.697 3.6557 3.39146 3.24343 3.15043 2.97433 2.73915 2.55687 2.54787 2.35153 2.20342 2.17264 2.16273 2.04274 1.95362 1.90049 1.83757 1.59161 1.48628 1.44165 1.37338 1.27447 1.23134 1.21637 1.20456 1.20129 1.55753 1.02837 1.02349 0.978032 0.963915 0.955112 0.947979 0.913082 0.829591 0.825976 0.814042 0.811834 0.787467 0.768323 0.76223
threshold=8.5000000000000018 2018.5000000000002 34.250000000000007 1.8500000000000003 2.185009817706693 1.5427016202857582 1.5000000000000002 1.325976050449502 13269.000000000002 2.5663791916673691 10465.000000000002 2014.5000000000002 3.6444903585580697 2013.5000000000002 5003.0000000000009 3.5268219061490269 75.000000000000014 43.150000000000006 1.5000000000000002 2.5000000000000004 3.6560386550423907 3.5240522052653334 1.9110979111620221 3.4927231275297381 3.5000000000000004 1.5000000000000002 2019.5000000000002 3.3200299832365689 2.5842763186145503 2.6784440226442014 2016.5000000000002 20002.500000000004 6.0895514547427423 57.650000000000013 5.5000000000000009 2.1858084712650139 5745.0000000000009 37.95000000000001 50.900000000000006 4.6911520962073121 3.5000000000000004 2017.5000000000002 61.550000000000004 35.550000000000004 0.51611680047985764 2.5000000000000004 3.1685265690261644 1.5000000000000002 2.5648121048301955 1.0000000180025095e-35 4002.0000000000005 2.9541698152764879 1.6500000000000001 4333.0000000000009 39.500000000000007 3.695238830558222 1.5000000000000002 35.550000000000004 1.5000000000000002 1.5000000000000002 3.4622455941190102 4.2197871677453724
decision_type=2 2 2 2 2 2 2 2 2 2 2 2 2 2 2 2 2 2 2 2 2 2 2 2 2 2 2 2 2 2 2 2 2 2 2 2 2 2 2 2 2 2 2 2 2 2 2 2 2 2 2 2 2 2 2 2 2 2 2 2 2 2
left_child=2 5 8 6 7 12 -3 25 34 23 22 20 29 -7 24 19 27 44 21 28 56 42 38 -9 -11 -4 36 -15 60 -2 52 61 59 41 -1 -23 46 -17 49 54 -32 -27 48 -12 -18 -43 -24 50 -19 -8 -48 -10 55 -39 -5 -21 -6 -38 -31 -22 -13 -20
right_child=1 3 4 39 11 13 10 9 51 14 43 15 -14 16 -16 37 17 18 31 30 32 35 26 -25 -26 33 -28 -29 -30 58 40 -33 -34 -35 -36 -37 57 53 -40 -41 -42 45 -44 -45 -46 -47 47 -49 -50 -51 -52 -53 -54 -55 -56 -57 -58 -59 -60 -61 -62 -63
leaf_value=0.06742012291341215 0.014552198950755033 0.013343934173831316 0.010361294787038457 0.11989955743153891 -0.038635617494583135 -0.039867501506315815 0.054361818993792811 -0.017844927412079416 0.022370323145555128 0.00039194916543136874 0.018223999861789787 -0.033698570973156761 0.075371417775750169 -0.006267493647639337 0.06564412212930619 0.0090509878719846407 0.036654536379501224 0.007916191386498718 0.0052855055293184704 -0.031551398568361713 -0.046156793030408712 0.043401088565587997 0.062768441980535342 0.011121136990065377 0.020335906121800557 -0.019866161103311339 0.065391772108919485 0.0049432264315241595 -0.027146513934259292 0.027174173455685381 -0.024483283347727963 -0.0054726800407349533 -0.061360103601501105 -0.024567379264367951 0.044379772245883943 0.020079318654130807 0.025748567829529445 -0.002839413208558279 0.049837387956424874 0.13497390747070312 -0.013903374119812774 -0.017106441353406648 0.0046470163232316414 0.032606115581637084 0.021287937904002543 -0.0092855390758277527 0.04397564750848984 0.053133060485124589 0.016780985784941319 0.069717713991800948 0.029384383161862693 0.0054584915411065929 -0.02057445589039061 -0.018722213769242876 0.10696130800247193 -0.024267444038201896 -0.027142115585781914 0.039504623726794599 0.038700036027214751 -0.037077429169608704 -0.039837515887929435 0.019653432546183468
leaf_weight=37 37 79 10.999999999999998 30 22 13.999999999999998 17 64 36 36 46 213 15.999999999999998 96 9.9999999999999982 14.999999999999998 15.999999999999998 54 120 103 104 9.9999999999999982 10.999999999999998 11.999999999999998 47 95 17 126 154 50 57 56 21 72 12.999999999999998 88 14.999999999999998 17 33 9.9999999999999982 74 85 62 22 66 117 49 40 83 30 14.999999999999998 10.999999999999998 45 21 25 63 54 38 22 31 67 9.9999999999999982
leaf_count=37 37 79 11 30 22 14 17 64 36 36 46 213 16 96 10 15 16 54 120 103 104 10 11 12 47 95 17 126 154 50 57 56 21 72 13 88 15 17 33 10 74 85 62 22 66 117 49 40 83 30 15 11 45 21 25 63 54 38 22 31 67 10
internal_value=0 0.0239088 -0.0196509 0.0488497 -0.02328 0.0110612 0.0380596 -0.00995428 0.0405862 0.00365513 0.043923 -0.0301753 0.0316359 0.00785047 0.0174875 -0.0270953 0.00869933 0.01208 0.0100077 -0.028552 -0.0411807 0.0145098 0.0493235 -0.0132713 0.0116855 -0.0160069 0.0454617 9.53475e-05 -0.0323214 0.025216 -0.0237687 0.00281895 -0.0463992 -0.0167929 0.0614296 0.0224591 0.043445 -0.00576739 0.058254 0.117242 -0.0185068 -0.0149082 0.010595 0.022877 0.0242863 -0.0125765 0.0470552 0.0453932 0.0132868 0.0641635 0.0405558 0.0184122 -0.0270355 -0.0116168 0.114019 -0.028787 -0.0304692 0.0356114 0.030696 -0.0440719 -0.0351675 0.00639073
internal_weight=0 1403 1707 477 1610 926 412 549 97 169 333 1061 125 801 93 829 787 565 483 776 232 297 265 76 83 380 185 222 434 109 342 186 156 369 50 98 168 53 80 65 131 297 199 68 82 202 115 104 137 47 64 47 211 38 55 166 76 53 72 135 280 130
internal_count=3110 1403 1707 477 1610 926 412 549 97 169 333 1061 125 801 93 829 787 565 483 776 232 297 265 76 83 380 185 222 434 109 342 186 156 369 50 98 168 53 80 65 131 297 199 68 82 202 115 104 137 47 64 47 211 38 55 166 76 53 72 135 280 130
is_linear=0
shrinkage=0.05


Tree=8
num_leaves=63
num_cat=0
split_feature=0 1 6 7 10 12 7 3 3 10 3 1 8 3 11 6 11 2 0 0 12 10 8 5 1 11 6 0 11 4 6 1 0 11 3 6 10 7 11 11 11 0 0 6 1 10 8 10 2 12 7 6 4 12 12 0 10 8 7 12 8 8
split_gain=527.48 162.292 134.714 127.213 53.404 22.0831 21.8569 16.1842 13.8981 13.7073 13.9862 12.9829 12.865 11.8306 9.29767 7.71856 7.2494 6.58908 6.31879 5.05086 4.72212 4.39746 3.25566 3.13404 2.91186 2.73544 2.56369 2.68153 2.30757 2.21182 3.21634 2.12225 1.84357 1.72843 1.68773 1.65841 1.55233 1.53622 1.41969 1.36951 1.36071 1.30109 1.29331 1.35264 1.25106 1.20868 1.16094 1.14351 1.11135 1.03056 1.24681 1.02078 1.01759 0.986226 0.882239 0.879687 0.869933 0.86271 0.861989 0.859922 1.22785 1.11616
threshold=8.5000000000000018 2018.5000000000002 34.250000000000007 2.1000000000000005 2.185009817706693 1.5427016202857582 1.5000000000000002 13269.000000000002 10465.000000000002 1.1995161982874774 32510.000000000004 2014.5000000000002 3.7056611160924486 67288.500000000015 3.5268219061490269 43.150000000000006 3.4579330995336348 1.0000000180025095e-35 6.5000000000000009 2.5000000000000004 4.3970180602559745 2.9254219449112799 3.0358921506449388 250.00000000000003 2019.5000000000002 2.773624173593356 35.550000000000004 11.500000000000002 2.5842763186145503 1.5000000000000002 61.550000000000004 2016.5000000000002 5.5000000000000009 3.7686456616254151 20002.500000000004 37.95000000000001 0.53756674749548949 1.6500000000000001 2.4676860525127693 2.6634388529865789 3.444140836599598 3.5000000000000004 2.5000000000000004 49.150000000000013 2011.5000000000002 1.698948100727095 4.6911520962073121 0.51611680047985764 1.5000000000000002 2.8146565901480392 1.5000000000000002 50.900000000000006 1.5000000000000002 3.1050574350582969 3.4639645373227386 11.500000000000002 2.9541698152764879 3.4664262042916989 1.6500000000000001 3.6895284590295621 4.7306655883812088 4.5993515467520094
decision_type=2 2 2 2 2 2 2 2 2 2 2 2 2 2 2 2 2 2 2 2 2 2 2 2 2 2 2 2 2 2 2 2 2 2 2 2 2 2 2 2 2 2 2 2 2 2 2 2 2 2 2 2 2 2 2 2 2 2 2 2 2 2
left_child=2 5 7 6 9 12 -3 32 24 18 16 20 22 15 19 47 25 39 49 28 37 29 55 -15 26 45 33 59 -13 30 38 58 -1 -8 -31 -16 -29 -6 -19 -17 -26 -33 -27 53 -22 51 -5 -7 -10 50 -4 -11 -47 -44 -18 -2 -9 -24 -21 60 61 -28
right_child=1 3 4 46 11 13 8 56 48 10 -12 14 -14 23 35 17 54 21 -20 31 44 -23 57 -25 40 42 27 36 -30 34 -32 41 -34 -35 -36 -37 -38 -39 -40 -41 -42 -43 43 -45 -46 52 -48 -49 -50 -51 -52 -53 -54 -55 -56 -57 -58 -59 -60 -61 -62 -63
leaf_value=0.064049116663030689 0.02492478126338844 0.012676737363497385 0.0063159032560446684 0.10965111930415315 -0.037744005569597575 0.034821808943524955 0.02733792046020771 0.021251807589497834 0.018774235913796084 -0.017888202011585235 0.045854365266859536 -0.033409155899924894 0.084450351297855386 -0.011473436246160415 0.0085984387807548062 0.013340297059732534 -0.0048514137975871566 0.011778537449931884 -0.0093873206784741755 -0.02734765614641 -0.055717547644268388 -0.0027260540750188135 0.031030910800803793 -0.049373737238347537 0.044039032701402907 -0.016546386940958533 0.046990894173320974 0.041244438383728266 -0.025789188017899339 0.0060711941405987516 0.0044544263806704796 -0.023259119506467852 0.042160782791101019 0.044069451725844186 -0.004514948824499646 -0.011035912581964543 0.058772471845149998 -0.027111387072966016 0.022654054183116619 0.024760882904132208 0.065525496112448831 -0.013208205304486124 -0.015802177043838635 0.0028102442055292754 -0.043560720525555693 -0.0074627263979478321 0.12822521209716797 0.019965333555249827 0.035541615759332977 0.032140450392450608 0.024954788190753838 -0.0040024633415871201 -0.023211000447994786 -0.0044221775944937366 0.0079986793899853876 0.013425857717028032 0.0051855670076540929 0.045843476269926346 -0.019545732819371754 0.033751496537165214 0.05964048504829407 0.032148590723150655
leaf_weight=37 29 79 17 53 82 15.999999999999998 29 36 56 50 9.9999999999999982 280 9.9999999999999982 12.000000000000002 14.999999999999998 63 22 83 27 166 33 150 33 9.9999999999999982 9.9999999999999982 74 38 15.999999999999998 154 130 124 57 12.999999999999998 33 53 38 60 58 47 45 28 74 45 23 59 10.999999999999998 9.9999999999999982 68 11.999999999999998 13.999999999999998 19 18 152 33 34 39 10.999999999999998 13.999999999999998 45 22 11.999999999999998 19
leaf_count=37 29 79 17 53 82 16 29 36 56 50 10 280 10 12 15 63 22 83 27 166 33 150 33 10 10 74 38 16 154 130 124 57 13 33 53 38 60 58 47 45 28 74 45 23 59 11 10 68 12 14 19 18 152 33 34 39 11 14 45 22 12 19
internal_value=0 0.0227133 -0.0186683 0.0464072 -0.022116 0.0105082 0.0363345 0.0385568 0.0419135 -0.00945657 -0.0126476 -0.0286665 0.0300541 0.00745795 -0.0257406 0.00847912 -0.0139139 0.00674884 0.0101042 -0.0271244 -0.0391217 0.00466058 0.025324 -0.0287008 0.047053 -0.01624 0.044926 0.0481494 -0.0307053 0.00719604 0.0102154 -0.0225803 0.0583581 0.0362434 0.00300526 -0.00547902 0.0550824 -0.0333391 0.0157105 0.0180989 0.0598712 -0.0175815 -0.0115247 -0.00784549 -0.0479213 -0.0198122 0.112599 0.0227951 0.0217332 0.0206296 0.0161531 -0.0142126 -0.0221482 -0.0109876 0.00295043 0.0183298 0.0174916 0.0354432 -0.0256837 0.0423593 0.0451038 0.0420435
internal_weight=0 1403 1707 477 1610 926 414 97 335 549 472 1061 125 801 829 779 462 695 77 776 232 587 115 22 267 406 229 167 434 437 254 342 50 62 183 53 76 140 130 108 38 131 175 101 92 231 63 84 68 50 36 68 163 78 56 68 47 47 211 91 69 57
internal_count=3110 1403 1707 477 1610 926 414 97 335 549 472 1061 125 801 829 779 462 695 77 776 232 587 115 22 267 406 229 167 434 437 254 342 50 62 183 53 76 140 130 108 38 131 175 101 92 231 63 84 68 50 36 68 163 78 56 68 47 47 211 91 69 57
is_linear=0
shrinkage=0.05


Tree=9
num_leaves=63
num_cat=0
split_feature=0 1 6 7 10 12 7 9 3 12 3 1 8 1 12 11 5 0 6 4 10 12 1 8 8 9 11 9 4 6 8 8 6 9 11 0 3 3 6 10 9 6 12 6 8 0 6 4 7 3 11 3 3 6 8 0 10 8 9 10 12 7
split_gain=476.051 146.468 121.58 114.81 48.1971 19.93 19.7259 14.822 14.6063 13.4846 12.5431 11.7554 11.6107 10.8182 9.77108 8.06153 7.49781 5.02442 4.68645 5.12121 3.22054 3.1874 3.10953 2.93825 2.93823 2.85064 2.74546 2.72986 2.62086 2.52837 2.32716 2.16302 2.12324 1.98829 1.83201 1.66382 1.46681 1.327 1.315 1.30079 1.08985 1.05657 2.31744 1.05593 1.04775 0.994493 0.991428 0.912258 0.910198 0.876374 0.872759 0.8525 0.825393 0.801934 0.877774 0.793917 0.785115 0.778596 0.704322 0.690582 0.672631 0.65591
threshold=8.5000000000000018 2018.5000000000002 34.250000000000007 2.1000000000000005 2.185009817706693 1.5427016202857582 1.5000000000000002 1.325976050449502 13269.000000000002 2.5663791916673691 10465.000000000002 2013.5000000000002 3.7056611160924486 2013.5000000000002 2.7003303793126201 3.4823358811722618 75.000000000000014 3.5000000000000004 43.150000000000006 1.5000000000000002 1.3083227335321077 4.3970180602559745 2015.5000000000002 3.4927231275297381 3.0358921506449388 1.9110979111620221 3.8630151939822022 2.4114434345363835 1.5000000000000002 45.800000000000004 3.3200299832365689 3.7123698822572275 37.95000000000001 1.5816678419459553 2.7280307896647944 5.5000000000000009 7010.5000000000009 6036.0000000000009 50.900000000000006 1.698948100727095 1.9469863780678798 35.550000000000004 3.6895284590295621 35.550000000000004 4.6911520962073121 2.5000000000000004 50.900000000000006 1.0000000180025095e-35 1.6500000000000001 26009.500000000004 2.9547737897956492 34716.000000000007 421.50000000000006 61.550000000000004 2.5648121048301955 11.500000000000002 2.9541698152764879 3.4664262042916989 2.1021169450528583 1.7979204275497924 3.1853305372326211 1.5000000000000002
decision_type=2 2 2 2 2 2 2 2 2 2 2 2 2 2 2 2 2 2 2 2 2 2 2 2 2 2 2 2 2 2 2 2 2 2 2 2 2 2 2 2 2 2 2 2 2 2 2 2 2 2 2 2 2 2 2 2 2 2 2 2 2 2
left_child=2 5 8 6 7 12 -3 28 35 23 25 21 24 -7 -11 17 30 27 40 20 -20 -6 48 61 55 38 37 49 -4 -16 -15 53 -17 50 39 -1 -34 41 47 46 -18 58 -43 -12 -5 59 -30 -8 -19 -13 -21 -24 -31 54 -22 -2 -10 -26 -27 -36 -47 -9
right_child=1 3 4 44 11 13 10 9 56 14 43 15 -14 16 29 32 18 22 19 33 31 -23 51 -25 57 26 -28 -29 34 52 -32 -33 36 -35 45 -37 -38 -39 -40 -41 -42 42 -44 -45 -46 60 -48 -49 -50 -51 -52 -53 -54 -55 -56 -57 -58 -59 -60 -61 -62 -63
leaf_value=0.060846660427145066 0.023678541999181797 0.012042900533791149 0.0095875283195213847 0.1041685644185768 -0.033330134345569473 -0.036481557906206163 0.048716933937633738 -0.024052850836887959 0.020189216339753735 0.062794803222641346 0.016337637125473956 -0.025286342391738072 0.080227834284305577 -0.0057904806998218799 0.021219557320529766 0.0081685167675216996 0.026349353439246232 -0.030001674182173133 0.04101039618253708 0.0010593864734916166 0.0070991577571947826 -0.048583638711887249 -0.012156671256474082 0.010416259383782746 0.029479365141102765 0.025729149580001831 0.057912745394489984 -0.034050931671603779 -0.017401073913316471 0.01368961169251374 0.0045428068349359649 0.020247966241367977 -0.0030963320817266192 -0.011224972482001327 -0.0074620552733540542 0.040052745204705462 -0.020325798291402561 0.032108357672890026 0.044948831923080218 -0.021887329940573644 0.014382006336624424 0.051830163446007937 0.031977648217053643 0.029656021703373305 0.12181395292282104 -0.011954918830245638 -0.0033497601551444908 0.063214419583479564 -0.021241668482812552 -0.030252953429543785 0.0083934459876266031 -0.020863998149122515 -0.0006180981170877608 0.0058882331812261639 0.0152146405556464 0.012754564820669402 0.0049262886306016967 0.043551302807671687 0.039766332187822891 -0.017980565466511417 -0.0038158769847624094 -0.013132392373782668
leaf_weight=37 29 79 10.999999999999998 53 69 13.999999999999998 17 20 36 9.9999999999999982 46 301 9.9999999999999982 96 33 14.999999999999998 52 69 9.9999999999999982 87 54 68 85 11.999999999999998 33 11.999999999999998 22 183 37 13.999999999999998 126 64 21 23 20 12.999999999999998 30 48 33 118 30 49 21 22 9.9999999999999982 60 19 30 52 126 76 42 36 82 87 39 10.999999999999998 13.999999999999998 35 71 44 44
leaf_count=37 29 79 11 53 69 14 17 20 36 10 46 301 10 96 33 15 52 69 10 87 54 68 85 12 33 12 22 183 37 14 126 64 21 23 20 13 30 48 33 118 30 49 21 22 10 60 19 30 52 126 76 42 36 82 87 39 11 14 35 71 44 44
internal_value=0 0.0215777 -0.0177349 0.0440868 -0.0210102 0.00998277 0.0345177 -0.00898374 0.036629 0.00333556 0.0398178 -0.0272332 0.0285514 0.00708505 0.0161032 -0.0252066 0.00786006 -0.0265019 0.0109192 0.00904292 0.0131173 -0.0409012 -0.0205012 -0.012288 0.0240578 0.0447004 0.0413212 -0.0289416 -0.0144626 0.0104777 7.43582e-05 0.0121454 -0.00836771 0.00253707 -0.0151795 0.0554402 -0.0132313 0.039109 0.0525991 -0.0189091 0.0219711 0.041981 0.0458744 0.0206465 0.106969 -0.0118516 -0.0126337 0.0579706 -0.026237 -0.0267519 0.00447895 -0.0150363 0.00338806 0.00982002 0.0121066 0.0174133 0.016617 0.033671 0.0361824 -0.0156688 -0.00851148 -0.016545
internal_weight=0 1403 1707 477 1610 926 414 549 97 169 335 1061 125 801 93 924 787 858 565 483 297 137 248 76 115 267 187 610 380 83 222 287 66 186 369 50 51 165 80 174 82 117 70 68 63 195 56 47 121 427 163 127 50 223 141 68 47 47 47 91 104 64
internal_count=3110 1403 1707 477 1610 926 414 549 97 169 335 1061 125 801 93 924 787 858 565 483 297 137 248 76 115 267 187 610 380 83 222 287 66 186 369 50 51 165 80 174 82 117 70 68 63 195 56 47 121 427 163 127 50 223 141 68 47 47 47 91 104 64
is_linear=0
shrinkage=0.05


Tree=10
num_leaves=63
num_cat=0
split_feature=0 1 6 7 10 12 7 9 3 1 3 1 10 10 3 11 6 2 11 0 12 9 9 5 4 11 0 11 2 1 6 0 10 6 0 0 6 10 10 6 3 6 9 5 10 11 6 11 6 6 4 0 3 11 10 12 3 3 10 1 7 9
split_gain=429.636 132.188 109.726 103.66 43.4979 17.9868 17.5444 13.3784 13.1821 12.3828 11.1182 10.7001 10.4262 10.1334 9.98075 7.59944 6.35292 5.49595 4.9774 4.17909 4.03358 3.70283 2.71157 2.60688 2.38465 2.19706 2.17556 2.09131 1.88193 1.81371 1.75182 1.69866 1.69105 1.604 1.5016 1.38347 1.2665 1.24337 1.24292 1.23511 1.20288 1.18679 1.04517 1.03905 1.04538 1.03201 0.952976 0.920479 0.901901 0.834188 0.823313 0.810566 0.769381 0.737397 0.708566 0.697001 1.37906 0.689854 0.684682 0.66155 0.659027 0.651631
threshold=8.5000000000000018 2018.5000000000002 34.250000000000007 1.8500000000000003 2.185009817706693 1.5427016202857582 1.5000000000000002 1.3162841949243276 13269.000000000002 2016.5000000000002 10465.000000000002 2014.5000000000002 1.4312233201429023 2.1500141818476703 67288.500000000015 3.5554340322352558 43.150000000000006 1.0000000180025095e-35 3.21640947418916 2.5000000000000004 3.6560386550423907 2.6253727563290492 1.9110979111620221 250.00000000000003 1.5000000000000002 3.7686456616254151 11.500000000000002 2.6553872856785481 1.5000000000000002 2015.5000000000002 35.550000000000004 3.5000000000000004 6.0895514547427423 57.650000000000013 5.5000000000000009 3.5000000000000004 35.550000000000004 0.8532090691696318 4.3760308595080906 39.500000000000007 23860.000000000004 50.900000000000006 1.9469863780678798 155.00000000000003 2.0557964321840188 2.5592690889813015 35.550000000000004 2.7888524736150768 57.650000000000013 44.45000000000001 1.0000000180025095e-35 2.5000000000000004 34716.000000000007 3.2293418099069817 2.9541698152764879 3.6895284590295621 6386.5000000000009 1270.0000000000002 3.4622455941190102 2016.5000000000002 1.5000000000000002 1.6725442889004365
decision_type=2 2 2 2 2 2 2 2 2 2 2 2 2 2 2 2 2 2 2 2 2 2 2 2 2 2 2 2 2 2 2 2 2 2 2 2 2 2 2 2 2 2 2 2 2 2 2 2 2 2 2 2 2 2 2 2 2 2 2 2 2 2
left_child=2 5 8 6 7 12 -3 24 34 61 22 20 -2 18 16 19 42 40 -11 27 60 28 41 -16 -4 30 59 58 43 -21 -24 -20 -22 45 -1 -31 57 -33 -17 -5 47 50 -7 44 53 -26 -12 -18 -30 -39 -8 -47 -37 -19 -10 56 -32 -27 -13 -14 -6 -9
right_child=1 3 4 39 11 14 10 9 54 13 46 15 26 -15 23 38 17 21 31 29 32 -23 25 -25 33 36 -28 -29 48 35 55 37 -34 -35 -36 52 -38 49 -40 -41 -42 -43 -44 -45 -46 51 -48 -49 -50 -51 -52 -53 -54 -55 -56 -57 -58 -59 -60 -61 -62 -63
leaf_value=0.057804326511718129 0.063520834551138036 0.011440755613442936 0.0091081520034508277 0.10694588456835066 -0.033212161267345601 0.025031885347114161 0.046281087661490722 -0.026957562648587757 0.019179756308181417 -0.012238403782248497 0.01552075546072877 -0.028731747113523033 0.021663833666077284 0.056785522989759397 -0.010769129222414143 0.00067008650577109717 0.016396296586630481 0.0069590461568188175 0.0020171641937590072 -0.02562566301828131 -0.037911613186200462 -0.0042191854247792893 0.024407370902340991 -0.045335288196802138 -0.017936241691311201 0.036776882000267512 0.012997957083862276 -0.022577316432759384 0.010176874136499165 -0.021982401243790431 0.04719859269949106 0.0057845465838909154 -0.053163874716985797 -0.021206594393071203 0.038050106855539174 -0.011548837874468199 0.057913213140434697 0.030491198273375632 -0.017367015438727464 0.093120283881823224 0.0085098012436488225 0.04270138927932942 0.013547000361722895 -0.0055625544344366064 0.0022813111105529468 -0.014671257626946255 0.028173219785094263 0.0285625889220021 0.02319467728957534 0.016179561668208668 0.060053698420524597 -0.0085067850342020399 -0.019820798197317691 0.020900651384145024 0.0046799742219842634 0.030378765754756478 0.033627716658843891 0.049831940639106669 -0.034472635877666191 0.031975019978625438 -0.022945715804342872 -0.014675852856426329
leaf_weight=37 17 79 10.999999999999998 35 22 52 17 18 36 27 46 231 28 10.999999999999998 12.000000000000002 36 53 184 28 109 135 107 29 9.9999999999999982 75 25 45 138 79 108 39 18 21 72 12.999999999999998 85 18 15.999999999999998 12.999999999999998 30 33 33 32 24 167 93 22 22 15.999999999999998 28 30 125 42 9.9999999999999982 10.999999999999998 21 36 17 67 35 54 27
leaf_count=37 17 79 11 35 22 52 17 18 36 27 46 231 28 11 12 36 53 184 28 109 135 107 29 10 75 25 45 138 79 108 39 18 21 72 13 85 18 16 13 30 33 33 32 24 167 93 22 22 16 28 30 125 42 10 11 21 36 17 67 35 54 27
internal_value=0 0.0204988 -0.0168481 0.0418825 -0.0199597 0.00948363 0.0326244 -0.00853455 0.0347976 0.00297231 0.0376499 -0.0258715 0.0271238 0.0109039 0.0067308 -0.0232152 0.00766874 0.00609898 0.00659019 -0.0244151 -0.0353631 0.0041918 0.0422779 -0.026481 -0.0138289 0.038952 0.0213946 -0.027666 0.00606674 -0.0202948 0.0351769 0.0122388 -0.0399648 -0.0145202 0.0526682 -0.0178222 0.0468167 0.016855 -0.00411527 0.100565 0.0164649 0.0499692 0.0206567 0.00451155 0.0051813 -0.0128771 0.0196142 0.0199651 0.0123693 0.0213838 0.0550721 -0.0111366 -0.0142844 0.00767769 0.0157862 0.0384302 0.0406846 0.0420611 -0.0300225 0.0273923 -0.0259176 -0.0195885
internal_weight=0 1403 1707 477 1610 926 412 549 97 173 333 1061 125 128 801 829 779 695 117 780 232 587 265 22 376 185 108 436 480 344 125 90 156 365 50 235 60 62 49 65 108 80 84 385 361 293 68 75 95 44 47 218 127 194 47 96 75 42 298 63 76 45
internal_count=3110 1403 1707 477 1610 926 412 549 97 173 333 1061 125 128 801 829 779 695 117 780 232 587 265 22 376 185 108 436 480 344 125 90 156 365 50 235 60 62 49 65 108 80 84 385 361 293 68 75 95 44 47 218 127 194 47 96 75 42 298 63 76 45
is_linear=0
shrinkage=0.05


Tree=11
num_leaves=63
num_cat=0
split_feature=0 1 6 7 10 12 7 3 11 3 3 8 3 1 10 6 6 2 4 9 12 4 8 10 9 11 11 9 3 2 9 10 0 2 12 2 3 0 0 7 1 9 8 2 12 11 1 6 1 11 0 7 3 9 11 10 6 4 11 11 10 0
split_gain=387.746 119.299 99.0273 93.6485 39.2858 16.2331 16.057 12.2819 13.4728 11.8969 10.2073 9.71616 9.00762 8.91108 6.82826 5.96433 5.73351 4.96009 3.5492 3.35912 2.65249 2.56689 2.46402 2.38642 2.32816 2.26568 2.15858 1.97711 1.96721 1.82343 1.77913 1.41511 1.3552 1.28544 1.69994 1.18215 1.0856 1.07612 0.984762 0.976198 1.06289 0.954323 0.950752 0.904315 0.83844 0.830732 0.801144 0.800357 0.754663 0.747333 0.967029 0.963439 0.73816 0.735245 0.72992 0.718892 0.689418 0.685903 0.67686 0.643405 0.639481 0.636102
threshold=8.5000000000000018 2018.5000000000002 34.250000000000007 2.1000000000000005 2.2883077734822987 1.5427016202857582 1.5000000000000002 32744.000000000004 3.1685265690261644 13269.000000000002 10465.000000000002 3.7056611160924486 67288.500000000015 2013.5000000000002 1.3322307094846788 41.850000000000009 43.150000000000006 1.0000000180025095e-35 1.5000000000000002 2.6512919111403304 4.3970180602559745 1.5000000000000002 3.0358921506449388 5.7506768993570505 1.9110979111620221 3.8630151939822022 2.5218893793065482 2.3575343509434172 36947.500000000007 1.5000000000000002 1.3162841949243276 0.8532090691696318 5.5000000000000009 1.5000000000000002 2.5142587995974313 1.0000000180025095e-35 23860.000000000004 11.500000000000002 3.5000000000000004 1.8500000000000003 2016.5000000000002 1.9201020021551329 4.6911520962073121 1.5000000000000002 3.5860159859121175 2.7888524736150768 2017.5000000000002 57.650000000000013 2017.5000000000002 3.0222657955949814 2.5000000000000004 1.1500000000000001 22.000000000000004 1.5816678419459553 4.0489109438851161 1.941677237669847 37.95000000000001 1.0000000180025095e-35 2.8761102838762409 3.5783712034582176 2.9541698152764879 11.500000000000002
decision_type=2 2 2 2 2 2 2 2 2 2 2 2 2 2 2 2 2 2 2 2 2 2 2 2 2 2 2 2 2 2 2 2 2 2 2 2 2 2 2 2 2 2 2 2 2 2 2 2 2 2 2 2 2 2 2 2 2 2 2 2 2 2
left_child=2 5 9 6 7 11 59 8 21 32 24 22 16 20 31 48 41 36 28 29 -6 46 61 -14 37 33 55 49 -17 39 44 -10 -1 34 -26 -32 45 -8 -28 40 -19 56 -5 -12 -16 -18 -4 -31 -15 50 -20 -52 -35 -33 -29 -23 -7 -39 -42 -3 -11 -2
right_child=1 3 4 42 13 12 10 -9 14 60 43 -13 23 15 30 18 17 19 27 -21 -22 26 -24 -25 25 -27 38 54 -30 47 35 53 -34 52 -36 -37 -38 57 -40 -41 58 -43 -44 -45 -46 -47 -48 -49 -50 -51 51 -53 -54 -55 -56 -57 -58 -59 -60 -61 -62 -63
leaf_value=0.05491411170443973 0.021180310610938689 0.0089590756222605716 -0.0082509676333178145 0.09391282976798293 -0.03010853322735731 0.033939804722155846 0.040179971797812374 0.045810206737369297 0.0054953195465107761 0.018220768372217814 0.015964345364565296 0.073040399551391605 -0.010124123907492804 -0.0076174150432714001 -0.0042034011104583949 -0.012847899821566878 0.015576481747326777 -0.0026881031633820386 -0.025971584228703576 -0.0046254407756006052 -0.044023363555178927 -0.016991766125956587 0.030460298853985809 -0.04319638223387301 0.020493508751193684 0.052350840582088991 -0.016084287931481679 -0.030382515555795506 -0.022811761902610087 0.009784764353826178 -0.014451273903250695 0.017807327210903164 0.036147601673236267 0.053337865255095741 0.035470086287500133 0.0032532261737452991 0.0080843112812462176 0.043967032695517827 -0.0097201462170341986 0.015521833828339974 0.0031428763308613606 0.014166021984774711 0.11072159886360169 0.031089497481783232 -0.014440835159685878 0.027134459846737707 0.010831910608844324 0.022034943522885445 0.010513656338055927 -0.016451040131505581 -0.012385764824492593 -0.023216360865475297 0.038712595552206047 0.034279740005731585 -0.01715995821763169 -0.024538382792320009 0.020428958079167482 0.056394995097070938 0.008061290955966683 0.021530886180698872 0.0044459755638275641 0.011402165868844932
leaf_weight=37 29 67 11.000000000000002 53 69 13.999999999999998 31 9.9999999999999982 18 36 56 9.9999999999999982 12.000000000000002 11 36 93 53 57 274 95 68 53 47 9.9999999999999982 24 22 155 204 106 80 10.999999999999998 21.000000000000004 12.999999999999998 10.999999999999998 90 66 33 17 100 18 218 41 9.9999999999999982 11.999999999999998 45 22 10.999999999999998 15.999999999999998 12 32 28 77 40 9.9999999999999982 10.999999999999998 78 29 32 103 11.999999999999998 10.999999999999998 39
leaf_count=37 29 67 11 53 69 14 31 10 18 36 56 10 12 11 36 93 53 57 274 95 68 53 47 10 24 22 155 204 106 80 11 21 13 11 90 66 33 17 100 18 218 41 10 12 45 22 11 16 12 32 28 77 40 10 11 78 29 32 103 12 11 39
internal_value=0 0.0194738 -0.0160057 0.0397884 -0.0189617 0.00900945 0.031146 -0.00915662 -0.0100504 0.0330577 0.0359278 0.0257676 0.00639426 -0.0251833 0.000339401 -0.0232717 0.0072853 0.00579403 -0.0239719 0.00398221 -0.0370152 -0.0153217 0.0216569 -0.025157 0.0403324 0.0372786 -0.0162685 -0.0258209 -0.0181553 0.00564425 -0.00471779 0.0166463 0.0500348 0.0352689 0.0323171 0.000724012 0.0156416 0.0474707 -0.0135885 0.00414553 0.0036038 0.0196239 0.0965809 0.0186335 -0.00989086 0.0189668 0.00129047 0.0118265 0.00184227 -0.0237886 -0.0244081 -0.0203282 0.0418671 0.023121 -0.029706 -0.0214852 0.0248278 0.0520833 0.00472106 0.0108687 0.0149969 0.0155723
internal_weight=0 1403 1707 477 1610 926 414 625 615 97 335 125 801 985 207 848 779 695 825 587 137 408 115 22 267 187 386 626 199 492 158 49 50 165 114 77 108 80 255 396 378 84 63 68 81 75 22 96 23 411 379 105 51 31 215 131 43 49 321 79 47 68
internal_count=3110 1403 1707 477 1610 926 414 625 615 97 335 125 801 985 207 848 779 695 825 587 137 408 115 22 267 187 386 626 199 492 158 49 50 165 114 77 108 80 255 396 378 84 63 68 81 75 22 96 23 411 379 105 51 31 215 131 43 49 321 79 47 68
is_linear=0
shrinkage=0.05


Tree=12
num_leaves=63
num_cat=0
split_feature=0 1 6 7 10 12 7 3 3 10 3 1 8 1 11 5 11 0 0 6 4 12 10 8 1 11 8 8 8 6 0 1 11 10 0 6 6 0 11 11 10 6 6 0 6 8 10 3 4 11 12 10 10 12 7 10 10 8 4 6 2 8
split_gain=349.941 107.668 89.3721 84.5178 35.595 14.6504 14.4914 10.7393 10.3704 10.3224 9.21876 8.80067 8.76883 8.28236 6.23618 5.46344 4.65229 4.62418 3.63364 3.48454 4.11862 3.38257 2.79721 2.22378 2.02773 1.88571 1.81471 1.63588 1.59061 1.58549 2.10103 1.56161 1.53322 1.42609 1.29582 1.25923 1.23885 1.11559 1.06141 1.03061 0.926115 0.995232 0.871945 0.863397 1.10209 0.858053 0.850637 0.812406 0.747608 0.747335 0.712322 0.701891 0.699431 0.681148 0.876376 0.667055 0.662167 0.651794 0.635573 0.621405 0.619699 0.615164
threshold=8.5000000000000018 2018.5000000000002 34.250000000000007 2.1000000000000005 2.185009817706693 1.5427016202857582 1.5000000000000002 13027.500000000002 32510.000000000004 1.1995161982874774 10070.000000000002 2014.5000000000002 3.7056611160924486 2013.5000000000002 3.4823358811722618 75.000000000000014 3.444140836599598 6.5000000000000009 2.5000000000000004 43.150000000000006 1.5000000000000002 3.6560386550423907 1.3083227335321077 3.0358921506449388 2019.5000000000002 2.773624173593356 3.3200299832365689 3.5911981829285824 2.5648121048301955 35.550000000000004 11.500000000000002 2015.5000000000002 2.5746811550871809 6.0895514547427423 5.5000000000000009 37.95000000000001 35.550000000000004 3.5000000000000004 3.7487741881655317 3.444140836599598 1.6352447930471754 50.900000000000006 61.550000000000004 2.5000000000000004 49.150000000000013 4.6911520962073121 0.51611680047985764 13027.500000000002 1.5000000000000002 2.9057749623650868 3.1050574350582969 0.53756674749548949 2.4441081236504751 2.8146565901480392 1.5000000000000002 2.0655983960476081 3.7909029430477612 2.5956522261836232 1.5000000000000002 35.100000000000001 1.5000000000000002 4.2197871677453724
decision_type=2 2 2 2 2 2 2 2 2 2 2 2 2 2 2 2 2 2 2 2 2 2 2 2 2 2 2 2 2 2 2 2 2 2 2 2 2 2 2 2 2 2 2 2 2 2 2 2 2 2 2 2 2 2 2 2 2 2 2 2 2 2
left_child=2 5 7 6 8 12 -3 34 9 17 24 21 23 -7 18 26 25 53 32 46 22 -6 -21 -2 29 40 -15 42 -22 38 -31 -20 -13 -23 -1 -16 -12 -33 -8 -26 41 -11 57 -27 50 -5 -17 -37 -41 -46 -45 -32 -9 54 -4 61 -39 -24 -42 -40 -25 -30
right_child=1 3 4 45 11 13 10 52 -10 16 36 14 -14 15 35 19 -18 -19 31 20 28 33 27 60 39 43 -28 -29 55 30 51 37 -34 -35 -36 47 -38 56 59 48 58 -43 -44 44 49 -47 -48 -49 -50 -51 -52 -53 -54 -55 -56 -57 -58 -59 -60 -61 -62 -63
leaf_value=0.052757177584701109 0.014793644147678553 0.010325281838650661 0.005451918338589809 0.089217189910276884 -0.023319755337740247 -0.032045567820646929 0.021076672744344584 0.02636107452213764 0.042773432135581969 -0.014653492136858404 0.013650908975049537 -0.027428174690766766 0.069388379305601128 -0.0050723952606858804 0.0074426514469087129 0.029236880881944673 0.0016740089985818241 -0.008339658907304209 -0.023312391765977977 0.037395325899124143 -0.013159863441251219 -0.034298037047739385 0.0063153129357877858 0.024414053803374029 0.035445571169257166 -0.013520745453360964 0.0040525326683622095 0.016619453756020794 0.0037200533907333225 0.034094172972254456 0.035444294022662297 -0.019737659708631259 -0.021222601401118132 -0.048304512387230283 0.034340221721392415 -0.0031137137673795225 0.027089807860277315 -0.010598182693913417 0.038517973520632451 0.062315148115158071 -0.0066304732114076618 0.00010140637556711834 0.0036223887090039045 -0.013273194319465095 -0.0053928573926289858 0.10518551647663117 0.016386465942416568 -0.017085134598279469 0.045974930961217193 0.012649971551515841 -0.0034233828826296716 0.047877445171276733 0.011499279079419611 0.026696825453213287 0.021078541580783695 -0.0043947084190828411 -0.018678488241774698 0.013313150429734733 -0.019063049180812804 0.024063887614756824 0.036224710279040867 0.016569139827042816
leaf_weight=36 68 79 17 53 76 13.999999999999998 22 9.9999999999999982 9.9999999999999982 48 47 275 9.9999999999999982 96 14.999999999999998 15.999999999999998 59 27 106 9.9999999999999982 15.999999999999998 135 56 29 9.9999999999999982 73 126 79 136 88 13.999999999999998 108 156 21 12.999999999999998 23 27 92 29 14 10.999999999999998 14.999999999999998 70 45 12.000000000000002 9.9999999999999982 66 19 14 10.999999999999998 31 60 38 13.999999999999998 19 24 35 82 157 9.9999999999999982 18 9.9999999999999982
leaf_count=36 68 79 17 53 76 14 22 10 10 48 47 275 10 96 15 16 59 27 106 10 16 135 56 29 10 73 126 79 136 88 14 108 156 21 13 23 27 92 29 14 11 15 70 45 12 10 66 19 14 11 31 60 38 14 19 24 35 82 157 10 18 10
internal_value=0 0.0185002 -0.0152055 0.0377989 -0.0180136 0.00855898 0.0295887 0.0314048 -0.00767836 -0.00861438 0.0341314 -0.0233615 0.0244792 0.00607454 -0.0209525 0.00675266 -0.0114392 0.00833454 -0.0221309 0.00936403 0.00774613 -0.0319695 0.0114 0.0205741 0.038548 -0.013359 0.000106618 0.0104942 0.00191176 0.0367287 0.0393158 -0.0182744 -0.0251821 -0.0361835 0.047871 -0.00499286 0.0185543 -0.0160019 0.0298581 0.0492241 -0.0163103 -0.0111404 0.0081678 -0.00939534 -0.00635337 0.0917518 0.0188939 -0.00943412 0.054145 0.00323632 -0.00925551 0.0455252 0.0145955 0.0173386 0.0136993 0.00333027 -0.012825 0.0104734 -0.018249 0.0348118 0.0289373 0.00460013
internal_weight=0 1403 1707 477 1610 926 414 97 549 539 335 1061 125 801 829 787 462 77 772 565 483 232 297 115 261 403 222 287 186 223 162 341 431 156 49 57 74 235 61 38 231 63 208 172 99 63 82 42 28 23 76 74 48 50 36 170 127 138 168 39 47 146
internal_count=3110 1403 1707 477 1610 926 414 97 549 539 335 1061 125 801 829 787 462 77 772 565 483 232 297 115 261 403 222 287 186 223 162 341 431 156 49 57 74 235 61 38 231 63 208 172 99 63 82 42 28 23 76 74 48 50 36 170 127 138 168 39 47 146
is_linear=0
shrinkage=0.05


Tree=13
num_leaves=63
num_cat=0
split_feature=0 1 6 7 10 12 7 3 3 10 3 1 8 3 11 6 11 0 2 0 1 5 12 1 1 10 11 8 6 6 12 2 8 4 6 3 10 11 3 7 0 6 10 6 10 7 2 11 8 4 11 12 10 6 12 7 2 3 11 12 4 12
split_gain=315.822 97.1701 80.6584 76.3333 32.1244 13.222 12.8869 9.69592 9.35931 9.31599 8.17944 8.0534 7.98688 7.60938 5.428 4.66322 4.20843 4.17332 4.04698 3.40753 2.5992 2.31645 2.20144 2.06493 1.96451 1.92001 1.754 1.64236 1.47212 1.46719 1.55992 1.18523 1.18398 1.10463 1.07098 1.00519 0.969745 0.930122 0.913108 0.89513 0.855304 1.26524 0.823277 0.885493 0.788628 0.771483 0.769575 0.701734 0.683219 0.674716 0.655103 0.641561 0.639914 0.621187 0.614736 0.790929 0.610978 0.608263 0.580673 0.576466 0.560927 0.573389
threshold=8.5000000000000018 2018.5000000000002 34.250000000000007 1.8500000000000003 2.185009817706693 1.5427016202857582 1.5000000000000002 13269.000000000002 32510.000000000004 1.1995161982874774 10465.000000000002 2013.5000000000002 3.6444903585580697 62987.000000000007 3.4823358811722618 43.150000000000006 3.4579330995336348 6.5000000000000009 1.0000000180025095e-35 3.5000000000000004 2016.5000000000002 250.00000000000003 4.3970180602559745 2015.5000000000002 2019.5000000000002 3.4622455941190102 2.8227472818361528 2.6784440226442014 37.95000000000001 35.550000000000004 3.5860159859121175 1.5000000000000002 4.3788529843940838 1.5000000000000002 39.500000000000007 7010.5000000000009 0.50318045183094118 3.444140836599598 23860.000000000004 1.8500000000000003 2.5000000000000004 49.150000000000013 1.6352447930471754 50.900000000000006 0.51611680047985764 1.6500000000000001 1.5000000000000002 2.7888524736150768 3.6706681777668351 1.5000000000000002 3.2822657546760143 3.1050574350582969 0.81388863331846295 62.250000000000007 2.8146565901480392 1.5000000000000002 1.5000000000000002 34716.000000000007 3.5783712034582176 3.3781749325865147 1.5000000000000002 3.2075095559917215
decision_type=2 2 2 2 2 2 2 2 2 2 2 2 2 2 2 2 2 2 2 2 2 2 2 2 2 2 2 2 2 2 2 2 2 2 2 2 2 2 2 2 2 2 2 2 2 2 2 2 2 2 2 2 2 2 2 2 2 2 2 2 2 2
left_child=2 5 7 6 8 12 58 33 9 17 24 22 27 15 19 44 26 54 38 25 39 -15 -6 45 29 48 42 -2 -16 32 36 50 -8 -1 -5 -30 -31 -26 47 56 -28 51 43 -11 -7 -21 -12 -17 -13 -39 52 -42 -22 -27 55 -4 -20 -25 -3 -18 -44 -62
right_child=1 3 4 34 11 13 10 -9 -10 16 46 14 -14 21 28 18 59 -19 20 23 31 -23 -24 57 37 53 40 -29 35 30 -32 -33 -34 -35 -36 -37 -38 49 -40 -41 41 -43 60 -45 -46 -47 -48 -49 -50 -51 -52 -53 -54 -55 -56 -57 -58 -59 -60 -61 61 -63
leaf_value=0.032623211007851823 0.009851370857575455 0.0079948577758814417 0.0051793224233038287 0.092207966872624003 -0.027214371072857277 0.027775036417006051 0.016680397224776888 0.013529778979322378 0.040634756609797484 -0.013723532833597242 0.014339594606177085 -0.024179152962594219 0.056243324838578704 -0.0090372596227098253 0.0070705187941590949 0.014135122572880169 -0.0082785841035233308 -0.0079226760693860265 -0.0042999473145231611 -0.024777249689551369 0.010086605467490461 -0.039713948587886988 -0.039891017096884113 -0.0097514203793424015 0.033673292547464373 -0.029608673545898814 -0.012779967539327246 0.02281270643385748 -0.0023585191573060695 0.026351610503413461 0.030161058970458857 0.011005263280821964 0.032168810839454332 0.049566217048748119 0.079333695967992154 -0.016621434070790808 0.042008396200075446 0.059199391731194088 0.0072705654561463183 0.0086278967995895069 -0.012624284191193378 0.006016995659784267 -0.0066957258590264251 9.6336019535859428e-05 0.015437419059932889 -0.016712339756150659 0.028292521772285303 0.024757892463821918 -0.020329368124501063 0.043676183479172841 0.016383214963769373 -0.0032582480022965961 0.0031916059844265539 -0.017241625623269516 0.025361984755311696 0.020024614232151131 0.0070893124068299165 -0.0171064319532542 0.019938077808668218 0.0044901671228257728 -0.018797621541346114 -0.008217100240290166
leaf_weight=12.999999999999998 37 67 17 35 69 15.999999999999998 17 47 9.9999999999999982 51 56 207 15.999999999999998 16.000000000000004 14.999999999999998 53 10.999999999999998 27 125 69 38 9.9999999999999982 68 85 9.9999999999999982 132 71 72 21 10.999999999999998 56 84 45 37 30 30 98 14 33 18 41 19 11.999999999999998 14.999999999999998 68 52 11.999999999999998 22 260 14 10.999999999999998 33 294 10.999999999999998 13.999999999999998 19 12.999999999999998 42 11.999999999999998 45 150 13.999999999999998
leaf_count=13 37 67 17 35 69 16 17 47 10 51 56 207 16 16 15 53 11 27 125 69 38 10 68 85 10 132 71 72 21 11 56 84 45 37 30 30 98 14 33 18 41 19 12 15 68 52 12 22 260 14 11 33 294 11 14 19 13 42 12 45 150 14
internal_value=0 0.0175751 -0.0144452 0.035909 -0.017113 0.00813103 0.0279643 0.0298346 -0.00729444 -0.00818366 0.0322714 -0.0221934 0.0232553 0.00577082 -0.0205161 0.00666343 -0.0108672 0.00791781 0.00531116 -0.0215789 0.00366424 -0.020836 -0.0335064 -0.0166371 0.036241 -0.0235881 -0.0126396 0.018413 -0.0066987 0.0344796 0.0369437 0.00568216 0.027922 0.045161 0.086266 -0.0107485 0.0404284 0.0467629 0.0142015 -0.00185917 -0.00864739 -0.00549242 -0.015345 -0.0105827 0.0177874 -0.0213113 0.0168019 0.0172511 -0.0220358 0.0514378 0.00437854 -0.00844754 0.00398079 -0.0286574 0.0164717 0.0130143 -0.00322705 -0.0121838 0.00980902 0.00198202 -0.0171309 -0.0178944
internal_weight=0 1403 1707 477 1610 926 412 97 549 539 333 1061 125 801 924 775 462 77 691 858 583 26 137 248 265 610 406 109 66 227 165 427 62 50 65 51 109 38 108 156 164 93 242 66 84 121 68 75 467 28 343 74 332 143 50 36 138 127 79 56 176 164
internal_count=3110 1403 1707 477 1610 926 412 97 549 539 333 1061 125 801 924 775 462 77 691 858 583 26 137 248 265 610 406 109 66 227 165 427 62 50 65 51 109 38 108 156 164 93 242 66 84 121 68 75 467 28 343 74 332 143 50 36 138 127 79 56 176 164
is_linear=0
shrinkage=0.05


Tree=14
num_leaves=63
num_cat=0
split_feature=0 1 6 7 10 12 7 9 1 10 3 3 8 1 1 9 11 11 6 0 6 8 12 1 9 11 0 9 9 0 6 10 12 0 0 4 13 3 10 3 8 10 6 1 8 11 6 6 3 7 3 6 8 8 0 10 9 12 6 9 9 12
split_gain=285.029 87.696 72.7942 68.9362 28.9923 11.9646 11.7963 9.04498 9.56046 9.01623 8.77117 7.62198 7.4679 7.3322 7.2682 5.13042 4.89877 3.82534 3.14663 3.07529 2.43531 2.07153 1.9868 1.8636 1.78642 1.78317 1.64593 1.64166 1.7091 1.61935 1.32859 1.31737 1.31178 1.16475 1.05897 1.00679 2.14779 0.96755 0.937132 0.907181 0.890262 0.889179 0.875753 0.872397 0.778739 0.735855 0.733411 0.982173 0.72126 0.696263 0.689796 0.655334 0.628585 0.624782 0.622626 0.615228 0.592015 0.573416 0.569924 0.560386 0.768761 0.750123
threshold=8.5000000000000018 2018.5000000000002 34.250000000000007 2.1000000000000005 2.185009817706693 1.5915575141550351 1.5000000000000002 1.325976050449502 2016.5000000000002 2.1500141818476703 13027.500000000002 6907.5000000000009 3.7056611160924486 2016.5000000000002 2013.5000000000002 5.5481752099399628 3.4823358811722618 3.21640947418916 43.850000000000009 3.5000000000000004 35.550000000000004 2.9593593766348332 4.3970180602559745 2015.5000000000002 2.6512919111403304 2.6481143809141567 9.5000000000000018 2.0147341311040585 2.1947357413553452 3.5000000000000004 37.95000000000001 1.941677237669847 2.6363064553445672 3.5000000000000004 5.5000000000000009 1.5000000000000002 1.5000000000000002 3515.5000000000005 1.698948100727095 7010.5000000000009 2.6334167846965379 0.8532090691696318 50.900000000000006 2018.5000000000002 4.6911520962073121 3.1595609880904436 35.550000000000004 37.95000000000001 23860.000000000004 1.6500000000000001 19248.000000000004 61.550000000000004 2.9300337987598217 3.4664262042916989 2.5000000000000004 2.4441081236504751 3.2356455529465236 0.96140993837230804 57.650000000000013 1.5422087102768283 1.9469863780678798 3.5998754831618061
decision_type=2 2 2 2 2 2 2 2 2 2 2 2 2 2 2 2 2 2 2 2 2 2 2 2 2 2 2 2 2 2 2 2 2 2 2 2 2 2 2 2 2 2 2 2 2 2 2 2 2 2 2 2 2 2 2 2 2 2 2 2 2 2
left_child=2 5 10 6 7 12 -3 25 -9 17 34 27 21 15 22 32 19 -10 46 24 -13 57 -6 49 50 38 48 45 37 -27 -18 35 40 -19 -1 36 51 -29 42 -32 -7 -35 -4 -31 -5 -8 -15 -48 -20 -21 -16 58 -34 -23 -52 -12 -25 -2 -28 -22 -61 -62
right_child=1 3 4 44 14 13 11 8 9 -11 55 20 -14 18 16 -17 30 33 26 23 59 53 -24 56 -26 29 31 28 -30 43 39 -33 52 41 -36 -37 -38 -39 -40 -41 -42 -43 -44 -45 -46 -47 47 -49 -50 -51 54 -53 -54 -55 -56 -57 -58 -59 -60 60 61 -63
leaf_value=0.047641007602214819 0.017784368683798953 0.009318566867599817 -0.014543915589650472 0.080425278420718227 -0.025853652982176213 -0.00019639465957880023 0.031898683557907745 -0.017350624800680885 -0.010862880107015372 0.052979346330870286 0.024186350181698801 0.012981244390593255 0.063106794655323026 0.011526078183669597 -0.019384395464190417 -0.037728251740336421 0.0067169928438185408 0.0018191643121938867 0.015977318557570615 -0.023538387005311856 0.035679954985777536 0.022103105187416081 -0.037896466583890079 -0.0096346960065905787 -0.028411856235809697 -0.010708821163185545 0.0099014287886934147 0.033925120992774983 0.046362735703587538 -0.0040751886833459141 -0.0022405931770446757 0.0029491740932501543 -0.0090233979763330099 0.0051272777167873252 0.030992049953112236 0.0049749561940438539 0.032863696190443908 0.023903586941997748 -0.018313900686123156 -0.015790362223051489 0.01142811057756522 0.018363343982762376 0.00025265066108355925 0.011824398166076704 0.09563770294189454 0.044102086946368219 0.035318754342469304 0.017928274777988275 0.0066613355937137856 -0.015876722796551456 -0.024802634244163832 0.0038438596271754993 -0.0015167981485768884 0.034197659471205309 -0.019443312196526678 0.010247826539470178 -0.017582033334239838 0.0081982559261795807 0.021452817853007997 0.015939266278463253 0.035395509861409664 0.021326070871307619
leaf_weight=36 26 79 30 53 69 40 14.999999999999998 44 27 10.999999999999998 9.9999999999999982 54 9.9999999999999982 24 259 9.9999999999999982 14.999999999999998 26 63 69 14.999999999999998 45 68 96 103 185 45 69 20 40 21 224 42 18 12.999999999999998 102 10.999999999999998 37 99 30 28 43 14.999999999999998 10.999999999999998 9.9999999999999982 70 10.999999999999998 31 31 52 168 33 83 13.999999999999998 80 38 31 39 13.999999999999998 17 20 18
leaf_count=36 26 79 30 53 69 40 15 44 27 11 10 54 10 24 259 10 15 26 63 69 15 45 68 96 103 185 45 69 20 40 21 224 42 18 13 102 11 37 99 30 28 43 15 11 10 70 11 31 31 52 168 33 83 14 80 38 31 39 14 17 20 18
internal_value=0 0.0166964 -0.0137229 0.0341136 -0.0162573 0.00772448 0.0266987 -0.00692972 0.00269385 0.0097495 0.0283428 0.0307973 0.0215418 0.0053867 -0.0210838 -0.00280802 -0.0194903 0.0055782 0.00821102 -0.0205 0.0209591 0.0181898 -0.0318311 -0.0158053 -0.0224087 -0.0112097 0.00691278 0.0365789 0.0329565 -0.0085342 -0.00636376 0.0055998 -0.000998682 0.0106806 0.0432239 0.00849608 0.011983 0.030427 -0.0155945 -0.010211 0.00459017 0.0144576 -0.00961173 -0.000645866 0.0828399 0.0419485 0.0184986 0.0224829 0.012905 -0.0202458 -0.0211891 0.00948643 -0.00403902 0.024973 -0.0230738 0.0131517 -0.0115746 0.0120327 0.0126424 0.0271135 0.0247772 0.028731
internal_weight=0 1403 1707 477 1610 926 414 549 169 125 97 335 134 792 1061 203 924 114 589 858 124 124 137 248 610 380 523 211 126 236 66 429 193 87 49 205 103 106 144 51 68 61 45 51 63 85 66 42 94 121 507 92 125 59 248 48 127 65 59 70 55 38
internal_count=3110 1403 1707 477 1610 926 414 549 169 125 97 335 134 792 1061 203 924 114 589 858 124 124 137 248 610 380 523 211 126 236 66 429 193 87 49 205 103 106 144 51 68 61 45 51 63 85 66 42 94 121 507 92 125 59 248 48 127 65 59 70 55 38
is_linear=0
shrinkage=0.05


Tree=15
num_leaves=63
num_cat=0
split_feature=0 1 6 7 10 7 3 3 10 11 3 3 1 11 1 0 11 1 7 10 0 6 2 7 9 1 6 10 2 11 3 6 9 0 10 9 7 11 10 6 11 0 6 10 11 10 3 0 7 10 10 11 11 11 13 3 11 10 11 9 9 3
split_gain=257.239 79.1457 65.6967 62.2149 26.1656 10.6462 8.49098 7.91598 7.73258 7.56117 11.813 6.87884 6.55955 4.42146 3.81511 3.49945 3.45142 2.99089 2.8826 3.83318 2.68192 2.19787 2.08314 1.80054 1.73147 1.68685 1.5334 2.05174 1.5323 1.2741 1.1635 1.05966 1.01661 0.955721 0.952833 0.942088 0.922649 0.798474 0.795846 0.961009 0.746436 0.734047 0.716625 0.655995 0.654162 0.647571 0.624804 0.621087 0.604512 0.587642 0.57473 0.562297 0.598799 0.556404 0.636433 0.538461 0.524058 0.508083 0.901423 0.505748 0.693807 0.693366
threshold=8.5000000000000018 2018.5000000000002 34.250000000000007 2.1000000000000005 2.185009817706693 1.5000000000000002 32510.000000000004 13027.500000000002 1.1995161982874774 3.2498694627650937 68452.500000000015 6907.5000000000009 2013.5000000000002 3.5554340322352558 2016.5000000000002 6.5000000000000009 2.8666219315307635 2016.5000000000002 2.1000000000000005 1.4312233201429023 3.5000000000000004 35.550000000000004 1.0000000180025095e-35 1.5000000000000002 2.4114434345363835 2015.5000000000002 35.550000000000004 2.8899867123117766 1.5000000000000002 3.4579330995336348 35668.000000000007 37.95000000000001 2.1587655548536344 5.5000000000000009 1.4312233201429023 1.5816678419459553 1.8500000000000003 2.9971389631819325 1.6352447930471754 50.900000000000006 3.7901196061177949 3.5000000000000004 39.500000000000007 2.0337679567850331 2.4432810214073473 0.87083977198586227 4333.0000000000009 2.5000000000000004 1.6500000000000001 6.0895514547427423 2.9541698152764879 3.4579330995336348 3.3849310350721544 2.7380277971067044 2.5000000000000004 34716.000000000007 3.5783712034582176 0.73838303888694834 3.1595609880904436 1.5422087102768283 1.9469863780678798 9631.5000000000018
decision_type=2 2 2 2 2 2 2 2 2 2 2 2 2 2 2 2 2 2 2 2 2 2 2 2 2 2 2 2 2 2 2 2 2 2 2 2 2 2 2 2 2 2 2 2 2 2 2 2 2 2 2 2 2 2 2 2 2 2 2 2 2 2
left_child=2 9 7 5 6 56 8 33 15 14 17 26 23 20 36 35 38 30 51 -20 24 -13 34 49 37 48 32 40 45 41 -11 -15 -7 -1 -16 -4 53 47 39 -10 57 -18 -5 -31 -30 -24 -33 -14 -22 -6 -9 52 -19 54 -2 -27 -3 -28 -59 -23 -61 -62
right_child=1 3 4 42 12 11 -8 50 16 10 -12 21 13 31 22 -17 29 18 19 -21 25 59 28 -25 -26 55 27 -29 44 43 -32 46 -34 -35 -36 -37 -38 -39 -40 -41 -42 -43 -44 -45 -46 -47 -48 -49 -50 -51 -52 -53 -54 -55 -56 -57 -58 58 -60 60 61 -63
leaf_value=0.045258956568108667 0.0066504773169167742 0.0071291865082457667 0.011427135354815385 0.08346764649663653 -0.032842800085959231 0.022892577062688164 0.039068474024534228 0.01547726226618161 -0.012545774122348653 0.017199351937174364 -0.023848720234544839 0.01233218205641067 -0.021331055037524194 0.0063811432818571727 0.028006011247634889 -0.0072660968397502551 -0.0089828460937453891 0.016847776929185224 0.057427246410113125 0.025505435203804688 -0.022210602714142332 0.033895957171916964 0.0096083091840975816 -0.023023274449526138 -0.025223849826567887 -0.0087073162181631608 0.034198604069831898 0.023442108565094797 0.0073201515380508057 0.0049357718382126254 0.0043695772252976897 -0.00091873021796345716 0.035793772194749461 0.029442448111680838 0.011780017227130502 0.02799521034414118 0.0091283722418463893 -0.013432077135966751 -0.015487028981835857 0.0011164136778782396 0.050875809895140789 0.0005519811141615113 0.072735831247908736 -0.0068337173639413194 0.015603775886649435 0.0031923111696857799 -0.013646107918962284 -0.016580270039331584 -0.015153665925850567 -0.043762124776840217 0.0024598325602710248 0.011233211506069415 0.029673734466944424 -0.011985652288421989 -0.0032097913922448013 -0.015627459135083926 0.018475245622297128 0.030303748572866124 0.04410517108959279 0.015142302828676561 0.022136052253578481 0.036137517568256172
leaf_weight=36 19 67 39 35 69 37 9.9999999999999982 37 53 43 17 54 292 14.999999999999998 9.9999999999999982 27 127 26 12.999999999999998 34 71 14.999999999999998 45 53 185 85 41 22 52 39 30 14.999999999999998 26 12.999999999999998 95 10.999999999999998 18 49 185 17 13.999999999999998 24 28 17 44 312 27 90 53 14.999999999999998 10.999999999999998 21 13.999999999999998 14.999999999999998 118 42 11.999999999999998 14.999999999999998 56 17 24 13.999999999999998
leaf_count=36 19 67 39 35 69 37 10 37 53 43 17 54 292 15 10 27 127 26 13 34 71 15 45 53 185 85 41 22 52 39 30 15 26 13 95 11 18 49 185 17 14 24 28 17 44 312 27 90 53 15 11 21 14 15 118 42 12 15 56 17 24 14
internal_value=0 0.0158616 -0.0130368 0.0324079 -0.0154445 0.0253637 -0.00658323 0.0269257 -0.0074302 0.00733825 0.0160017 0.0292574 -0.0200296 -0.0185158 0.00498198 0.00723923 -0.00987511 0.0197446 0.0250288 0.0343349 -0.0194026 0.0199112 0.00697984 -0.0302396 -0.0211777 -0.0150461 0.03475 0.0375309 0.00550903 -0.00507851 0.0119268 -0.00502647 0.0282169 0.0410627 0.0133253 0.0150721 -0.00157571 -0.019441 -0.0137688 -0.00922781 0.0399909 -0.00746738 0.078698 0.00136289 0.0111168 0.00400105 -0.00910062 -0.0202118 -0.0191943 -0.0347927 0.0124941 0.0178586 0.0213369 -0.0028433 -0.00184231 -0.0109959 0.00885264 0.0386303 0.0411894 0.0257578 0.0235384 0.0272945
internal_weight=0 1403 1707 477 1610 414 549 97 539 926 198 335 1061 924 728 77 462 181 108 47 867 124 558 137 616 251 211 148 453 207 73 57 63 49 105 50 170 431 255 70 126 151 63 56 96 357 42 382 124 84 48 61 40 152 137 127 79 112 71 70 55 38
internal_count=3110 1403 1707 477 1610 414 549 97 539 926 198 335 1061 924 728 77 462 181 108 47 867 124 558 137 616 251 211 148 453 207 73 57 63 49 105 50 170 431 255 70 126 151 63 56 96 357 42 382 124 84 48 61 40 152 137 127 79 112 71 70 55 38
is_linear=0
shrinkage=0.05


Tree=16
num_leaves=63
num_cat=0
split_feature=0 1 6 7 10 12 7 3 3 10 3 8 3 1 1 11 6 0 11 0 12 6 0 8 9 11 12 4 6 11 1 10 3 12 6 6 9 0 9 6 11 10 6 0 6 6 11 10 3 3 3 7 12 0 8 6 6 9 8 8 8 7
split_gain=232.158 71.429 59.2913 56.1578 23.6144 9.84308 9.46965 7.66311 7.14417 6.97865 6.18187 6.16944 6.0501 5.99163 4.25227 4.22381 3.2668 3.15825 3.11491 2.72936 2.4477 1.98357 1.93239 1.72082 1.43184 1.24612 1.17627 1.41839 1.86766 1.14987 1.09664 1.0484 1.02927 0.943046 0.927857 0.894485 0.863151 0.862538 0.850234 0.746234 0.734693 0.718251 0.86731 0.662477 0.643263 0.77408 0.598894 0.592036 0.560749 0.557231 0.550988 0.525754 0.515008 0.511663 0.502593 0.501192 0.491982 0.490208 0.485856 0.471543 0.469167 0.466073
threshold=8.5000000000000018 2018.5000000000002 34.250000000000007 1.8500000000000003 2.185009817706693 1.5915575141550351 1.5000000000000002 32510.000000000004 13027.500000000002 1.1995161982874774 35901.000000000007 3.7056611160924486 6907.5000000000009 2014.5000000000002 2013.5000000000002 3.2684410129326631 43.850000000000009 6.5000000000000009 2.8666219315307635 2.5000000000000004 3.6560386550423907 35.550000000000004 9.5000000000000018 2.9593593766348332 2.0147341311040585 3.7686456616254151 2.443590532498892 1.5000000000000002 53.800000000000004 3.4579330995336348 2016.5000000000002 6.0895514547427423 11160.500000000002 3.348161604884909 35.550000000000004 37.95000000000001 2.863201249140372 5.5000000000000009 1.5816678419459553 61.550000000000004 3.3014926410855225 1.6352447930471754 50.900000000000006 3.5000000000000004 35.550000000000004 36.70000000000001 3.1595609880904436 2.0337679567850331 2253.0000000000005 21363.500000000004 16611.000000000004 1.6500000000000001 3.469872380043372 3.5000000000000004 3.4664262042916989 57.650000000000013 47.500000000000007 2.4527408101966919 2.2378819500344957 4.6714496294374284 3.6706681777668351 1.5000000000000002
decision_type=2 2 2 2 2 2 2 2 2 2 2 2 2 2 2 2 2 2 2 2 2 2 2 2 2 2 2 2 2 2 2 2 2 2 2 2 2 2 2 2 2 2 2 2 2 2 2 2 2 2 2 2 2 2 2 2 2 2 2 2 2 2
left_child=2 5 8 6 7 11 52 9 37 17 16 23 24 20 -12 19 44 38 41 32 61 -14 -18 58 46 -26 27 28 -24 43 51 -22 -15 -16 48 -17 -5 59 -4 55 -28 42 -11 -20 -7 -46 -8 -31 -27 -10 -37 60 -3 -32 -25 -30 -48 -34 -2 -1 -21 -6
right_child=1 3 4 36 13 10 12 -9 49 18 14 -13 21 15 33 35 22 -19 29 30 31 -23 26 54 25 34 40 -29 39 47 53 -33 57 -35 -36 50 -38 -39 -40 -41 -42 -43 -44 -45 45 -47 56 -49 -50 -51 -52 -53 -54 -55 -56 -57 -58 -59 -60 -61 -62 -63
leaf_value=0.039447116851806643 0.0017607093555852772 0.00388357536933784 0.010855778769995923 0.066193876836610877 -0.02490714341402054 0.010499132415482207 0.028788561647137008 0.037115051820874212 0.022371078431606295 -0.011918485239433688 -0.031392386892380629 0.05728299088776112 0.011715573319061487 -0.016828288082495209 0.0022475361548116211 0.0060620859265327455 0.012799109135743321 -0.0069027920667496002 -0.0085337037075765617 -0.020507499183883372 -0.028098733667974121 0.02446995057564761 0.03061839506030083 0.020065604388299917 0.024731311988029067 0.027643935394007713 0.0014867911734290028 0.0015585673369059806 0.0084801868524260107 0.0046889831854526002 -0.014696829772979154 -0.040108075666995278 -0.02135902021287216 -0.0058326372427365963 0.045023039449006319 -0.0037765676714479925 0.078243723014990496 0.027970325774871387 0.026595449616963213 0.0033733327007925543 0.015334704592823984 -0.014712677600516661 0.0010605929090696223 0.00052438206815471255 0.032309910519556569 0.017104030445583961 0.03102055902664478 -0.0064920315360870303 0.04120843626558781 0.0091057957922059448 -0.014841910927659935 -0.012183812031936315 0.012010576857507907 -0.0083938743912841431 0.030913208212171285 0.01608421376665994 0.041799707761393828 -0.026649219641145673 0.012902426429725481 0.052223127186298374 -0.015067077850672737 -0.016273471095633728
leaf_weight=26 11.999999999999998 35 39 23 22 23 14.999999999999998 9.9999999999999982 9.9999999999999982 53 12.999999999999998 9.9999999999999982 54 121 77 14.999999999999998 84 27 127 97 135 70 9.9999999999999982 45 66 32 227 80 72 39 57 21 252 68 15.999999999999998 30 42 12.999999999999998 10.999999999999998 51 9.9999999999999982 185 17 24 10.999999999999998 35 12.999999999999998 17 9.9999999999999982 38 18 45 44 74 13.999999999999998 31 57 53 53 9.9999999999999982 67 54
leaf_count=26 12 35 39 23 22 23 15 10 10 53 13 10 54 121 77 15 84 27 127 97 135 70 10 45 66 32 227 80 72 39 57 21 252 68 16 30 42 13 11 51 10 185 17 24 11 35 13 17 10 38 18 45 44 74 14 31 57 53 53 10 67 54
internal_value=0 0.0150685 -0.0123849 0.0307875 -0.0146722 0.00697134 0.0239731 -0.00625407 0.0255794 -0.00705869 0.00485093 0.0195039 0.0276653 -0.0190281 -0.00399785 -0.0170404 0.00705615 0.00687727 -0.00938135 -0.0180639 -0.0261307 0.0189156 0.00580189 0.0164572 0.0328565 0.02943 0.00457992 0.00701678 0.00967932 -0.00482459 -0.0147231 -0.0297154 -0.0207303 -0.00154179 0.0347769 -0.00459556 0.0739799 0.0390096 0.0143185 0.00831964 0.00207109 -0.0130804 -0.00876642 -0.00709401 0.0173265 0.0207402 0.037855 0.00129475 0.0308736 0.0118694 -0.00792607 -0.0169713 0.00841001 -0.0111364 0.0226396 0.0107688 0.0397979 -0.0222783 0.0108455 0.042996 -0.0182849 -0.0187727
internal_weight=0 1403 1707 477 1610 926 412 549 97 539 792 134 333 1061 158 829 634 77 462 766 232 124 565 124 209 124 481 244 164 207 340 156 426 145 58 63 65 49 50 154 237 255 70 151 69 46 85 56 42 48 48 209 79 131 59 103 70 305 65 36 164 76
internal_count=3110 1403 1707 477 1610 926 412 549 97 539 792 134 333 1061 158 829 634 77 462 766 232 124 565 124 209 124 481 244 164 207 340 156 426 145 58 63 65 49 50 154 237 255 70 151 69 46 85 56 42 48 48 209 79 131 59 103 70 305 65 36 164 76
is_linear=0
shrinkage=0.05


Tree=17
num_leaves=63
num_cat=0
split_feature=0 1 6 7 10 7 10 11 3 7 13 3 1 10 1 10 11 6 0 2 9 1 7 4 1 11 7 9 9 10 7 6 6 2 8 3 11 8 7 2 6 10 3 3 3 8 1 11 10 6 6 2 4 1 11 11 10 9 10 10 11 4
split_gain=209.523 64.4647 53.5104 50.7395 21.312 8.66664 6.97044 6.84135 6.44971 6.3633 6.92715 5.61126 5.42688 5.08943 4.29654 3.74331 3.64763 2.4589 2.27045 1.94534 1.79118 1.5946 1.53504 1.3868 1.2872 1.27129 1.25939 1.13733 1.04837 0.981843 1.10579 0.99752 0.962185 0.954692 0.990735 0.80379 0.800923 0.78128 0.777561 0.776527 0.767705 0.762982 0.754897 0.720174 0.686371 0.683179 0.633104 0.623405 0.622195 0.618963 0.717073 0.603075 0.602212 0.583931 0.540054 0.539619 0.504591 0.495598 0.487134 0.467611 0.465268 0.702552
threshold=8.5000000000000018 2018.5000000000002 34.250000000000007 2.1000000000000005 2.185009817706693 1.5000000000000002 2.166431190760632 3.1685265690261644 12420.500000000002 2.1000000000000005 1.5000000000000002 10465.000000000002 2013.5000000000002 1.4312233201429023 2016.5000000000002 1.3322307094846788 3.4823358811722618 43.850000000000009 2.5000000000000004 1.0000000180025095e-35 3.9655285249452166 2015.5000000000002 1.5000000000000002 1.5000000000000002 2019.5000000000002 2.5356786595649141 1.8500000000000003 1.9110979111620221 1.3500230192554117 1.6352447930471754 1.1500000000000001 50.900000000000006 37.95000000000001 1.5000000000000002 4.3788529843940838 29461.500000000004 3.444140836599598 2.6104128829101367 1.6500000000000001 1.5000000000000002 36.000000000000007 0.8532090691696318 23860.000000000004 3832.0000000000005 7010.5000000000009 4.6911520962073121 2017.5000000000002 2.3438244025293211 1.8902422781967669 35.550000000000004 37.95000000000001 1.5000000000000002 1.5000000000000002 2018.5000000000002 3.3014926410855225 2.7888524736150768 3.6612538483757193 1.5816678419459553 0.55364940331106294 6.0895514547427423 3.1485042682191642 1.0000000180025095e-35
decision_type=2 2 2 2 2 2 2 2 2 2 2 2 2 2 2 2 2 2 2 2 2 2 2 2 2 2 2 2 2 2 2 2 2 2 2 2 2 2 2 2 2 2 2 2 2 2 2 2 2 2 2 2 2 2 2 2 2 2 2 2 2 2
left_child=2 9 8 5 6 -3 7 23 43 14 -11 24 22 -12 20 41 18 49 25 42 26 38 59 -4 27 56 -2 60 48 31 -31 -25 -18 34 -29 -28 -26 -15 -20 54 -35 -9 55 -1 -34 -5 -30 -23 -17 -16 -51 -13 -38 -10 -21 -19 -14 -43 -42 -6 -7 -62
right_child=1 3 4 45 12 11 -8 15 53 10 13 51 16 37 17 28 32 19 21 39 -22 47 -24 29 36 -27 35 33 46 30 -32 -33 44 40 -36 -37 52 -39 -40 -41 58 57 -44 -45 -46 -47 -48 -49 -50 50 -52 -53 -54 -55 -56 -57 -58 -59 -60 -61 61 -63
