tree
version=v3
num_class=1
num_tree_per_iteration=1
label_index=0
max_feature_idx=17
objective=regression
feature_names=Column_0 Column_1 Column_2 Column_3 Column_4 Column_5 Column_6 Column_7 Column_8 Column_9 Column_10 Column_11 Column_12 Column_13 Column_14 Column_15 Column_16 Column_17
feature_infos=[0:14] [2000:2020] [0:3] [1:138000] [0:3] [0:555] [1.1000000000000001:256.80000000000001] [0:2.8999999999999999] [0:0.0014478282576135795] [0:5814.5] [2001.3:2022.2] [0:1332] [0:2020] [-0.5:255.20000000000002] [0:0.084999999999999992] [0:231.25] [2.7000000000000002:258.40000000000003] [0:410.88000000000005]
tree_sizes=5638 5682 5618 5661 5660 5593 5651 5660 5678 5708 5711 5675 5687 5625 5663 5623 5793 5765 5767 5821 5668 5656 5855 5757 5814 5808 5838 5760 5845 5730 5839 5794 5904 5958 5879 5855 5751 5879 5919 5848 5836 5898 5896 5928 5962 5883 5868 5971 5989 6005 5949 6019 6088 5996 6037 6098 6048 6094 6169 6060 6101 6045 6161 6034 6146 6062 6131 6126 6069 6181 6054 6073 6163 6200 6152 6317 6187 6285 6225 6235 6208 6169 6235 6297 6172 6185 6159 6211 6180 6236 6190 6304 6196 6281 6304 6280 6326 6211 6233 6252 6242 6325 6195 6231 6275 6292 6333 6349 6334 6206 6398 6270 6292 6381 6358 6431 6419 6363 6415 6335 6366 6314 6204 6363 6307 6440 6326 6219 6371 6383 6267 6405 6384 6458 6252 6404 6390 6414 6397 6376 6343 6256 6402 6431 6381 6192

Tree=0
num_leaves=63
num_cat=0
split_feature=10 0 10 0 10 10 0 11 3 10 9 10 10 0 14 7 0 0 7 6 0 4 10 6 1 0 6 3 6 10 9 6 4 10 3 16 3 12 3 3 5 0 7 3 10 11 10 6 3 6 1 3 14 3 1 3 6 0 3 10 3 6
split_gain=1356.7 710.673 175.34 151.812 67.6575 46.9205 37.6514 37.4899 57.3685 32.7838 29.8136 25.2821 23.6425 22.8054 13.6745 11.7707 9.73038 9.08935 7.78386 7.25385 6.97326 6.68158 6.13096 5.67594 5.31896 5.25055 4.93436 4.91908 4.90796 4.4439 3.5293 3.51865 3.9729 3.38052 3.12792 2.85555 2.80296 2.71757 2.37092 2.22088 1.88235 1.62779 1.61095 1.60496 1.48755 1.43884 1.43873 1.30149 1.28689 1.23379 1.18901 1.19595 1.12584 1.10011 1.09907 1.04512 1.0333 1.01012 0.997993 0.980772 0.995591 0.970873
threshold=2020.3000000000004 8.5000000000000018 2021.1000000000001 10.500000000000002 2018.3000000000004 2019.1000000000001 11.500000000000002 206.50000000000003 10058.500000000002 2014.8500000000001 4438.5000000000009 2015.3000000000004 2021.3000000000004 2.5000000000000004 0.055000000000000007 1.8500000000000003 8.5000000000000018 2.5000000000000004 1.8500000000000003 35.550000000000004 3.5000000000000004 1.5000000000000002 2012.3000000000004 43.150000000000006 2019.5000000000002 9.5000000000000018 44.45000000000001 6971.5000000000009 57.650000000000013 2019.3000000000004 4434.1000000000013 43.850000000000009 1.5000000000000002 2016.6500000000003 37735.500000000007 58.750000000000007 2139.5000000000005 1255.9375000000002 30866.500000000004 15397.500000000002 137.50000000000003 3.5000000000000004 1.1500000000000001 20188.000000000004 2017.1000000000001 227.50000000000003 2017.6500000000003 35.550000000000004 28311.500000000004 39.500000000000007 2017.5000000000002 8012.0000000000009 0.058333333333333341 3963.5000000000005 2016.5000000000002 2255.5000000000005 37.95000000000001 6.5000000000000009 59019.500000000007 2019.1000000000001 30236.000000000004 60.750000000000007
decision_type=2 2 2 2 2 2 2 2 2 2 2 2 2 2 2 2 2 2 2 2 2 2 2 2 2 2 2 2 2 2 2 2 2 2 2 2 2 2 2 2 2 2 2 2 2 2 2 2 2 2 2 2 2 2 2 2 2 2 2 2 2 2
left_child=1 4 7 12 11 9 24 20 15 -3 18 22 -4 28 21 16 -9 35 31 36 -2 30 -1 -15 49 -21 50 -14 -6 57 38 47 39 45 54 -13 -18 -24 -11 -33 -10 -35 -31 -28 -37 -19 -43 -7 -20 -5 -23 -52 -39 -51 -16 -22 -49 59 -40 60 -25 -41
right_child=2 5 3 6 13 10 -8 8 40 14 -12 17 27 23 34 -17 19 33 48 25 55 26 37 29 -26 -27 43 -29 -30 42 -32 32 -34 41 -36 44 -38 52 58 61 -42 46 -44 -45 -46 -47 -48 56 -50 53 51 -53 -54 -55 -56 -57 -58 -59 -60 -61 -62 -63
leaf_value=-0.082160005359636509 -0.00011060809764297118 -0.072326232972280941 0.0036530810545253403 0.17722449706910787 -0.024704147245228181 0.02800491780197039 0.098170561013085883 0.035512781142797163 0.050759942756647018 0.022021122014734384 0.093605145175823079 -0.031873216443564487 0.08620785890433183 0.013863106930640405 -0.0011804436859825882 0.099893887900231071 0.068341113445622964 -0.045712210542818994 0.064753581218767009 0.065024279441321178 0.045805350279455426 0.035848999438149967 -0.046291433069455198 -0.01420008636734198 0.20822075123968409 0.084296835271304674 0.0066873604145930255 0.048771960152801955 -0.039588364966250227 0.0025817097338172151 0.039777462556566889 0.039244546922282339 0.017305017026931737 -0.03785057627244974 -0.010073930466061282 -0.054754283591995342 0.045839099539267132 -0.059589274594817096 0.014234556502867167 0.035237361596772022 0.029117972891056124 -0.032458933770196402 -0.011947993040061276 -0.0056068526490012163 -0.046971022537214122 -0.035351430529765054 -0.020425579905866926 0.057116033551557102 0.044108668483757218 0.1703556592439246 0.030492968377931154 0.011035628310412545 -0.072665771129267184 0.1492151601289344 0.0080398067372898351 0.026617708397371806 0.037985926511350507 -0.027261146150183827 -0.0016826971063021829 -0.026397239576884307 -0.025747297065989938 0.019834650036245988
leaf_weight=32 31 11.999999999999998 17 29 80 22 20 21 10.999999999999998 180 19 26 27 15.999999999999998 58 33 25 111 13.000000000000002 57 11.000000000000002 9.9999999999999982 37 84 10.999999999999998 93 61 12.999999999999998 180 24 21 44 119 118 57 85 31 93 94 13.999999999999998 116 125 93 47 221 48 31 9.9999999999999982 18 16.000000000000004 10.999999999999998 28 20 9.9999999999999982 73 20 24 52 10.999999999999998 35 24 38
leaf_count=32 31 12 17 29 80 22 20 21 11 180 19 26 27 16 58 33 25 111 13 57 11 10 37 84 11 93 61 13 180 24 21 44 119 118 57 85 31 93 94 14 116 125 93 47 221 48 31 10 18 16 11 28 20 10 73 20 24 52 11 35 24 38
internal_value=-4.79357e-10 -0.016007 0.0681108 0.116328 -0.0372705 0.0171632 0.15827 0.0527542 0.0585371 0.00956606 0.0328544 -0.045542 0.0530482 -0.0239487 0.0110756 0.0719915 0.0679352 -0.0415572 0.0290324 0.0712404 0.0166578 0.0156933 -0.0622913 -0.0151818 0.176482 0.0769733 0.00730775 0.0740412 -0.0350086 -0.0166712 0.0199956 0.0263174 0.0234098 -0.0367849 -0.00029667 -0.0477814 0.0558846 -0.0580527 0.018538 0.0309771 0.0309925 -0.0334194 -0.00896754 0.0013371 -0.049133 -0.0425844 -0.0300677 0.0374809 0.0527662 0.170134 0.0204676 0.0165236 -0.0619037 0.162225 0.00395756 0.0334262 0.0436124 -0.0212935 0.012567 -0.0191234 -0.0167661 0.0239815
internal_weight=0 2519 592 143 1535 984 86 449 387 663 321 947 57 588 651 260 227 765 302 206 62 463 182 328 66 150 157 40 260 312 306 271 215 433 188 332 56 150 285 96 127 274 117 108 306 159 156 56 31 55 49 39 113 26 131 31 34 195 105 143 108 52
internal_count=3111 2519 592 143 1535 984 86 449 387 663 321 947 57 588 651 260 227 765 302 206 62 463 182 328 66 150 157 40 260 312 306 271 215 433 188 332 56 150 285 96 127 274 117 108 306 159 156 56 31 55 49 39 113 26 131 31 34 195 105 143 108 52
is_linear=0
shrinkage=1


Tree=1
num_leaves=63
num_cat=0
split_feature=10 0 10 0 10 10 17 10 0 10 9 10 10 0 0 6 11 3 3 0 8 10 6 8 8 3 6 6 6 0 10 2 10 16 12 3 17 2 3 3 17 17 3 6 1 3 2 11 10 11 3 3 3 6 9 8 3 11 17 6 3 5
split_gain=1224.42 641.383 158.244 137.01 61.0609 42.3457 34.4865 37.2872 33.9804 29.5874 26.9068 22.8171 21.3373 20.5818 14.6219 13.8156 11.1341 8.27814 8.22873 8.20314 7.02493 5.53319 5.12254 4.91768 4.80036 4.43947 4.42943 4.24268 5.32051 4.03381 4.01062 3.24737 3.05092 2.57713 2.4653 2.38423 2.37537 2.14049 2.11115 2.09261 1.79518 1.68772 1.52756 1.51372 1.50525 1.47477 1.53723 1.46552 1.34252 1.29855 1.1725 1.16142 1.16005 1.11349 1.08354 1.14792 1.07622 1.05575 1.04175 1.00699 0.992852 0.904865
threshold=2020.3000000000004 8.5000000000000018 2021.1000000000001 10.500000000000002 2018.3000000000004 2019.1000000000001 56.910000000000011 2020.5500000000002 11.500000000000002 2014.8500000000001 4438.5000000000009 2015.3000000000004 2021.3000000000004 2.5000000000000004 3.5000000000000004 51.850000000000001 147.50000000000003 8257.5000000000018 6659.5000000000009 2.5000000000000004 0.00099083483909794532 2012.3000000000004 43.150000000000006 0.00084304493157368726 0.0010893786258269218 6971.5000000000009 57.650000000000013 43.850000000000009 45.800000000000004 8.5000000000000018 2019.3000000000004 1.5000000000000002 2016.6500000000003 58.750000000000007 1436.0714285714289 1000.5000000000001 67.90000000000002 1.0000000180025095e-35 22252.000000000004 35933.000000000007 67.90000000000002 78.825000000000017 10529.500000000002 41.850000000000009 2016.5000000000002 6216.5000000000009 1.0000000180025095e-35 147.50000000000003 2017.1000000000001 227.50000000000003 9717.0000000000018 28311.500000000004 38540.000000000007 39.500000000000007 3426.3500000000004 0.00049590878327863952 37735.500000000007 285.25000000000006 53.800000000000004 41.850000000000009 3963.5000000000005 137.50000000000003
decision_type=2 2 2 2 2 2 2 2 2 2 2 2 2 2 2 2 2 2 2 2 2 2 2 2 2 2 2 2 2 2 2 2 2 2 2 2 2 2 2 2 2 2 2 2 2 2 2 2 2 2 2 2 2 2 2 2 2 2 2 2 2 2
left_child=1 4 6 12 11 9 14 59 24 -3 20 21 -4 26 -2 18 23 35 40 33 31 -1 -15 45 -5 41 -6 52 44 -17 58 37 49 -13 -23 -16 -20 38 -7 57 -9 -14 -31 -34 -29 -11 -47 -32 -35 -21 -39 -22 -18 -26 55 -45 -25 61 -24 -8 -55 -30
right_child=2 5 3 8 13 10 7 15 -10 16 -12 19 25 22 17 29 27 -19 36 32 51 34 30 56 53 -27 -28 28 39 42 47 -33 43 48 -36 -37 -38 50 -40 -41 -42 -43 -44 54 -46 46 -48 -49 -50 -51 -52 -53 -54 60 -56 -57 -58 -59 -60 -61 -62 -63
leaf_value=-0.078052005078643572 -0.00010507716647078915 -0.068709922581911095 0.0034704275182722249 0.1978097135370428 -0.023468938873847947 0.037854994911896561 0.023859458402642666 0.078097853752282953 0.093262035548686992 0.026711683850735427 0.088924889815481092 -0.030279554655918708 0.098196550011634798 0.01316995206361753 0.063989806952683831 0.035319794372965889 0.036833524035996407 0.024782095744944457 0.048478556119582877 -0.043426598433975699 0.061515904848392179 -0.046219207156522606 -0.0052820361981337728 -0.0011214211298120689 0.16836327766549999 0.04633336193286456 -0.037608945030305124 -0.013278551573554676 0.022251138135325164 0.063150858950047267 0.0034454634856610072 0.037604871426903927 -0.012653501145541668 -0.052016570252530717 -0.05975077076993808 0.043593436440354905 0.075436486647679268 0.024260539695238458 0.018101061100051517 0.0097258545331155456 0.091706660296767953 0.07230976960238289 0.042957066812298522 -0.022888627324415291 0.0053592022317342268 0.020483826963525072 0.0054790841470094172 -0.011136426048081679 -0.04462247149706966 -0.033583857600266741 0.015906403851081299 0.041903235018253326 0.020062667562160644 0.16183788180351255 -0.02256756166368723 -0.034638512279424404 -0.011559779519691718 0.028729233965277674 -0.021122345820312267 0.038936532501663484 0.14175439953804017 0.014707134606882553
leaf_weight=32 31 11.999999999999998 17 10.999999999999998 80 38 53 39 20 9.9999999999999982 19 26 10.000000000000002 15.999999999999998 23 21 29 57 22 111 13.000000000000002 51 10.999999999999998 58 29 12.999999999999998 180 14.999999999999998 80 63 21 43 9.9999999999999982 85 99 38 12.999999999999998 78 21 65 64 17 10.999999999999998 23 39 19 168 96 221 48 91 18 15.999999999999998 16.000000000000004 25 216 43 30 184 13.999999999999998 9.9999999999999982 79
leaf_count=32 31 12 17 11 80 38 53 39 20 10 19 26 10 16 23 21 29 57 22 111 13 51 11 58 29 13 180 15 80 63 21 43 10 85 99 38 13 78 21 65 64 17 11 23 39 19 168 96 221 48 91 18 16 16 25 216 43 30 184 14 10 79
internal_value=0 -0.0152066 0.0647052 0.110512 -0.0354069 0.016305 0.0501165 0.0598822 0.150356 0.00908775 0.0312117 -0.0432649 0.0503958 -0.0227513 0.0304539 0.0693347 0.0105218 0.0384822 0.0794366 -0.0394793 0.0275808 -0.0591768 -0.0144227 0.00340498 0.167657 0.0703391 -0.0332582 0.0165298 0.0144346 0.0546605 -0.0158377 0.0250016 -0.0349456 -0.0453923 -0.05515 0.0512839 0.0584915 0.0226246 0.0308239 0.0174646 0.0865538 0.0818975 0.0601491 -0.0317485 0.000182048 0.00800404 0.00700363 -0.00851916 -0.0466764 -0.0404552 0.0197622 0.0501279 0.0308706 0.161627 -0.0324718 -0.0335078 -0.00556547 0.0201261 -0.0202288 0.0270099 0.154113 0.0185029
internal_weight=0 2519 592 143 1535 984 449 300 86 663 321 947 57 588 149 233 651 118 138 765 302 182 328 298 66 40 260 353 308 95 312 271 433 332 150 61 35 228 59 254 103 27 74 274 54 197 187 117 306 159 169 31 45 55 264 239 101 189 195 67 26 159
internal_count=3111 2519 592 143 1535 984 449 300 86 663 321 947 57 588 149 233 651 118 138 765 302 182 328 298 66 40 260 353 308 95 312 271 433 332 150 61 35 228 59 254 103 27 74 274 54 197 187 117 306 159 169 31 45 55 264 239 101 189 195 67 26 159
is_linear=0
shrinkage=0.05


Tree=2
num_leaves=63
num_cat=0
split_feature=10 9 10 17 17 10 10 10 17 10 7 10 6 6 11 6 6 17 6 2 3 6 3 3 3 17 7 2 3 10 17 6 4 1 12 1 14 17 2 3 9 6 9 3 1 3 3 17 3 11 14 6 17 3 6 3 10 3 14 3 6 3
split_gain=1105.04 337.232 142.816 141.604 113.875 93.6009 41.8795 33.0132 31.1241 33.6517 26.0528 25.5255 24.9414 22.0554 13.7395 13.3018 12.4686 11.0722 10.5922 9.28807 8.51629 7.88683 7.42643 7.13181 6.89898 6.86634 5.6103 5.42384 4.49433 4.32608 4.02332 3.77323 3.64052 3.53378 3.43707 3.17117 2.96537 2.7932 2.64988 2.6141 2.51716 2.41075 2.33983 2.25411 2.24939 2.23598 2.22726 2.14377 2.08464 1.99479 1.82289 2.09744 1.62015 1.56423 1.50779 1.41193 1.39928 1.37862 1.28104 1.19927 1.09253 1.00589
threshold=2020.3000000000004 3226.400000000001 2021.1000000000001 56.52000000000001 85.480000000000004 2016.8500000000001 2018.8500000000001 2016.1000000000001 56.910000000000011 2020.5500000000002 1.2500000000000002 2019.8500000000001 45.20000000000001 41.850000000000009 177.50000000000003 44.45000000000001 51.850000000000001 93.500000000000014 61.550000000000004 1.0000000180025095e-35 8257.5000000000018 63.500000000000007 6659.5000000000009 62078.000000000007 6971.5000000000009 86.940000000000012 2.1000000000000005 1.5000000000000002 20188.000000000004 2012.3000000000004 71.180000000000007 41.20000000000001 1.0000000180025095e-35 2019.5000000000002 1682.0833333333337 2018.5000000000002 0.011986531986531988 59.810000000000009 1.0000000180025095e-35 7917.5000000000009 2421.0000000000005 55.95000000000001 3224.8000000000006 10684.000000000002 2012.5000000000002 2004.5000000000002 47283.000000000007 67.90000000000002 40110.500000000007 309.50000000000006 0.011787994891443171 66.500000000000014 67.90000000000002 15945.500000000002 57.050000000000004 17625.000000000004 2015.8500000000001 10529.500000000002 0.058333333333333341 19997.500000000004 43.150000000000006 24592.000000000004
decision_type=2 2 2 2 2 2 2 2 2 2 2 2 2 2 2 2 2 2 2 2 2 2 2 2 2 2 2 2 2 2 2 2 2 2 2 2 2 2 2 2 2 2 2 2 2 2 2 2 2 2 2 2 2 2 2 2 2 2 2 2 2 2
left_child=1 3 8 12 10 23 18 29 15 -10 -4 27 39 33 28 20 22 -13 25 -20 45 48 52 26 -12 31 56 43 37 -5 53 -7 -18 -6 -14 41 -27 -9 -33 -1 -39 -36 -30 -8 -25 -2 61 -24 -21 50 51 60 -11 -16 -29 -41 -3 -34 -31 -52 -45 -38
right_child=2 5 4 7 13 6 11 14 9 16 24 17 34 -15 30 -17 32 -19 19 21 -22 -23 47 44 -26 36 -28 54 42 58 -32 38 57 -35 35 -37 46 40 -40 55 -42 -43 -44 49 -46 -47 -48 -49 -50 -51 59 -53 -54 -55 -56 -57 -58 -59 -60 -61 -62 -63
leaf_value=0.02275717640453476 0.062079044878482814 -0.03535162218979427 0.0028613741509616376 -0.075360449840282576 0.1564375253433877 0.023867681880409903 0.030252238115868892 -0.019957697844844968 0.025659397099889927 0.074192962738183835 0.08594416126608849 0.11847853779792782 -0.025465193726122382 0.096099664038047206 -0.019664158077741214 0.0019693314709833694 0.033553805348596408 0.050556369523207349 0.023014556091450353 0.0037922680954501731 0.023542991280555727 -0.019722828595770587 0.04605462808500637 -0.065763611059922442 0.044016694392149266 0.024321018047442643 0.011840597651898863 0.044765949166483354 -0.042521534461874864 -0.05245211431613335 -0.0091652722967167696 -0.020578901693224908 0.05999331483765255 0.18791922981088813 0.0019913683087465221 -0.015648041884688772 0.020480260346084835 -0.036968949971426475 0.0023575163610717832 0.011375164199206565 -0.02690026246202298 -0.014757171249197377 -0.028159715331369836 0.025103054621389939 -0.04073386541728316 0.042121972516179086 -0.010290300073102117 0.071664663003041196 -0.0080630355601897467 0.03263264607549423 0.032677522940295085 -0.0035726512575315105 0.087121328525245192 -0.030389838906402667 0.028151287985118952 -0.0088488955050706874 -0.021815038633178033 0.040809213437817321 -0.066044946312904362 0.017300155811244621 0.01138532810467989 0.0097943234028133128
leaf_weight=59 25 35 15.999999999999998 29 47 12.999999999999998 52 34 67 39 40 10.000000000000002 40 15.999999999999998 55 35 21 14.999999999999998 38 163 57 58 22 12.999999999999998 12.999999999999998 99 9.9999999999999982 36 333 130 45 20 63 10.999999999999998 70 102 40 304 34 63 78 31 31 21 29 32 9.9999999999999982 12.999999999999998 48 21 21 18 64 89 22 9.9999999999999982 42 10.999999999999998 20 32 47 49
leaf_count=59 25 35 16 29 47 13 52 34 67 39 40 10 40 16 55 35 21 15 38 163 57 58 22 13 13 99 10 36 333 130 45 20 63 11 70 102 40 304 34 63 78 31 31 21 29 32 10 13 48 21 21 18 64 89 22 10 42 11 20 32 47 49
internal_value=0 -0.0144463 0.06147 -0.0292408 0.104986 0.00817621 0.0140886 -0.0379545 0.0476106 0.0568881 0.0587792 0.0293906 -0.00256524 0.148071 -0.0343102 0.0289313 0.065868 0.0777252 0.00619687 -0.000124615 0.037209 -0.00339335 0.0754647 -0.0315608 0.0756601 0.0135203 -0.0233923 0.0249152 -0.037241 -0.0576823 -0.0222151 -0.000315561 0.0519275 0.162408 -0.0120691 -0.00942944 0.0182021 -0.0336907 -0.00613745 0.0149305 -0.034913 -0.00314927 -0.0412984 0.0212085 -0.0484812 0.0508751 0.0120831 0.0555669 0.00109533 0.0182693 0.0160993 0.0116043 0.0822261 -0.0262932 0.0384638 0.00860475 -0.027968 0.0571416 -0.0542645 0.0233931 0.0156217 0.014597
internal_weight=0 2519 592 1523 143 996 867 1148 449 300 69 295 375 74 969 149 233 25 572 307 114 269 138 129 53 265 87 270 780 179 189 67 95 58 243 203 198 416 54 132 382 101 364 212 42 57 99 35 211 160 139 86 103 144 58 73 77 74 150 53 68 89
internal_count=3111 2519 592 1523 143 996 867 1148 449 300 69 295 375 74 969 149 233 25 572 307 114 269 138 129 53 265 87 270 780 179 189 67 95 58 243 203 198 416 54 132 382 101 364 212 42 57 99 35 211 160 139 86 103 144 58 73 77 74 150 53 68 89
is_linear=0
shrinkage=0.05


Tree=3
num_leaves=63
num_cat=0
split_feature=10 0 10 0 10 10 17 10 0 10 9 10 10 0 6 6 14 0 7 17 17 10 1 6 16 17 6 17 0 9 6 4 10 16 1 12 10 4 6 8 6 5 1 11 5 6 6 6 6 6 6 2 8 2 17 5 2 6 0 0 0 1
split_gain=997.302 525.403 128.891 112.959 50.2676 34.4895 28.0895 30.3707 27.77 24.1764 22.223 18.7148 17.3154 16.8277 12.0049 11.2529 10.1534 6.99013 5.76526 5.14706 5.09972 4.5437 3.83978 3.83562 3.81961 3.56995 3.52614 3.31903 3.28557 2.84458 2.77322 3.16127 2.45988 2.14561 2.07302 1.98882 1.88015 1.36507 1.30581 1.22596 1.18259 1.5138 1.16802 1.09121 1.03016 0.999028 0.916633 0.914505 0.908804 0.882806 0.871832 0.84577 0.910279 0.815732 0.789131 0.743548 0.730048 1.96155 0.645436 0.637744 0.843102 0.635483
threshold=2020.3000000000004 8.5000000000000018 2021.1000000000001 10.500000000000002 2018.3000000000004 2019.1000000000001 56.910000000000011 2020.5500000000002 11.500000000000002 2014.8500000000001 4438.5000000000009 2015.3000000000004 2021.3000000000004 2.5000000000000004 44.45000000000001 51.850000000000001 0.055000000000000007 2.5000000000000004 1.8500000000000003 67.90000000000002 86.940000000000012 2012.3000000000004 2019.5000000000002 43.150000000000006 46.350000000000001 69.88000000000001 57.650000000000013 53.800000000000004 8.5000000000000018 4434.1000000000013 43.850000000000009 1.5000000000000002 2016.6500000000003 58.750000000000007 2016.5000000000002 1436.0714285714289 2019.3000000000004 1.0000000180025095e-35 41.850000000000009 0.0007934540532458233 61.550000000000004 137.50000000000003 2016.5000000000002 227.50000000000003 147.50000000000003 35.550000000000004 37.95000000000001 43.850000000000009 41.850000000000009 78.450000000000017 39.500000000000007 1.5000000000000002 0.00049590878327863952 1.5000000000000002 73.090000000000018 147.50000000000003 1.0000000180025095e-35 61.550000000000004 3.5000000000000004 6.5000000000000009 3.5000000000000004 2018.5000000000002
decision_type=2 2 2 2 2 2 2 2 2 2 2 2 2 2 2 2 2 2 2 2 2 2 2 2 2 2 2 2 2 2 2 2 2 2 2 2 2 2 2 2 2 2 2 2 2 2 2 2 2 2 2 2 2 2 2 2 2 2 2 2 2 2
left_child=1 4 6 12 11 9 14 48 22 -3 18 21 -4 26 44 19 20 33 30 55 24 -1 50 -15 47 -14 -6 -25 -17 56 45 40 43 -13 -18 -23 59 -21 -34 -26 53 -42 -35 -19 -2 -7 -47 -11 -8 -30 -5 52 -40 -32 -37 -9 -22 -58 -38 60 -29 -28
right_child=2 5 3 8 13 10 7 15 -10 16 -12 17 25 23 -16 28 34 32 -20 37 29 35 -24 27 39 -27 61 36 49 -31 31 -33 38 42 -36 54 58 -39 51 -41 41 -43 -44 -45 -46 46 -48 -49 -50 -51 -52 -53 -54 -55 -56 -57 57 -59 -60 -61 -62 -63
leaf_value=-0.070651744259521365 0.037932126952165912 -0.062041709820429482 0.0028796070934999189 0.1521232292569917 -0.021290359522681684 0.024221758476712488 0.021383516265536254 0.063994765476040216 0.084301723837852491 0.031239147782325744 0.080699630787498089 -0.027376951449192489 0.088989515900611882 0.010883075083256699 0.0018708650288837298 0.031876115412229587 -0.0050927996236628092 -0.039194167519474889 0.04537565717774053 0.069414746335574568 0.020103008694131858 -0.041876831767605802 0.17852326198057697 0.00029016229190996712 0.0032251094841079689 0.054493400019903986 -0.035545439089553946 -0.022688067489200169 0.065115507046381638 0.035140760171981082 0.045284861202041296 0.014586331823668561 -0.010917088240385057 -0.04652086256278886 0.0054372578663965587 -0.05164446122460551 -0.014036685962163771 0.084362956349338811 -0.020430065011200701 -0.012156360298395157 0.027528251868252664 0.010299703062457198 -0.040056704466391091 -0.030171384165684385 0.026604270648497803 0.050614399313926695 0.032596609710405275 0.014375319095646464 0.035706735828093125 0.051530909108913552 0.13951419087556691 -0.015751634726554834 -0.030862594169119129 0.028039509849622848 -0.062382016940550372 0.051175448695818582 0.017146333112651783 0.0053886249853783985 -0.0056666283277861246 -0.023669410898135262 -0.014257999214386547 -0.028521283396652771
leaf_weight=32 88 11.999999999999998 17 29 80 22 53 46 20 9.9999999999999982 19 26 9.9999999999999982 15.999999999999998 35 21 101 111 31 21 80 51 10.999999999999998 35 95 30 138 45 14.999999999999998 21 12.000000000000002 119 9.9999999999999982 108 87 77 51 56 23 14.999999999999998 51 17 198 48 26 9.9999999999999982 24 41 13.999999999999998 59 26 10.999999999999998 230 15.999999999999998 22 14.999999999999998 155 46 42 52 87 42
leaf_count=32 88 12 17 29 80 22 53 46 20 10 19 26 10 16 35 21 101 111 31 21 80 51 11 35 95 30 138 45 15 21 12 119 10 108 87 77 51 56 23 15 51 17 198 48 26 10 24 41 14 59 26 11 230 16 22 15 155 46 42 52 87 42
internal_value=0 -0.013724 0.0583965 0.0997369 -0.0320069 0.0147966 0.0452301 0.0540437 0.135915 0.00828317 0.0282497 -0.0391366 0.0451518 -0.0205241 0.0274847 0.0625746 0.00957948 -0.0357082 0.0249498 0.0716915 0.0135585 -0.0535473 0.151556 -0.0129933 0.00637155 0.0631174 -0.0300246 -0.0142177 0.0493311 0.0173899 0.0226133 0.0200319 -0.0315231 -0.0411665 -0.000219847 -0.0498983 -0.0160509 0.0802862 -0.0286523 0.00112764 0.0267821 0.0232211 -0.0423382 -0.0364703 0.0353486 0.032524 0.037896 0.017682 0.0243764 0.0542845 0.146163 -0.0293241 -0.0299142 0.0354304 -0.0540306 0.0608425 0.0160633 0.0144555 -0.0102567 -0.0189794 -0.0171319 -0.0339065
internal_weight=0 2519 592 143 1535 984 449 300 86 663 321 947 57 588 149 233 651 765 302 138 463 182 66 328 161 40 260 312 95 302 271 215 433 332 188 150 277 77 274 110 96 68 306 159 114 56 34 51 67 74 55 264 253 28 99 61 281 201 93 184 132 180
internal_count=3111 2519 592 143 1535 984 449 300 86 663 321 947 57 588 149 233 651 765 302 138 463 182 66 328 161 40 260 312 95 302 271 215 433 332 188 150 277 77 274 110 96 68 306 159 114 56 34 51 67 74 55 264 253 28 99 61 281 201 93 184 132 180
is_linear=0
shrinkage=0.05


Tree=4
num_leaves=63
num_cat=0
split_feature=10 0 10 0 10 10 17 10 0 10 9 10 10 0 0 6 11 3 3 0 7 10 3 1 6 3 6 6 6 10 0 3 6 4 16 3 3 12 17 3 9 12 17 7 3 3 2 17 3 10 3 3 17 3 3 3 11 6 3 0 3 15
split_gain=900.065 474.176 116.324 101.946 45.3665 31.1268 25.3508 27.4095 25.0624 21.8192 20.0562 16.8901 15.6271 15.187 10.9146 10.1558 8.20698 6.76912 6.50655 6.30859 5.20315 4.10069 3.81318 3.4654 3.46165 3.35552 3.32747 3.94926 3.18234 2.99724 2.96522 2.64797 2.50283 2.85305 1.93641 1.91121 1.85297 1.82534 1.78002 1.68184 1.64412 1.62856 1.3412 1.28329 1.23206 1.2275 1.22651 1.19845 1.13661 1.06896 0.987547 0.98347 0.911289 0.902425 0.839469 0.835531 0.812308 0.786828 0.854047 0.761967 0.752018 0.746178
threshold=2020.3000000000004 8.5000000000000018 2021.1000000000001 10.500000000000002 2018.3000000000004 2019.1000000000001 56.910000000000011 2020.5500000000002 11.500000000000002 2014.8500000000001 4438.5000000000009 2015.3000000000004 2021.3000000000004 2.5000000000000004 3.5000000000000004 51.850000000000001 147.50000000000003 8257.5000000000018 6659.5000000000009 2.5000000000000004 1.8500000000000003 2012.3000000000004 29768.000000000004 2019.5000000000002 43.150000000000006 6971.5000000000009 43.850000000000009 45.800000000000004 57.650000000000013 2019.3000000000004 8.5000000000000018 34531.500000000007 43.850000000000009 1.5000000000000002 58.750000000000007 1000.5000000000001 35933.000000000007 1255.9375000000002 67.90000000000002 15397.500000000002 3224.8000000000006 1258.4375000000002 78.825000000000017 1.8500000000000003 10529.500000000002 6659.5000000000009 1.0000000180025095e-35 45.95000000000001 27780.500000000004 2017.1000000000001 38540.000000000007 28311.500000000004 62.759999999999998 14649.500000000002 10343.000000000002 3000.5000000000005 285.25000000000006 39.500000000000007 3963.5000000000005 6.5000000000000009 48694.000000000007 18.19852941176471
decision_type=2 2 2 2 2 2 2 2 2 2 2 2 2 2 2 2 2 2 2 2 2 2 2 2 2 2 2 2 2 2 2 2 2 2 2 2 2 2 2 2 2 2 2 2 2 2 2 2 2 2 2 2 2 2 2 2 2 2 2 2 2 2
left_child=1 4 6 12 11 9 14 55 23 -3 20 21 -4 28 -2 18 22 35 43 34 32 -1 45 57 -15 42 50 48 -6 59 -17 41 53 39 -13 -16 56 -23 -20 -34 -33 -21 -14 -9 -32 -11 -47 -31 -28 -36 -18 -22 -43 -7 -49 -8 -29 -5 -59 -26 -24 -39
right_child=2 5 3 8 13 10 7 15 -10 16 -12 19 25 24 17 30 26 -19 38 31 51 37 60 -25 29 -27 27 36 -30 47 44 40 33 -35 49 -37 -38 61 -40 -41 -42 52 -44 -45 -46 46 -48 54 -50 -51 -52 -53 -54 -55 -56 -57 -58 58 -60 -61 -62 -63
leaf_value=-0.06711915619671345 -0.00029183317937197227 -0.058939621845881141 0.0027356266982250794 0.14451706861627514 -0.020225841652136298 0.037715728437671292 0.034537519629185019 0.070773638370964273 0.080086636543273929 0.022564828908070923 0.076664647303129496 -0.02600810384521118 0.084540040493011448 0.010338921437505633 0.055998825443827588 0.030282309065972058 0.032460572082420876 0.020658032857535178 0.040814372084357523 -0.014283553027780727 0.053586223950752833 -0.037764338570068015 -0.0020786683201246586 0.16959710879759357 -0.015418116303186839 0.03909118911251426 0.0044153585331514478 0.016094259552455525 -0.032211145311594011 0.0093729636818170557 0.05426616347025312 -0.039169495473516752 0.032637569428929557 0.013857015356922351 -0.044986405022004072 0.037737460316796055 0.0077314676953336367 -0.058383772273858395 0.064150746739827666 0.019355364333694947 -0.029543553620931653 -0.019512191587792979 0.061463320079971767 0.082941197964452928 0.036130459877577702 0.018457005912851956 0.0047157965286309458 -0.0038171055920732523 -0.012137701947774207 -0.038388516892135412 0.016986799123696984 0.03553845427102513 -0.029134448536951553 0.024988842432697615 -0.012721770296812498 0.020417997144438604 0.025064458201328917 0.13970262110233306 0.12107585549354555 -0.022485940015086761 -0.011500978732171159 -0.048449641030825927
leaf_weight=32 31 11.999999999999998 17 29 80 26 12.999999999999998 72 20 11.999999999999998 19 26 10.000000000000002 15.999999999999998 23 21 29 57 22 24 13.000000000000002 37 72 10.999999999999998 143 12.999999999999998 40 159 180 9.9999999999999982 63 94 44 119 85 38 65 24 12.999999999999998 52 84 28 17 31 10.999999999999998 18 166 48 13.999999999999998 221 15.999999999999998 18 203 30 59 54 30 16.000000000000004 9.9999999999999982 52 30 89
leaf_count=32 31 12 17 29 80 26 13 72 20 12 19 26 10 16 23 21 29 57 22 24 13 37 72 11 143 13 40 159 180 10 63 94 44 119 85 38 65 24 13 52 84 28 17 31 11 18 166 48 14 221 16 18 203 30 59 54 30 16 10 52 30 89
internal_value=0 -0.0130378 0.0554766 0.0947501 -0.0304066 0.0140568 0.0429686 0.0513415 0.12912 0.00786901 0.0268372 -0.0371798 0.0428942 -0.0194979 0.0261105 0.0594459 0.00910051 0.0330466 0.0681069 -0.0339228 0.0237023 -0.0508699 0.00299038 0.143978 -0.0123436 0.0599616 0.0142586 0.0124031 -0.0285234 -0.0135068 0.0468645 -0.029947 0.0214826 0.0190303 -0.0391082 0.0446229 0.0150136 -0.0474034 0.0494822 0.025443 -0.0346269 -0.0266802 0.0700103 0.0744357 0.0515703 0.00707054 0.00606005 -0.00718014 0.000123824 -0.0402213 0.0269588 0.0431069 -0.0279681 0.0308978 -0.00872715 0.0231576 0.0175181 0.138854 0.132538 -0.0173029 -0.00484994 -0.0505595
internal_weight=0 2519 592 143 1535 984 449 300 86 663 321 947 57 588 149 233 651 118 138 765 302 182 298 66 328 40 353 308 260 312 95 433 271 215 332 61 254 150 35 96 178 255 27 103 74 196 184 117 54 306 45 31 231 56 107 67 189 55 26 195 102 113
internal_count=3111 2519 592 143 1535 984 449 300 86 663 321 947 57 588 149 233 651 118 138 765 302 182 298 66 328 40 353 308 260 312 95 433 271 215 332 61 254 150 35 96 178 255 27 103 74 196 184 117 54 306 45 31 231 56 107 67 189 55 26 195 102 113
is_linear=0
shrinkage=0.05


Tree=5
num_leaves=63
num_cat=0
split_feature=10 0 10 0 10 10 11 0 10 9 10 10 6 10 0 0 14 0 7 16 4 10 6 6 1 6 6 10 9 6 4 10 10 1 16 12 11 6 11 4 6 5 1 1 11 6 6 6 0 10 2 6 2 4 6 6 0 0 10 10 0 1
split_gain=812.308 427.944 104.983 92.0061 40.9432 28.0919 22.7565 22.6188 19.6918 18.1008 15.2434 15.2231 15.4527 14.1035 13.7063 13.1421 8.28579 5.6935 4.69584 4.21455 4.11255 3.70087 3.55003 3.28891 3.12753 3.12414 2.87207 2.70501 2.46153 2.25881 2.57487 2.19239 2.08528 1.80198 1.74761 1.65803 1.57316 1.16164 1.09696 1.09653 1.06626 1.33379 1.00405 0.96844 0.929844 0.921672 0.906826 0.813479 0.750708 0.818353 0.730893 1.90363 0.723816 0.711331 1.62995 0.710113 0.687675 0.681992 0.674022 0.667876 0.63436 0.573524
threshold=2020.3000000000004 8.5000000000000018 2021.1000000000001 10.500000000000002 2018.3000000000004 2019.1000000000001 206.50000000000003 11.500000000000002 2014.8500000000001 4438.5000000000009 2015.3000000000004 2020.8000000000002 35.550000000000004 2021.3000000000004 2.5000000000000004 8.5000000000000018 0.055000000000000007 2.5000000000000004 1.8500000000000003 46.900000000000013 1.5000000000000002 2012.3000000000004 78.450000000000017 44.45000000000001 2019.5000000000002 43.150000000000006 57.650000000000013 2019.3000000000004 4434.1000000000013 43.850000000000009 1.5000000000000002 2021.5500000000002 2016.6500000000003 2016.5000000000002 58.750000000000007 1436.0714285714289 236.00000000000003 41.850000000000009 147.50000000000003 1.5000000000000002 61.550000000000004 137.50000000000003 2016.5000000000002 2016.5000000000002 227.50000000000003 44.45000000000001 35.550000000000004 37.95000000000001 3.5000000000000004 2017.6500000000003 1.0000000180025095e-35 61.550000000000004 1.5000000000000002 1.0000000180025095e-35 50.900000000000006 39.500000000000007 6.5000000000000009 11.500000000000002 2019.1000000000001 2014.3000000000004 3.5000000000000004 2018.5000000000002
decision_type=2 2 2 2 2 2 2 2 2 2 2 2 2 2 2 2 2 2 2 2 2 2 2 2 2 2 2 2 2 2 2 2 2 2 2 2 2 2 2 2 2 2 2 2 2 2 2 2 2 2 2 2 2 2 2 2 2 2 2 2 2 2
left_child=1 4 6 13 10 8 19 24 -3 18 21 12 36 -4 26 45 20 34 29 -2 28 -1 39 57 55 -16 -6 56 50 46 40 -15 44 -18 -12 -23 -8 -34 -29 53 52 -42 -25 -36 -19 -14 -7 -48 -39 -50 -10 -52 -31 -17 -55 -5 58 -22 -27 -37 -40 -28
right_child=2 5 3 7 14 9 11 -9 16 -11 17 -13 15 31 25 22 33 32 -20 -21 23 35 -24 42 -26 27 61 38 -30 30 -32 -33 37 -35 43 59 -38 48 60 -41 41 -43 -44 -45 -46 -47 47 -49 49 -51 51 -53 -54 54 -56 -57 -58 -59 -60 -61 -62 -63
leaf_value=-0.063763199700042614 0.026161028941472372 -0.055992643038431801 0.0025988454204600529 0.13729122137201244 -0.019214549962198364 0.021443056044253436 0.033742634908751006 0.076082307696342472 0.018451319625601172 0.072831414090959654 -0.024707698220243823 0.077278791105045999 0.01229255090539272 0.044022305806477868 0.0098219753010198481 0.058386206783746425 -0.0047500946963656039 -0.0355189746564573 0.040951529337513837 7.5122149428352724e-05 0.013418061634859977 -0.037709154967474297 0.046394746687452672 -0.011217541843652727 0.16111725135283039 -0.012693046027669443 -0.032157609395790793 0.0035302510573750456 0.032135906460739321 0.041665452594558387 0.013164164489839508 0.067551711303266621 -0.0090788521990180018 0.0050674735001106372 -0.042018809003962411 -0.0548886142430767 0.022974078330610478 -0.02940579788538359 -0.012746483175400294 0.056638079982692914 0.024832483066939842 0.0086606882950838876 0.0027227990156207336 -0.036132778325165163 -0.027190000719080371 0.02908480932766741 0.04645243108272553 0.029478708313157159 -0.025946702281462737 -0.016682093304892381 0.015552822043067746 0.0043329739188775421 0.025420725089497866 0.079647755339032122 0.059143532978163826 0.12591155813290522 -0.021361643176239273 0.02805416211485863 -0.020677203238010408 -0.046033376849749508 -0.004573110604745358 -0.025484662174823737
leaf_weight=32 30 11.999999999999998 17 29 80 22 86 20 80 19 26 34 12.999999999999998 18 15.999999999999998 19 101 111 31 32 39 51 59 14.999999999999998 10.999999999999998 108 138 21 21 12.000000000000002 119 22 9.9999999999999982 87 108 31 56 118 53 59 51 17 93 198 48 22 9.9999999999999982 24 116 30 155 50 15.999999999999998 21 18 26 52 9.9999999999999982 35 68 43 42
leaf_count=32 30 12 17 29 80 22 86 20 80 19 26 34 13 18 16 19 101 111 31 32 39 51 59 15 11 108 138 21 21 12 119 22 10 87 108 31 56 118 53 59 51 17 93 198 48 22 10 24 116 30 155 50 16 21 18 26 52 10 35 68 43 42
internal_value=0 -0.0123859 0.0527028 0.0900126 -0.0288862 0.013354 0.0408202 0.122664 0.00747556 0.0254953 -0.0353208 0.0453256 0.042248 0.0407495 -0.018523 0.05083 0.00864548 -0.0322267 0.0225172 0.0126973 0.01224 -0.0483264 0.0563947 0.00566117 0.136779 -0.0117265 -0.0270972 -0.0128315 0.0156153 0.0204085 0.0180788 0.0569635 -0.0284496 -0.000206858 -0.0371528 -0.0450332 0.0294959 -0.0258064 -0.00682113 0.0614374 0.0241709 0.0207895 0.000786641 -0.0382102 -0.0330046 0.0228477 0.0293529 0.034471 -0.02644 -0.024043 0.014398 0.0128163 0.0323828 0.0663194 0.0701843 0.131912 -0.0164377 0.016405 -0.0146472 -0.0488062 -0.00908549 -0.0306006
internal_weight=0 2519 592 143 1535 984 449 86 663 321 947 387 353 57 588 211 651 765 302 62 463 182 176 157 66 328 260 312 306 271 215 40 433 188 332 150 142 274 117 117 96 68 108 306 159 35 56 34 264 146 285 205 28 58 39 55 195 49 143 99 96 180
internal_count=3111 2519 592 143 1535 984 449 86 663 321 947 387 353 57 588 211 651 765 302 62 463 182 176 157 66 328 260 312 306 271 215 40 433 188 332 150 142 274 117 117 96 68 108 306 159 35 56 34 264 146 285 205 28 58 39 55 195 49 143 99 96 180
is_linear=0
shrinkage=0.05


Tree=6
num_leaves=63
num_cat=0
split_feature=10 9 17 10 17 10 10 10 17 10 7 6 10 6 17 11 6 6 6 3 2 3 6 3 3 17 2 3 7 10 17 4 6 8 12 1 14 3 17 3 3 3 9 2 9 6 3 17 1 11 14 6 3 17 6 3 3 3 3 5 6 6
split_gain=733.108 223.484 95.239 94.7467 75.1619 62.6579 28.0741 22.3639 20.6201 22.3176 17.3745 17.0858 16.9016 15.2077 10.2657 9.58262 9.00139 8.26694 7.23683 6.86197 6.45972 5.67299 5.26138 5.09533 5.02398 4.61124 3.91905 3.5382 3.43583 2.83948 2.72292 2.41934 2.38734 2.31336 2.12562 2.22202 2.11736 2.11353 1.8972 1.80973 1.76689 1.73613 1.68508 1.66945 1.66273 1.62243 1.58656 1.48746 1.45948 1.37593 1.25372 1.32113 1.21535 1.18637 1.25127 1.12674 2.83407 1.0844 1.06393 1.02392 1.02386 0.916763
threshold=2020.3000000000004 3226.400000000001 56.52000000000001 2021.1000000000001 85.480000000000004 2016.8500000000001 2019.8500000000001 2016.1000000000001 56.910000000000011 2020.5500000000002 1.2500000000000002 45.20000000000001 2018.8500000000001 41.850000000000009 93.500000000000014 177.50000000000003 44.45000000000001 51.850000000000001 61.550000000000004 8257.5000000000018 1.0000000180025095e-35 6659.5000000000009 63.500000000000007 62078.000000000007 6971.5000000000009 86.940000000000012 1.5000000000000002 19997.500000000004 2.1000000000000005 2012.3000000000004 71.180000000000007 1.0000000180025095e-35 41.20000000000001 0.0010893786258269218 1682.0833333333337 2018.5000000000002 0.011986531986531988 7917.5000000000009 59.810000000000009 2004.5000000000002 10684.000000000002 36571.500000000007 2018.5000000000002 1.0000000180025095e-35 3224.8000000000006 53.800000000000004 40110.500000000007 67.90000000000002 2012.5000000000002 295.00000000000006 0.011787994891443171 66.500000000000014 17625.000000000004 80.355000000000018 36.000000000000007 6347.5000000000009 5407.5000000000009 31168.000000000004 28513.500000000004 147.50000000000003 57.050000000000004 78.450000000000017
decision_type=2 2 2 2 2 2 2 2 2 2 2 2 2 2 2 2 2 2 2 2 2 2 2 2 2 2 2 2 2 2 2 2 2 2 2 2 2 2 2 2 2 2 2 2 2 2 2 2 2 2 2 2 2 2 2 2 2 2 2 2 2 2
left_child=1 2 11 8 10 23 12 29 16 -10 -5 37 18 33 -8 27 19 21 25 39 -20 53 46 28 -12 32 40 38 57 -4 52 -19 -7 -6 -13 45 -27 -1 -9 -2 -14 -38 -40 -34 -29 -36 -22 -23 -25 50 51 -42 -17 54 -11 56 61 -3 -52 -39 -28 -33
right_child=3 5 7 4 13 6 14 15 9 17 24 34 26 -15 -16 30 -18 31 20 -21 22 47 -24 48 -26 36 60 44 -30 -31 -32 55 43 -35 35 -37 41 59 42 -41 49 -43 -44 -45 -46 -47 -48 -49 -50 -51 58 -53 -54 -55 -56 -57 -58 -59 -60 -61 -62 -63
leaf_value=0.019584700804582592 0.052731306016445156 -0.011391430823406315 -0.061515721678733828 0.0023076013618265278 0.15306138667193325 0.019020601877799401 0.10294340550899501 -0.015901765046874062 0.020898912001901599 0.073236376816226592 0.070533698201179509 -0.020334373447112739 0.025103561660776347 0.077359392982907602 0.037541907429695133 -0.016002360719536979 0.0013956969657114575 0.027313953496160961 0.019141580549215803 0.018117475496572361 0.0031374982150022992 0.036143320189280945 -0.016218896977731895 -0.054085376170965344 0.034754519479779096 0.020130200276969736 0.03695750977430079 -0.034992847007972908 0.0086142580211162577 -0.044424561580022177 -0.0071201995667070153 0.056077730357646932 -0.016308938637375831 0.12758951897316792 0.0024549395563857011 -0.012929131207512877 0.013740726675812718 0.0094856606442366778 -0.031787233799695967 0.034776982641778885 0.012099624194396551 -0.0013056252599478915 -0.025089167153462766 0.0018963957095847412 -0.02306657494045794 -0.010626363916028489 -0.0072049874383083084 0.057475894001814035 -0.033923886356682614 0.025810686587963417 0.024370485334657133 -0.0031339111634426649 -0.025261907653170237 0.080364658832550062 0.060754839370125213 0.040030116907187871 0.073891936107115308 -0.025697177623709044 0.0094336020080127616 -0.0064918578602373607 0.023266319473358721 0.037196019291877748
leaf_weight=59 25 17 29 15.999999999999998 10.999999999999998 12.999999999999998 10.000000000000002 34 67 31 40 40 52 15.999999999999998 14.999999999999998 63 35 21 38 57 163 22 58 12.999999999999998 12.999999999999998 99 36 337 9.9999999999999982 150 45 10.000000000000002 20 47 63 102 73 61 177 32 68 26 200 34 32 38 48 12.999999999999998 29 23 32 18 81 14.999999999999998 57 35 10.999999999999998 60 19 11.999999999999998 22 18
leaf_count=59 25 17 29 16 11 13 10 34 67 31 40 40 52 16 15 63 35 21 38 57 163 22 58 13 13 99 36 337 10 150 45 10 20 47 63 102 73 61 177 32 68 26 200 34 32 38 48 13 29 23 32 18 81 15 57 35 11 60 19 12 22 18
internal_value=0 -0.0117666 -0.0238103 0.0500677 0.085512 0.00664957 0.011487 -0.0309564 0.0387792 0.0463305 0.0479721 -0.00193351 0.00993665 0.120515 0.0637025 -0.027957 0.0235751 0.0536435 0.00506965 0.0303846 -0.000155515 0.0614577 -0.0028815 -0.0258624 0.0617577 0.011123 0.0202475 -0.0304046 -0.018958 -0.0471935 -0.0178559 0.0422923 -0.000215425 0.13242 -0.00979953 -0.0077237 0.0149597 0.0125471 -0.0272137 0.0426517 0.0170966 0.00978916 -0.0282339 -0.00484632 -0.0339586 -0.00246674 0.000784705 0.0440668 -0.0401643 0.0144944 0.0125946 0.00891121 -0.0212109 0.0673672 0.0651517 0.0465429 0.0523876 -0.0225388 0.0188058 0.00685922 0.0317643 0.0439395
internal_weight=0 2519 1523 592 143 996 867 1148 449 300 69 375 842 74 25 969 149 233 572 114 307 138 269 129 53 265 270 780 87 179 189 95 67 58 243 203 198 132 411 57 212 99 377 54 369 101 211 35 42 160 137 86 144 103 88 74 39 77 51 73 58 28
internal_count=3111 2519 1523 592 143 996 867 1148 449 300 69 375 842 74 25 969 149 233 572 114 307 138 269 129 53 265 270 780 87 179 189 95 67 58 243 203 198 132 411 57 212 99 377 54 369 101 211 35 42 160 137 86 144 103 88 74 39 77 51 73 58 28
is_linear=0
shrinkage=0.05


Tree=7
num_leaves=63
num_cat=0
split_feature=10 0 10 0 10 10 17 10 0 10 9 10 10 0 0 6 14 3 3 0 7 17 10 17 17 16 8 6 3 9 0 9 6 4 3 3 3 16 3 3 17 3 12 9 9 17 6 3 3 3 17 3 3 0 3 6 3 3 6 3 3 8
split_gain=661.63 350.79 85.5089 75.8641 33.7779 22.8756 18.6096 20.1416 18.5057 16.0785 14.9543 12.5592 11.4469 11.1928 8.14862 7.46091 6.82659 6.20345 5.11987 4.86126 3.85376 3.38819 3.07619 2.71704 2.70811 2.69721 2.49898 2.29602 2.23732 2.20853 2.18345 2.10183 1.88247 2.21809 1.84992 1.70764 1.53866 1.45269 1.41369 1.38393 1.34243 1.28096 1.20173 1.19641 1.17374 1.0707 1.12927 1.05755 1.05257 0.875664 0.872253 1.14814 0.871833 0.83607 0.832833 0.828566 0.76331 0.7629 0.739642 0.711771 0.684496 0.644164
threshold=2020.3000000000004 8.5000000000000018 2021.1000000000001 10.500000000000002 2018.3000000000004 2019.1000000000001 56.910000000000011 2020.5500000000002 11.500000000000002 2014.8500000000001 4438.5000000000009 2015.3000000000004 2021.3000000000004 2.5000000000000004 9.5000000000000018 51.850000000000001 0.055000000000000007 8257.5000000000018 6659.5000000000009 2.5000000000000004 1.8500000000000003 86.940000000000012 2014.3000000000004 53.800000000000004 69.88000000000001 46.350000000000001 0.0010893786258269218 57.650000000000013 34531.500000000007 3429.7500000000005 8.5000000000000018 4434.1000000000013 43.850000000000009 1.5000000000000002 37735.500000000007 30866.500000000004 2139.5000000000005 58.750000000000007 5939.5000000000009 15397.500000000002 67.90000000000002 7336.5000000000009 1258.4375000000002 3224.8000000000006 3216.8000000000006 80.355000000000018 36.000000000000007 20188.000000000004 10529.500000000002 18003.000000000004 71.180000000000007 31361.000000000004 46777.000000000007 4.5000000000000009 28311.500000000004 35.100000000000001 59019.500000000007 14649.500000000002 41.850000000000009 19091.500000000004 4720.5000000000009 0.00084304493157368726
decision_type=2 2 2 2 2 2 2 2 2 2 2 2 2 2 2 2 2 2 2 2 2 2 2 2 2 2 2 2 2 2 2 2 2 2 2 2 2 2 2 2 2 2 2 2 2 2 2 2 2 2 2 2 2 2 2 2 2 2 2 2 2 2
left_child=1 4 6 12 11 9 14 58 26 -3 20 22 -4 27 -2 18 21 36 45 37 32 25 44 -15 -14 -11 -5 -6 42 41 -17 35 57 39 61 -23 55 -13 -26 -34 -20 -25 -21 -30 52 46 -9 -27 -32 -39 -43 -52 -1 -24 -22 -16 -37 -7 -8 -44 -35 -18
right_child=2 5 3 8 13 10 7 15 -10 16 -12 19 24 23 17 30 34 -19 40 28 54 31 53 29 38 47 -28 -29 43 -31 48 -33 33 60 -36 56 -38 49 -40 -41 -42 50 59 -45 -46 -47 -48 -49 -50 -51 51 -53 -54 -55 -56 -57 -58 -59 -60 -61 -62 -63
leaf_value=-0.047745369672775269 0.0012936890072056226 -0.050528996189435328 0.0021327825591844671 0.14540831717577848 -0.017404794641770423 0.032899229858930297 0.017153930924129937 0.06957455979239556 0.068751503229141239 0.01478756776755201 0.066107984357758581 -0.022358595708814953 0.073644060492515567 0.0021996068044540448 0.057500323653221122 0.025948255934885575 0.0062403571511274337 0.017211601647891497 0.034336154772476722 -0.012011462298687547 0.046718711807177606 0.01613450903731229 -0.041052652660169102 -0.0056220531423130764 0.053751950524747363 0.0052705210128314341 0.11930198561061511 -0.027585157472640277 -0.033839972618412463 0.005873151804553345 0.046707465700686929 0.029522601053828285 0.028518884002485059 0.018308399779101214 -0.0076756671528544346 0.0095358999360271035 0.032466848168907492 -0.03140668093673582 0.031995748462421557 0.016470346347061703 0.054602099152711726 -0.017070182993197118 -0.020228668933586134 -0.025628592340009554 -0.036339224739508201 0.076346424818038938 0.057717096544148631 -0.0045934895466899078 0.029944744232026019 -0.036862015105336092 -0.0066023996083198911 -0.019316747383429454 -0.059361157161848893 -0.031194926152626673 0.030110538502534229 0.040298105456999377 -0.0043846004557880486 0.021197488713078201 0.03007552841944354 -0.02594393854895672 0.0095752011502574976 -0.00081840380705122293
leaf_weight=30 35 11.999999999999998 17 10.999999999999998 80 26 53 31 20 51 19 26 9.9999999999999982 37 14.000000000000002 21 73 57 22 24 13.000000000000002 176 76 46 16.000000000000004 61 55 180 94 15.999999999999998 63 21 44 30 57 94 29 123 13.999999999999998 52 12.999999999999998 147 88 84 10.999999999999998 14.999999999999998 57 49 10.999999999999998 183 56 26 35 30 18 13.999999999999998 10.999999999999998 30 13.999999999999998 143 89 58
leaf_count=30 35 12 17 11 80 26 53 31 20 51 19 26 10 37 14 21 73 57 22 24 13 176 76 46 16 61 55 180 94 16 63 21 44 30 57 94 29 123 14 52 13 147 88 84 11 15 57 49 11 183 56 26 35 30 18 14 11 30 14 143 89 58
internal_value=0 -0.0111783 0.0475643 0.0812364 -0.0261173 0.012126 0.0368402 0.044014 0.110885 0.00682141 0.0230823 -0.0319618 0.036503 -0.0167045 0.0223964 0.0509613 0.00787856 0.0288752 0.0583848 -0.0291532 0.0203754 0.0111412 -0.0437669 -0.0105626 0.0511103 0.00528315 0.123653 -0.0244527 -0.0256631 -0.0121853 0.0401776 0.0142642 0.0184651 0.0163383 -0.000156566 0.0131239 0.0405389 -0.0337051 0.0435991 0.0219926 0.0418635 -0.013236 -0.0226603 -0.0299649 -0.0514439 0.0639989 0.0618942 0.000876553 0.0442157 -0.0346692 -0.0147654 -0.0106338 -0.054 -0.0382627 0.0370753 0.0488992 0.00807756 0.0266304 0.019854 -0.0237667 0.0117768 0.0031151
internal_weight=0 2519 592 143 1535 984 449 300 86 663 321 947 57 588 149 233 651 114 138 765 302 463 182 328 40 161 66 260 433 291 95 302 271 215 188 281 57 332 30 96 35 275 255 178 76 103 88 110 74 306 229 82 65 106 31 28 105 56 67 231 119 131
internal_count=3111 2519 592 143 1535 984 449 300 86 663 321 947 57 588 149 233 651 114 138 765 302 463 182 328 40 161 66 260 433 291 95 302 271 215 188 281 57 332 30 96 35 275 255 178 76 103 88 110 74 306 229 82 65 106 31 28 105 56 67 231 119 131
is_linear=0
shrinkage=0.05


Tree=8
num_leaves=63
num_cat=0
split_feature=10 0 10 0 10 10 17 10 0 10 9 10 10 0 6 6 14 3 3 0 8 4 10 6 17 17 1 6 3 9 0 9 6 4 3 3 3 16 3 3 17 2 12 3 9 9 3 3 3 3 17 6 10 6 3 12 3 6 6 17 3 3
split_gain=597.121 316.588 77.1718 68.4673 30.4846 20.6452 16.7952 18.1778 16.7014 14.5109 13.4963 11.3347 10.3308 10.1015 7.37138 6.73347 6.16099 5.60591 4.62068 4.38728 3.47802 3.06975 2.77626 2.48812 2.45213 2.44407 2.25533 2.07216 2.01918 1.9932 1.97056 1.90831 1.69893 2.00183 1.66955 1.54652 1.47707 1.31106 1.27585 1.24899 1.21154 1.17892 1.08456 1.08428 1.07976 1.0593 1.05922 0.978686 1.17488 1.51621 0.966309 1.01917 0.839209 0.827379 0.786829 0.75685 0.751632 0.746862 0.722859 0.696334 0.681965 0.681045
threshold=2020.3000000000004 8.5000000000000018 2021.1000000000001 10.500000000000002 2018.3000000000004 2019.1000000000001 56.910000000000011 2020.5500000000002 11.500000000000002 2014.8500000000001 4438.5000000000009 2015.3000000000004 2021.3000000000004 2.5000000000000004 44.45000000000001 51.850000000000001 0.055000000000000007 8257.5000000000018 6659.5000000000009 2.5000000000000004 0.00099083483909794532 1.5000000000000002 2014.3000000000004 44.45000000000001 53.800000000000004 69.88000000000001 2019.5000000000002 57.650000000000013 34531.500000000007 3429.7500000000005 8.5000000000000018 4434.1000000000013 43.850000000000009 1.5000000000000002 37735.500000000007 30866.500000000004 2004.5000000000002 58.750000000000007 5939.5000000000009 15397.500000000002 67.90000000000002 1.5000000000000002 1258.4375000000002 5510.5000000000009 3224.8000000000006 3216.8000000000006 20188.000000000004 8511.5000000000018 5407.5000000000009 6347.5000000000009 80.355000000000018 36.000000000000007 2017.1000000000001 78.450000000000017 46777.000000000007 1257.8125000000002 28311.500000000004 35.550000000000004 37.95000000000001 64.120000000000005 3000.5000000000005 59019.500000000007
decision_type=2 2 2 2 2 2 2 2 2 2 2 2 2 2 2 2 2 2 2 2 2 2 2 2 2 2 2 2 2 2 2 2 2 2 2 2 2 2 2 2 2 2 2 2 2 2 2 2 2 2 2 2 2 2 2 2 2 2 2 2 2 2
left_child=1 4 6 12 11 9 14 60 26 -3 20 22 -4 27 17 18 21 36 50 37 32 31 45 -23 -15 -14 -5 -6 42 41 -17 35 57 39 -18 -11 -2 -13 -27 -34 -20 43 -21 -26 -30 54 -25 48 53 -50 51 -9 -39 -32 -1 -24 -22 -7 -59 -44 -8 -37
right_child=2 5 3 8 13 10 7 15 -10 16 -12 19 25 24 -16 30 34 -19 40 28 56 23 55 46 29 38 -28 -29 44 -31 47 -33 33 -35 -36 61 -38 52 -40 -41 -42 -43 59 -45 -46 -47 -48 -49 49 -51 -52 -53 -54 -55 -56 -57 -58 58 -60 -61 -62 -63
leaf_value=-0.045358101427555086 0.047632577866315841 -0.048002546280622484 0.0020261435166877861 0.1133368905024095 -0.016534554946701974 0.018120573580646043 0.029142352824027724 0.066095830163648048 0.065313930213451388 0.015241639238601138 0.062802584939881376 -0.021240665835256762 0.069961857795715329 0.0020896266159488243 0.0012055072401251114 0.024650842802865166 0.0029593490052147141 0.016351021721697691 0.032619346745989541 -0.0114108891847233 0.044382775976107659 0.014245105595613011 -0.029624966581662499 0.0050069949730894847 -0.0044575944963482121 0.051064353249967089 0.13813789649443195 -0.02620589933772054 -0.032147973997795835 0.00557949409558205 0.050938469767570486 0.028046470738592601 0.027092939708381891 0.01118800553137108 -0.0072918838053418885 0.0089836142003595684 0.031412147416267543 -0.037157848477363586 0.030395961925387384 0.015646828921475949 0.051871994825509887 0.003463860889050094 -0.016391651138761325 -0.014411258179436601 -0.024347162228964627 -0.034522263434800235 -0.0049806058699880642 0.03395477631688118 0.067861966653303643 0.040961343646049503 0.072529104153315233 0.054831241620214369 -0.031311831535661923 0.033000845917397076 -0.05639310147081103 -0.039004052195109822 0.028605011643634905 0.041238126009702683 0.025237729648749038 -0.023796466431083459 0.01638619167799199 -0.0041653703305531637
leaf_weight=30 25 11.999999999999998 17 55 80 22 12.999999999999998 31 20 180 19 26 9.9999999999999982 37 35 21 131 57 22 24 13.000000000000002 49 30 61 31 16.000000000000004 10.999999999999998 180 94 15.999999999999998 10.000000000000002 21 44 119 57 94 32 85 13.999999999999998 52 12.999999999999998 10.999999999999998 38 233 84 10.999999999999998 47 25 11.000000000000002 9.9999999999999982 14.999999999999998 57 221 18 35 76 18 9.9999999999999982 24 193 54 10.999999999999998
leaf_count=30 25 12 17 55 80 22 13 31 20 180 19 26 10 37 35 21 131 57 22 24 13 49 30 61 31 16 11 180 94 16 10 21 44 119 57 94 32 85 14 52 13 11 38 233 84 11 47 25 11 10 15 57 221 18 35 76 18 10 24 193 54 11
internal_value=0 -0.0106194 0.0451861 0.0771745 -0.0248114 0.0115197 0.0349982 0.0418133 0.105341 0.00648034 0.0219282 -0.0303637 0.0346778 -0.0158693 0.0212765 0.0484132 0.00748463 0.0274387 0.0554656 -0.0276956 0.0193566 0.0105841 -0.0415786 0.00490031 -0.0100345 0.0485548 0.11747 -0.0232301 -0.02438 -0.0115761 0.0381688 0.0135004 0.0175418 0.0155214 -0.000148738 0.0124285 0.0385264 -0.0320198 0.0414191 0.020893 0.0397703 -0.0125742 -0.0215273 -0.0132425 -0.0284667 -0.0488717 0.000660539 0.0420049 0.0461121 0.0550521 0.0607989 0.0587994 -0.0329357 0.0394071 -0.0513 -0.0363496 0.0352215 0.0252989 0.0299437 -0.0225784 0.0188613 0.0076061
internal_weight=0 2519 592 143 1535 984 449 300 86 663 321 947 57 588 149 233 651 114 138 765 302 463 182 157 328 40 66 260 433 291 95 306 271 215 188 285 57 332 30 96 35 275 255 264 178 76 108 74 49 21 103 88 306 28 65 106 31 56 34 231 67 105
internal_count=3111 2519 592 143 1535 984 449 300 86 663 321 947 57 588 149 233 651 114 138 765 302 463 182 157 328 40 66 260 433 291 95 306 271 215 188 285 57 332 30 96 35 275 255 264 178 76 108 74 49 21 103 88 306 28 65 106 31 56 34 231 67 105
is_linear=0
shrinkage=0.05


Tree=9
num_leaves=63
num_cat=0
split_feature=10 0 10 0 10 10 3 7 0 10 9 10 10 0 14 7 0 0 7 16 6 4 10 6 0 8 1 3 6 3 3 9 2 3 2 3 3 3 3 16 2 3 12 3 0 9 3 3 3 3 3 3 3 12 3 6 6 5 6 6 6 3
split_gain=538.902 285.721 69.6476 61.7918 27.5123 18.6323 15.1698 25.3336 15.073 13.0961 12.1804 10.2296 9.32357 9.11664 5.5603 4.66338 4.38628 3.95952 3.13891 3.04903 2.81044 2.71001 2.50558 2.41134 2.44341 2.23832 2.03544 2.02922 1.87012 1.82435 1.79532 1.73985 1.66325 1.55646 1.54385 1.50677 1.36082 1.24003 1.2081 1.18323 1.13471 1.31451 1.1111 1.09358 0.956919 0.919857 0.87975 0.784309 0.776878 0.775279 0.75633 0.751701 0.729038 0.6945 0.678348 0.678125 0.644769 0.639688 0.611603 0.595954 0.595456 0.583192
threshold=2020.3000000000004 8.5000000000000018 2021.1000000000001 10.500000000000002 2018.3000000000004 2019.1000000000001 10058.500000000002 1.5000000000000002 11.500000000000002 2014.8500000000001 4438.5000000000009 2015.3000000000004 2021.3000000000004 2.5000000000000004 0.055000000000000007 1.8500000000000003 8.5000000000000018 2.5000000000000004 1.8500000000000003 46.900000000000013 43.850000000000009 1.5000000000000002 2014.3000000000004 35.550000000000004 11.500000000000002 0.00049541741954897266 2019.5000000000002 6971.5000000000009 57.650000000000013 36947.500000000007 19796.500000000004 3429.7500000000005 1.5000000000000002 35933.000000000007 1.5000000000000002 37735.500000000007 2139.5000000000005 7336.5000000000009 5745.0000000000009 58.750000000000007 1.0000000180025095e-35 22252.000000000004 1438.214285714286 95.000000000000014 6.5000000000000009 3424.6500000000001 2139.5000000000005 18145.500000000004 19091.500000000004 1639.0000000000002 3000.5000000000005 38540.000000000007 44476.500000000007 1437.5000000000002 28311.500000000004 43.850000000000009 57.050000000000004 137.50000000000003 35.100000000000001 50.000000000000007 47.500000000000007 7917.5000000000009
decision_type=2 2 2 2 2 2 2 2 2 2 2 2 2 2 2 2 2 2 2 2 2 2 2 2 2 2 2 2 2 2 2 2 2 2 2 2 2 2 2 2 2 2 2 2 2 2 2 2 2 2 2 2 2 2 2 2 2 2 2 2 2 2
left_child=1 4 6 12 11 9 7 19 26 -3 18 22 -4 28 20 16 -9 39 34 50 51 33 44 36 -25 60 61 49 -6 42 38 37 57 56 40 -16 58 -27 -23 -13 41 -7 -19 -26 52 -31 -42 -41 -44 -14 -2 -11 -1 -24 -20 -48 -22 -8 -18 -45 -15 -5
right_child=2 5 3 8 13 10 32 15 -10 14 -12 17 27 25 35 -17 23 29 54 -21 21 30 53 24 43 31 -28 -29 -30 45 -32 -33 -34 -35 -36 -37 -38 -39 -40 47 46 -43 48 59 -46 -47 55 -49 -50 -51 -52 -53 -54 -55 -56 -57 -58 -59 -60 -61 -62 -63
leaf_value=-0.042406003062541671 0.028847043084747649 -0.045602417240540191 0.001924836402758956 0.11024437424811451 -0.01570782671449706 0.026543758750746129 0.028673728108406068 0.02101784499362111 0.062048233449459082 0.026727672743386239 0.059662455634066941 -0.020178632825039899 0.064988348484039282 0.012110984554657566 0.0028113815330061353 0.063494689265886944 0.052301609090396328 -0.016254901485417479 0.042163637051215529 -0.00024247532710433008 0.020701858239869281 0.023635833188891411 -0.029118143159307931 0.042552013621714554 0.06913224011659623 -0.0046582519263700722 0.1312310056252913 0.029897208124972308 -0.024895604452532201 -0.029738302393976984 -0.0046251113550776308 0.0053005193927674558 0.034870595591408864 0.0051948026311947615 0.025354757298022335 -0.0069272895868491835 0.029690648927803966 -0.013194367401978463 0.0053066170695917998 -0.028242887037992478 0.023728765867760078 0.010956233404465908 -0.018935065288678745 0.049750982710848685 -0.033471208966026705 -0.021102453236069001 0.018763294872561738 -0.033392565602755685 -0.025615726804191413 0.047443228521767786 0.01315360399229186 0.013227479718625547 -0.053271671815922385 -0.037557567360208322 0.027174762015541393 0.010148266866622915 0.01276156417921191 0.015428036950456287 0.036546753075989806 0.060953956656157972 -0.0030224731550193753 0.097372721542011612
leaf_weight=26 17.000000000000004 11.999999999999998 17 44 80 38 9.9999999999999982 20 20 29 19 26 10.000000000000002 13.000000000000002 131 33 14 93 13.000000000000002 32 30 9.9999999999999982 38 76 11.999999999999998 52 10.999999999999998 12.999999999999998 180 116 48 15.999999999999998 13.999999999999998 68 43 57 31 234 89 125 17 21 72 46 11.999999999999998 42 28 181 110 17 13.999999999999998 15.999999999999998 38 68 18 124 173 103 11 15.999999999999998 12.999999999999998 10.999999999999998
leaf_count=26 17 12 17 44 80 38 10 20 20 29 19 26 10 13 131 33 14 93 13 32 30 10 38 76 12 52 11 13 180 116 48 16 14 68 43 57 31 234 89 125 17 21 72 46 12 42 28 181 110 17 14 16 38 68 18 124 173 103 11 16 13 11
internal_value=0 -0.0100884 0.0429268 0.0733158 -0.0235709 0.0109437 0.0332483 0.0390201 0.100074 0.00615633 0.0208318 -0.0288455 0.0329439 -0.0150758 0.0071104 0.045937 0.0433732 -0.0263108 0.0183888 0.010584 0.0100549 0.00877678 -0.0394997 0.0455437 0.048849 -0.00953278 0.111597 0.0461271 -0.0220686 -0.023161 0.00331049 -0.0107447 0.0186143 0.0117419 0.0166647 -0.000141301 0.0366901 -0.0116423 0.00715805 -0.0304189 0.0150258 0.0209957 -0.0207009 0.0553162 -0.0464281 -0.0274427 0.0129417 -0.0312889 -0.0229728 0.0539414 0.0217597 0.0219276 -0.0488575 -0.0345321 0.0334604 0.0117352 0.013935 0.0166002 0.0453695 0.0526421 0.00454426 0.10767
internal_weight=0 2519 592 143 1535 984 449 322 86 663 321 947 57 588 651 259 226 765 302 63 463 418 182 206 150 328 66 40 260 433 147 302 127 271 271 188 56 286 99 332 228 59 275 74 76 158 169 306 182 27 31 45 64 106 31 152 203 113 25 62 26 55
internal_count=3111 2519 592 143 1535 984 449 322 86 663 321 947 57 588 651 259 226 765 302 63 463 418 182 206 150 328 66 40 260 433 147 302 127 271 271 188 56 286 99 332 228 59 275 74 76 158 169 306 182 27 31 45 64 106 31 152 203 113 25 62 26 55
is_linear=0
shrinkage=0.05


Tree=10
num_leaves=63
num_cat=0
split_feature=10 0 10 0 10 10 17 10 0 10 9 10 10 0 0 6 3 11 0 3 8 10 8 6 6 17 17 1 6 9 0 6 4 3 3 11 3 3 2 3 17 12 3 9 5 3 3 3 17 3 1 6 2 3 3 3 6 17 3 9 3 6
split_gain=486.359 257.863 62.8569 55.7671 24.8299 16.8157 13.7371 14.7748 13.6034 11.8192 10.9928 9.27472 8.41452 8.22777 6.04185 5.47293 4.61489 4.50907 3.99077 3.87362 2.83287 2.54041 2.3758 2.16869 2.17953 2.1163 2.02163 1.83698 1.68779 1.62524 1.57606 1.42757 1.6533 1.256 1.23597 1.23195 1.14707 1.08414 1.06311 1.04427 1.00951 0.914666 0.914118 0.897037 0.896763 0.885403 0.837568 2.30837 0.831353 0.912749 0.789323 0.746709 0.693631 0.679003 0.678444 0.658101 0.655971 0.655358 0.640969 0.623551 0.612209 0.57648
threshold=2020.3000000000004 8.5000000000000018 2021.1000000000001 10.500000000000002 2018.3000000000004 2019.1000000000001 56.910000000000011 2020.5500000000002 11.500000000000002 2014.8500000000001 4438.5000000000009 2015.6500000000003 2021.3000000000004 2.5000000000000004 9.5000000000000018 51.850000000000001 8257.5000000000018 147.50000000000003 2.5000000000000004 6659.5000000000009 0.00099083483909794532 2014.3000000000004 0.00084304493157368726 43.850000000000009 45.800000000000004 69.88000000000001 53.800000000000004 2019.5000000000002 57.650000000000013 3429.7500000000005 8.5000000000000018 43.850000000000009 1.5000000000000002 35933.000000000007 34531.500000000007 147.50000000000003 2139.5000000000005 11470.500000000002 1.5000000000000002 3105.0000000000005 67.90000000000002 1259.0625000000002 3515.5000000000005 3216.8000000000006 142.50000000000003 6659.5000000000009 6347.5000000000009 5407.5000000000009 80.355000000000018 2255.5000000000005 2016.5000000000002 78.450000000000017 1.0000000180025095e-35 14649.500000000002 38324.500000000007 23115.500000000004 35.100000000000001 66.440000000000012 46777.000000000007 3424.6500000000001 28311.500000000004 41.850000000000009
decision_type=2 2 2 2 2 2 2 2 2 2 2 2 2 2 2 2 2 2 2 2 2 2 2 2 2 2 2 2 2 2 2 2 2 2 2 2 2 2 2 2 2 2 2 2 2 2 2 2 2 2 2 2 2 2 2 2 2 2 2 2 2 2
left_child=1 4 6 12 11 9 14 61 27 -3 20 21 -4 28 -2 19 36 22 35 48 31 43 45 54 50 -14 -15 -5 -6 38 -17 53 37 -26 41 55 56 -33 42 -27 -21 -20 -28 58 -23 -11 47 51 49 -9 -25 -32 -47 -7 -19 -13 -16 -43 -1 -36 -22 -8
right_child=2 5 3 8 13 10 7 15 -10 17 -12 18 25 26 16 30 -18 23 34 40 60 44 -24 24 33 39 29 -29 -30 -31 46 32 -34 -35 59 -37 -38 -39 -40 -41 -42 57 -44 -45 -46 52 -48 -49 -50 -51 -52 -53 -54 -55 -56 -57 -58 -59 -60 -61 -62 -63
leaf_value=-0.040978351980447775 0.0010050785754408156 -0.043322295695543293 0.0018285944564815832 0.10228654254566541 -0.014922435716725885 0.028856206069198937 0.014673301331558317 0.057842266813237619 0.058945822790265084 0.018583949469029904 0.056679330766201019 -0.02861227877970253 0.063740700185298912 0.0019524028826806998 0.049686527677944715 0.022374352919203894 0.014694969525985552 0.025614948517509867 -0.010027599676201742 0.029159458354115486 0.040055454923556388 -0.035934925166430411 -0.0040091614769126229 -0.0097892497976620994 0.0130815085809599 0.048605856796105691 0.0014910129675020775 0.12466945214705034 -0.023650824096467762 0.0050354935643554203 0.046263945698738082 0.027141479269734453 0.010041306528434971 0.005024108974119792 -0.0267368977350637 -0.024051484229796111 0.027845390590614291 0.015451478213756621 0.0038727853108536112 0.029563927924674417 0.046733705814068133 -0.015379570685147954 -0.01263378610892687 -0.030901973322033885 -0.027335285425186158 0.013618337029689238 0.032279202123837815 0.062341265244917433 0.065821075042088825 0.047634137040231284 0.0037070979526899282 0.029223202500078416 0.0035330301107199171 0.01781662253701749 0.012952148333630143 -0.033954572708022844 0.034380471280642914 -0.021785282051234051 -0.050938148498535153 -0.019727174643167231 0.025816023805075222 0.026080990635922979
leaf_weight=30 35 11.999999999999998 17 55 80 26 53 47 20 11.999999999999998 19 140 9.9999999999999982 37 14.000000000000002 21 57 28 24 22 13.000000000000002 77 101 14.999999999999998 189 12.000000000000002 11.999999999999998 10.999999999999998 180 15.999999999999998 10.000000000000002 28 119 65 121 94 29 68 10.999999999999998 18 12.999999999999998 52 252 10.999999999999998 50 19 35 10.999999999999998 14.999999999999998 41 39 18 166 30 17 98 13.999999999999998 172 35 43 18 13.999999999999998
leaf_count=30 35 12 17 55 80 26 53 47 20 12 19 140 10 37 14 21 57 28 24 22 13 77 101 15 189 12 12 11 180 16 10 28 119 65 121 94 29 68 11 18 13 52 252 11 50 19 35 11 15 41 39 18 166 30 17 98 14 172 35 43 18 14
internal_value=0 -0.00958397 0.0407804 0.06965 -0.0223923 0.0103966 0.0315859 0.0377494 0.0950702 0.00584851 0.0197902 -0.0274032 0.0312967 -0.014322 0.0191761 0.0436995 0.024755 0.00675488 -0.0248186 0.0500576 0.0174694 -0.0368762 0.00222588 0.0105782 0.00908023 0.0438207 -0.00905614 0.106017 -0.0209652 -0.0104559 0.0344636 0.0158315 0.0139794 0.0110196 -0.0215313 -0.0288979 0.034815 0.0188611 -0.0113572 0.0371807 0.035687 -0.0193043 -0.0119917 -0.0441067 -0.0325492 0.00542253 0.0378944 0.0429336 0.0549408 0.0530862 -4.18875e-05 0.0353092 0.00456882 0.0229421 0.0208312 -0.030812 0.0420335 -0.0202982 -0.0463413 -0.024899 0.0317874 0.017057
internal_weight=0 2519 592 143 1535 984 449 300 86 663 321 947 57 588 149 233 114 651 744 138 302 203 298 353 308 40 328 66 260 291 95 271 215 254 412 332 57 96 275 30 35 248 264 76 127 197 74 39 103 88 54 28 185 56 45 238 28 224 65 164 31 67
internal_count=3111 2519 592 143 1535 984 449 300 86 663 321 947 57 588 149 233 114 651 744 138 302 203 298 353 308 40 328 66 260 291 95 271 215 254 412 332 57 96 275 30 35 248 264 76 127 197 74 39 103 88 54 28 185 56 45 238 28 224 65 164 31 67
is_linear=0
shrinkage=0.05


Tree=11
num_leaves=63
num_cat=0
split_feature=10 0 10 0 10 10 11 3 0 10 9 10 10 0 14 7 0 0 7 0 4 10 6 0 6 3 3 1 9 9 6 2 3 2 10 3 3 11 3 2 3 3 10 5 3 3 13 9 8 0 3 3 3 2 3 9 6 3 3 6 1 5
split_gain=438.939 232.721 56.7284 50.3298 22.409 15.1761 12.4509 20.7971 12.277 10.6668 9.92101 8.37044 7.5941 7.42556 4.50784 3.92496 3.63532 3.60167 2.55666 2.41108 2.29375 2.29272 1.94178 2.04611 1.93155 1.87305 1.66594 1.65788 1.57359 1.55875 1.45998 1.41216 1.32387 1.30465 1.24893 1.20358 1.11546 1.11183 1.0935 0.957503 1.14922 0.935911 0.840686 0.809328 0.804637 0.796734 0.764982 0.72745 0.906142 0.718849 0.67344 0.593936 0.591745 0.584333 0.581908 0.581089 0.558748 0.716522 0.552518 0.52899 0.516124 0.504974
threshold=2020.3000000000004 8.5000000000000018 2021.1000000000001 10.500000000000002 2018.3000000000004 2019.1000000000001 206.50000000000003 10058.500000000002 11.500000000000002 2014.8500000000001 4438.5000000000009 2015.6500000000003 2021.3000000000004 2.5000000000000004 0.055000000000000007 1.8500000000000003 8.5000000000000018 2.5000000000000004 1.8500000000000003 2.5000000000000004 1.5000000000000002 2014.3000000000004 35.550000000000004 11.500000000000002 44.45000000000001 2879.5000000000005 6971.5000000000009 2019.5000000000002 2018.5000000000002 4434.1000000000013 43.150000000000006 1.5000000000000002 37735.500000000007 1.5000000000000002 2019.3000000000004 30866.500000000004 34531.500000000007 147.50000000000003 2139.5000000000005 1.0000000180025095e-35 22252.000000000004 95.000000000000014 2011.3000000000004 142.50000000000003 20188.000000000004 2139.5000000000005 46.95000000000001 3224.8000000000006 0.00049590878327863952 3.5000000000000004 1639.0000000000002 23115.500000000004 59019.500000000007 1.5000000000000002 2879.5000000000005 3224.8000000000006 39.500000000000007 3963.5000000000005 28311.500000000004 43.850000000000009 2016.5000000000002 137.50000000000003
decision_type=2 2 2 2 2 2 2 2 2 2 2 2 2 2 2 2 2 2 2 2 2 2 2 2 2 2 2 2 2 2 2 2 2 2 2 2 2 2 2 2 2 2 2 2 2 2 2 2 2 2 2 2 2 2 2 2 2 2 2 2 2 2
left_child=1 4 6 12 11 9 19 15 27 -3 18 21 -4 28 20 16 -8 37 33 -2 29 42 38 -24 -22 -15 50 56 -6 35 -27 61 60 39 -32 -11 47 51 -18 40 -7 -25 -1 -23 -26 -41 -44 48 -19 -36 -14 -13 -37 -30 -21 -38 -5 -58 -20 -47 -16 -9
right_child=2 5 3 8 13 10 7 31 -10 14 -12 17 26 25 32 -17 22 36 58 54 24 43 23 41 44 30 -28 -29 53 -31 34 -33 -34 -35 49 52 55 -39 -40 45 -42 -43 46 -45 -46 59 -48 -49 -50 -51 -52 -53 -54 -55 -56 -57 57 -59 -60 -61 -62 -63
leaf_value=-0.04988412222136622 -0.0016607334172087059 -0.041156181072195375 0.0017371646621648002 0.10194403960787018 -0.024605440784175443 0.024204792969517018 0.019280090156410423 0.025626082494854929 0.055998530015349393 0.013102192310745726 0.053845365933681791 -0.027181665248104503 0.059005942940711958 0.0099957574732028528 -0.00086556191248558312 0.057552349748033471 0.040953405767679217 -0.010490557551383973 0.038052682693187997 0.024693588375606958 0.012388761323515554 -0.034138178931815283 0.03832178105306077 0.062783512845635422 0.0042078935702476407 0.0064127200898448271 0.026924152100960226 0.11843598647551104 -0.01777467145754473 0.0247357220521995 -0.012514330427327622 0.031733842087643488 -0.0064730904187614985 0.023028429697246056 -0.0095870047851851024 0.0076502809192034163 -0.026703781336545947 -0.022848909899116834 0.026898689003240678 0.021884335221394019 0.0096302165428087828 0.047528360111098136 -0.025980733571341265 -0.025968521445989608 -0.004497090912859966 0.016678023205271789 -0.04133395171442697 -0.013324884195545957 -0.021068749946580659 -0.0014060931373387575 0.042653718064813051 -0.032256844670188675 -0.0046063674529167736 -0.0079464293578091795 0.011611183776574977 -0.020749510758157289 0.098411823436617835 0.081350554227828983 0.024525222637587125 0.0090690571160643423 0.0054528423061029037 0.013857470583894011
leaf_weight=23 28 11.999999999999998 17 29 106 38 21 9.9999999999999982 20 180 19 140 10.000000000000002 12.999999999999998 58 33 25 23 13.000000000000002 17 49 77 76 11.999999999999998 61 13.999999999999998 12.999999999999998 10.999999999999998 137 21 193 13.999999999999998 57 43 58 94 80 94 31 17 21 62 9.9999999999999982 50 47 28 43 56 169 50 17 98 10.999999999999998 17 17 84 16.000000000000004 9.9999999999999982 18 124 73 103
leaf_count=23 28 12 17 29 106 38 21 10 20 180 19 140 10 13 58 33 25 23 13 17 49 77 76 12 61 14 13 11 137 21 193 14 57 43 58 94 80 94 31 17 21 62 10 50 47 28 43 56 169 50 17 98 11 17 17 84 16 10 18 124 73 103
internal_value=0 -0.00910477 0.0387414 0.0661675 -0.0212727 0.00987673 0.0300066 0.0333392 0.0903167 0.00555608 0.0188007 -0.0260331 0.0297319 -0.0136059 0.00641714 0.0414401 0.0390978 -0.0235776 0.0165959 0.00920453 0.0090684 -0.0350324 0.041118 0.0440841 0.00415521 -0.00860333 0.0416297 0.100716 -0.0199169 0.0115892 -0.00937092 0.0167548 -0.000112294 0.0150399 -0.010105 0.0106205 -0.0204547 -0.027453 0.0331731 0.0135333 0.0190172 0.0500022 -0.0419013 -0.0309218 0.000419613 0.0116188 -0.0384371 -0.0183391 -0.0198016 -0.00579955 0.0487101 -0.0292714 0.00636625 -0.0166897 0.0181524 -0.023654 0.0971722 0.0918498 0.030198 0.0104707 0.00265538 0.0148989
internal_weight=0 2519 592 143 1535 984 449 387 86 663 321 947 57 588 651 260 227 744 302 62 463 203 206 150 157 328 40 66 260 306 315 127 188 271 301 285 412 332 56 228 59 74 76 127 108 169 53 248 192 108 27 238 105 154 34 164 55 26 31 152 131 113
internal_count=3111 2519 592 143 1535 984 449 387 86 663 321 947 57 588 651 260 227 744 302 62 463 203 206 150 157 328 40 66 260 306 315 127 188 271 301 285 412 332 56 228 59 74 76 127 108 169 53 248 192 108 27 238 105 154 34 164 55 26 31 152 131 113
is_linear=0
shrinkage=0.05


Tree=12
num_leaves=63
num_cat=0
split_feature=10 0 2 7 10 14 10 10 10 9 10 0 0 0 14 8 4 0 17 0 13 13 10 4 13 4 8 13 9 11 9 13 13 1 5 2 10 1 5 13 13 4 13 10 13 10 2 8 2 17 0 13 1 2 0 17 13 13 0 13 1 0
split_gain=396.143 210.031 51.3373 37.1694 20.2241 17.9105 20.024 13.6965 9.62682 8.95371 7.58408 6.79962 6.70157 5.46585 4.06833 3.83836 3.68971 3.62751 3.19301 2.97586 2.36711 2.19129 2.04681 2.01344 1.95952 1.80588 1.7619 1.53916 1.42017 1.33805 1.29329 1.14113 1.10566 1.09364 1.03243 0.958723 0.953212 0.947426 0.92157 0.898768 0.846984 0.827193 0.774522 0.704888 0.604869 0.554084 0.529148 0.534293 0.527361 0.526808 0.514466 0.503278 0.472347 0.442176 0.421034 0.52581 0.409658 0.401902 0.400462 1.3847 0.49776 0.392108
threshold=2020.3000000000004 8.5000000000000018 1.5000000000000002 1.8500000000000003 2018.3000000000004 0.011017241379310348 2020.8000000000002 2019.1000000000001 2014.8500000000001 4438.5000000000009 2014.5000000000002 10.500000000000002 2.5000000000000004 8.5000000000000018 0.055000000000000007 0.0010893786258269218 1.5000000000000002 3.5000000000000004 69.88000000000001 2.5000000000000004 42.900000000000013 42.900000000000013 2016.6500000000003 1.5000000000000002 76.850000000000023 1.5000000000000002 0.00049541741954897266 37.300000000000011 2018.5000000000002 147.50000000000003 3429.7500000000005 33.950000000000003 59.850000000000001 2016.5000000000002 155.00000000000003 1.5000000000000002 2011.3000000000004 2016.5000000000002 137.50000000000003 40.70000000000001 34.400000000000006 1.5000000000000002 46.95000000000001 2017.1000000000001 43.150000000000006 2015.6500000000003 1.5000000000000002 0.00049590878327863952 1.5000000000000002 92.720000000000013 6.5000000000000009 46.800000000000004 2019.5000000000002 1.5000000000000002 3.5000000000000004 65.430000000000021 53.200000000000003 43.150000000000006 11.500000000000002 59.850000000000001 2016.5000000000002 11.500000000000002
decision_type=2 2 2 2 2 2 2 2 2 2 2 2 2 2 2 2 2 2 2 2 2 2 2 2 2 2 2 2 2 2 2 2 2 2 2 2 2 2 2 2 2 2 2 2 2 2 2 2 2 2 2 2 2 2 2 2 2 2 2 2 2 2
left_child=1 4 5 40 10 17 13 8 -3 20 36 18 28 -7 21 -13 24 -2 -8 29 31 49 34 58 -15 32 51 -5 -6 43 35 -9 53 -16 45 50 -1 -25 -34 -24 -4 61 -38 -12 -39 -21 47 -41 -30 -10 54 -14 -19 -22 55 -28 -56 -27 -23 60 -60 -42
right_child=2 7 3 27 12 6 11 9 14 -11 19 15 26 16 33 -17 -18 52 -20 22 25 23 39 37 -26 57 30 -29 48 -31 -32 -33 38 -35 -36 -37 42 44 -40 46 41 -43 -44 -45 -46 -47 -48 -49 -50 -51 -52 -53 -54 -55 56 -57 -58 -59 59 -61 -62 -63
leaf_value=-0.04738991493764131 0.00024159808266670149 -0.039098372807105382 0.056311117360989253 0.10300623118877411 -0.023375169166697646 0.013216593408336242 0.054994978245935945 0.014188338248905811 0.015080221665316616 0.051153096125314115 -0.031334388007720308 0.052020839452743523 0.011272634393893753 0.047170900159022394 -0.0036460570400317967 0.092012307246526079 0.023093509083860611 0.016447275687219962 0.032964872901231561 -0.02999389002720515 0.028055224664233349 0.01372548878546162 -0.0031532231718301774 -0.0091329660763343184 0.032004300628282266 0.011078034851241775 -0.0098886281683675577 0.085814295644345506 -0.016885937932525238 -0.021602742037309025 0.0045852516388549701 0.027853263830766084 0.017269088567620345 0.0040022536518116453 -0.017454537840256856 0.0038107393697525064 -0.02764086700709803 0.0093544479495344252 0.0038266201832276936 -0.011624904041704924 0.040384311676025395 0.038548528625254048 -0.039269882440567019 -0.02621550505457361 0.0019359872075578859 -0.02403949641489557 -0.0076887524940750813 -0.019617578578384028 -0.0075491077759686637 0.026381911663338545 -0.014634464194457379 -0.0026402557412019143 0.027432994431971267 0.017565599596127867 -0.0021012695836751453 -0.01862880550324917 -0.0090952438182416318 0.0049268344393931336 0.0076920100378629289 0.0013578310224187115 0.013306749389660592 0.052325197783383459
leaf_weight=23 47 11.999999999999998 11.999999999999998 30 106 60 38 22 29 19 120 10 13.000000000000002 34 101 15 83 53 29 60 27 58 9.9999999999999982 14.999999999999998 57 79 79 23 137 96 15.999999999999998 50 51 87 43 11.999999999999998 21 39 17 23 9.9999999999999982 57 45 153 93 112 10.999999999999998 230 17 15.999999999999998 62 12.999999999999998 11.999999999999998 15.999999999999998 28 22 83 40 64 46 103 22
leaf_count=23 47 12 12 30 106 60 38 22 29 19 120 10 13 34 101 15 83 53 29 60 27 58 10 15 57 79 79 23 137 96 16 50 51 87 43 12 21 39 17 23 10 57 45 153 93 112 11 230 17 16 62 13 12 16 28 22 83 40 64 46 103 22
internal_value=0 -0.00864953 0.0368043 0.0616358 -0.0202091 0.0280736 0.034 0.0093829 0.00527828 0.0178607 -0.0247314 0.0537629 -0.0129256 0.02623 0.00609628 0.0760157 0.0307173 0.0108237 0.0454596 -0.0232903 0.0157661 0.00861498 -0.0207324 0.00748636 0.0376709 0.0132894 -0.00817317 0.0955456 -0.0189211 -0.0266801 -0.00924841 0.0236779 0.0178767 -0.000106679 -0.0243842 -0.0100223 -0.0386244 0.00277467 0.0139085 -0.0178669 0.0438416 0.0421603 -0.0355697 -0.0284656 0.00412781 -0.0261166 -0.0184242 -0.018891 -0.0158552 0.0190986 -0.0106281 0.00431619 0.0184754 0.0241521 -0.00945649 -0.0117924 -0.007331 0.0090104 0.0100421 0.00903917 0.011155 0.0485937
internal_weight=0 2519 592 154 1535 438 326 984 663 321 947 92 588 234 651 25 174 112 67 858 302 463 489 418 91 230 328 53 260 369 302 72 111 188 215 286 89 147 68 274 101 89 66 273 132 172 264 253 154 45 274 26 65 43 212 101 111 119 271 213 167 32
internal_count=3111 2519 592 154 1535 438 326 984 663 321 947 92 588 234 651 25 174 112 67 858 302 463 489 418 91 230 328 53 260 369 302 72 111 188 215 286 89 147 68 274 101 89 66 273 132 172 264 253 154 45 274 26 65 43 212 101 111 119 271 213 167 32
is_linear=0
shrinkage=0.05


Tree=13
num_leaves=63
num_cat=0
split_feature=10 0 10 0 10 10 3 11 11 3 9 10 10 0 14 7 0 0 6 17 6 10 6 17 4 9 3 6 0 3 3 5 6 9 2 10 6 17 6 3 3 9 3 3 3 5 3 3 3 3 3 3 11 2 3 0 3 9 9 3 6 3
split_gain=357.519 189.553 46.5993 41.0893 18.2522 12.3611 10.5843 17.1243 9.90382 8.91411 8.08072 6.85179 6.23097 6.04817 3.33238 3.08743 3.01518 2.93113 2.13632 2.04862 1.98073 1.85845 1.73538 1.70638 1.62981 1.62332 1.62226 1.4907 1.69948 1.36847 1.34793 1.26615 1.22454 1.20463 1.10596 1.03752 1.02987 1.00593 0.997861 0.984978 0.929318 0.924353 0.892811 0.871009 0.838867 0.831717 0.829555 0.794344 0.772666 0.770564 0.734516 0.72925 0.698759 0.648067 0.634619 0.595571 0.581155 0.53761 0.528834 0.512415 0.488699 0.474252
threshold=2020.3000000000004 8.5000000000000018 2021.1000000000001 10.500000000000002 2018.3000000000004 2019.1000000000001 10058.500000000002 206.50000000000003 236.00000000000003 66115.500000000015 4438.5000000000009 2015.6500000000003 2021.3000000000004 2.5000000000000004 0.055000000000000007 1.8500000000000003 8.5000000000000018 2.5000000000000004 43.850000000000009 86.940000000000012 44.45000000000001 2011.3000000000004 45.800000000000004 69.88000000000001 1.5000000000000002 4442.9000000000005 2879.5000000000005 35.550000000000004 11.500000000000002 19796.500000000004 9143.0000000000018 142.50000000000003 43.150000000000006 4434.1000000000013 1.5000000000000002 2019.3000000000004 35.550000000000004 62.759999999999998 61.550000000000004 2139.5000000000005 18003.000000000004 3426.3500000000004 28981.000000000004 95.000000000000014 3105.0000000000005 137.50000000000003 5745.0000000000009 29301.500000000004 36947.500000000007 3000.5000000000005 28311.500000000004 19997.500000000004 156.00000000000003 1.5000000000000002 34046.500000000007 3.5000000000000004 21964.500000000004 4031.0000000000005 2821.7000000000003 4720.5000000000009 35.100000000000001 15173.500000000002
decision_type=2 2 2 2 2 2 2 2 2 2 2 2 2 2 2 2 2 2 2 2 2 2 2 2 2 2 2 2 2 2 2 2 2 2 2 2 2 2 2 2 2 2 2 2 2 2 2 2 2 2 2 2 2 2 2 2 2 2 2 2 2 2
left_child=1 4 6 12 11 9 7 20 -5 14 18 21 -4 30 19 16 -9 40 36 29 49 -1 -11 -14 38 -10 -15 39 -29 46 53 56 -28 47 -8 -34 -7 -19 50 60 52 48 -16 -30 -25 51 -3 57 58 -2 -20 -40 -13 -6 -33 -37 -23 -21 -39 -26 -18 -38
right_child=2 5 3 8 13 10 34 15 25 22 -12 17 23 26 42 -17 27 37 24 33 -22 31 -24 44 59 -27 32 28 43 -31 -32 54 35 -35 -36 55 61 41 45 -41 -42 -43 -44 -45 -46 -47 -48 -49 -50 -51 -52 -53 -54 -55 -56 -57 -58 -59 -60 -61 -62 -63
leaf_value=-0.045020419877508412 0.027562197527060135 0.020844341963529588 0.0015419816653079847 0.047457462987479049 -0.01561110931929321 0.013478921580297704 0.013181376778644272 0.017373439288210304 0.086723680845622375 -0.037985133628050484 0.048595441583740087 -0.02351618182252754 0.055564228892326352 0.0095446982420980941 0.003874034982088589 0.051789400613669191 0.043881221754210331 -0.010083340624855323 0.029329119182445785 0.010830259613473626 0.00091012311293869408 -0.024501234731253457 -0.011617240854180776 0.041954914480447761 0.014211096825699014 0.10767377018928528 0.0059762215640928066 0.03460892541824203 0.057584255561232568 -0.0026833256491336902 -0.021745299668081346 -0.016002479261335203 -0.011347111080196528 0.022447823342822849 0.028079734849078317 -0.0086744228923885999 0.032953348010778427 -0.020424181879421729 0.020633373721776642 0.024345524080338018 -0.027028261485975237 -0.010911805999855842 -0.0031502183793593996 0.042867548835854377 0.024888180651598507 0.0036352892680203211 0.0057264399669330326 0.0066820566126975962 -0.023128722840156712 0.0099917830698056306 0.016255857103637288 0.00795015520279241 -0.014907415586834153 -0.0034423029671112695 -0.027275575380376046 -0.0012279668580740691 -0.034508209035854151 0.018126711716514924 -0.015571440125887209 0.0066549811092351851 0.029798045974563467 0.022808430751319976
leaf_weight=23 13.000000000000002 9.9999999999999982 17 17 124 22 113 21 58 12 19 110 9.9999999999999982 12.999999999999998 92 33 14 33 22 136 37 17 13 12.000000000000002 30 10.999999999999998 13.999999999999998 76 11.999999999999998 53 124 17 193 21 13.999999999999998 58 18 122 34 31 192 31 89 62 18 17 98 108 122 11.999999999999998 21 17 30 11.999999999999998 47 50 99 31 104 89 11 32
leaf_count=23 13 10 17 17 124 22 113 21 58 12 19 110 10 13 92 33 14 33 22 136 37 17 13 12 30 11 14 76 12 53 124 17 193 21 14 58 18 122 34 31 192 31 89 62 18 17 98 108 122 12 21 17 30 12 47 50 99 31 104 89 11 32
internal_value=0 -0.00821705 0.0349641 0.0598214 -0.0191986 0.00891375 0.0270474 0.0318686 0.0816414 0.00501437 0.0169676 -0.0234949 0.0269 -0.0122794 0.00616202 0.0374992 0.0354218 -0.0212733 0.0149778 0.00843617 0.0082562 -0.0316369 -0.0242738 0.0376772 0.0126249 0.0900636 -0.00776451 0.0372617 0.0398605 0.00389701 -0.017975 -0.0299268 -0.00847886 0.0109051 0.0148237 -0.00915119 0.022494 -0.0184561 0.0169829 0.0303005 -0.0247694 -0.0191851 0.00042012 0.045254 0.0317149 0.013213 0.00712625 0.0100237 -0.0199221 0.0191284 0.0229445 0.0164056 -0.0216714 -0.0145374 -0.0242812 -0.00522699 -0.0330417 0.0121847 -0.0181911 0.00855988 0.0376846 0.0264606
internal_weight=0 2519 592 143 1535 984 449 322 86 663 321 947 57 588 638 260 227 744 302 457 62 203 25 40 230 69 328 206 150 161 260 180 315 296 127 301 72 412 111 56 332 379 181 74 30 68 108 275 348 25 43 51 140 136 64 108 116 167 226 119 25 50
internal_count=3111 2519 592 143 1535 984 449 322 86 663 321 947 57 588 638 260 227 744 302 457 62 203 25 40 230 69 328 206 150 161 260 180 315 296 127 301 72 412 111 56 332 379 181 74 30 68 108 275 348 25 43 51 140 136 64 108 116 167 226 119 25 50
is_linear=0
shrinkage=0.05


Tree=14
num_leaves=63
num_cat=0
split_feature=10 0 2 7 10 14 10 10 3 3 7 10 3 0 0 8 14 0 17 9 0 0 17 3 6 17 3 6 16 6 3 9 3 9 9 6 4 3 3 4 6 3 3 1 3 3 6 3 3 6 3 5 6 3 3 3 0 3 3 9 3 3
split_gain=322.661 171.071 42.0912 30.333 16.4726 14.7124 16.3288 11.1559 8.04499 7.65555 7.36011 6.30101 6.0995 5.49629 5.45847 3.17141 3.00747 2.92539 2.63069 2.52951 2.53235 2.18759 1.84888 1.74107 1.56618 1.52974 1.34304 1.30591 1.28221 1.24576 1.18844 1.16717 1.15283 1.10117 1.08718 0.926293 1.12144 0.892849 0.887532 0.882044 1.44672 1.22163 0.851962 0.810391 0.802817 0.779699 0.729059 0.720829 0.586454 0.525971 0.513045 0.504726 0.497883 0.717954 0.496821 0.48362 0.477225 0.472915 0.462454 0.458526 0.451356 1.94784
threshold=2020.3000000000004 8.5000000000000018 1.5000000000000002 1.8500000000000003 2018.3000000000004 0.011017241379310348 2020.8000000000002 2019.1000000000001 66115.500000000015 10058.500000000002 1.8500000000000003 2014.5000000000002 18003.000000000004 10.500000000000002 2.5000000000000004 0.0010893786258269218 0.055000000000000007 3.5000000000000004 78.825000000000017 2419.8000000000006 3.5000000000000004 8.5000000000000018 86.940000000000012 2139.5000000000005 45.800000000000004 53.800000000000004 10529.500000000002 39.500000000000007 46.350000000000001 57.650000000000013 25292.000000000004 3228.0000000000005 41605.000000000007 3224.8000000000006 4434.1000000000013 43.850000000000009 1.5000000000000002 5214.0000000000009 44476.500000000007 1.5000000000000002 50.900000000000006 3443.0000000000005 11470.500000000002 2016.5000000000002 6347.5000000000009 26209.000000000004 36.000000000000007 24592.000000000004 23334.500000000004 58.300000000000004 35669.000000000007 142.50000000000003 43.150000000000006 8012.0000000000009 20188.000000000004 2741.0000000000005 2.5000000000000004 9442.5000000000018 4720.5000000000009 3426.3500000000004 6347.5000000000009 5407.5000000000009
decision_type=2 2 2 2 2 2 2 2 2 2 2 2 2 2 2 2 2 2 2 2 2 2 2 2 2 2 2 2 2 2 2 2 2 2 2 2 2 2 2 2 2 2 2 2 2 2 2 2 2 2 2 2 2 2 2 2 2 2 2 2 2 2
left_child=1 4 5 26 11 17 9 8 16 21 35 38 -12 18 29 -15 22 -2 -8 20 30 -7 28 -19 -10 -16 46 55 52 -6 56 44 33 45 47 48 42 -20 51 40 -23 -41 -37 -18 -27 -21 -4 -24 -9 -49 -44 -1 -3 -54 -30 -5 -13 -31 -38 -34 61 -42
right_child=2 7 3 27 14 6 13 10 24 -11 12 19 -14 15 25 -17 43 23 37 32 -22 39 34 -25 -26 31 -28 -29 54 57 -32 -33 59 -35 -36 36 58 -39 -40 41 60 -43 50 -45 -46 -47 -48 49 -50 -51 -52 -53 53 -55 -56 -57 -58 -59 -60 -61 -62 -63
leaf_value=-0.033354402361092744 0.00017325685537875968 0.020189051777124406 0.054551981687545784 0.10218342423439022 -0.011884779219981283 0.012252193260272701 0.048706756532192232 0.021549078543847872 -0.036085876884559789 0.012529414147138596 0.058076725812519304 -0.023650452854230227 0.021211179825618414 0.046724181845784182 0.0021997940009208148 0.083075508276621496 -0.0027840973270174705 0.033745276120801769 0.035936353076249351 -0.016089381520370288 -0.0030609223126832931 0.0492474831202451 0.012306206085763518 0.012653848039478345 -0.011036378947588112 -0.0023434207968724271 0.024624449358536648 0.077369685276694924 0.0036146332246449887 -0.01638555798172571 -0.028066922791111167 -0.0014690682049452639 -0.023543598400986094 -0.011785814636386931 0.021325432473704928 0.022736154538246671 0.013500542006610584 0.016648524217307569 -0.03949473947286606 0.034766765330331746 0.028947582746493734 0.018687382500086513 0.014176579919274382 0.0039154528489953643 -0.011079791831789962 -0.021773775442028947 0.040212104818186704 0.0093114833751983227 0.0097324856024767689 0.0030504485795402204 0.0019138216413557528 -0.021362883225083354 0.018749414299699393 0.0038809650299710136 -0.0031851929399029665 0.088716513514518744 -0.018187870794477371 -0.021574447372068581 0.0063222320074754444 -0.015351323392242195 0.027414646977558733 0.053908513621850451
leaf_weight=27 47 9.9999999999999982 9.9999999999999982 10.000000000000002 80 13.999999999999998 42 42 12 93 17 173 33 10 37 15 95 11.999999999999998 15.000000000000002 140 13.999999999999998 17 126 53 13 30 12.999999999999998 23 61 76 156 48 117 80 21 28 30 9.9999999999999982 49 27 27 21 58 86 213 106 78 98 13.999999999999998 51 9.9999999999999982 12.999999999999998 10.999999999999998 31 48 20 52 104 89 20 24 10.999999999999998
leaf_count=27 47 10 10 10 80 14 42 42 12 93 17 173 33 10 37 15 95 12 15 140 14 17 126 53 13 30 13 23 61 76 156 48 117 80 21 28 30 10 49 27 27 21 58 86 213 106 78 98 14 51 10 13 11 31 48 20 52 104 89 20 24 11
internal_value=0 -0.0078062 0.0332159 0.0557003 -0.0182387 0.0253104 0.0306817 0.00846806 0.00476365 0.0236651 0.0161192 -0.0223201 0.0337455 0.0485281 -0.0116654 0.068535 0.00585392 0.00967625 0.0410629 -0.0210065 -0.0239458 0.03101 0.00801436 0.0165477 -0.0230601 -0.00737628 0.0396256 0.0863333 0.00370216 -0.0170763 -0.0247132 -0.00859386 -0.018499 -0.0168816 0.0103598 0.0128672 0.0113753 0.0282212 -0.0349835 0.0330778 0.0363258 0.027732 0.0153958 0.000399114 -0.0100012 -0.0185388 0.0418416 0.00952247 0.0185949 0.00716844 0.0123732 -0.0294572 0.0101624 0.00777508 0.000620214 0.0932055 -0.022388 -0.0193836 0.00813189 -0.0223476 0.0327827 0.0361731
internal_weight=0 2519 592 154 1535 438 326 984 663 234 321 947 50 92 588 25 638 112 67 858 395 141 457 65 25 328 101 53 161 260 381 291 463 326 296 271 215 25 89 127 79 48 96 181 243 246 88 275 56 149 68 40 52 42 109 30 225 180 119 137 62 38
internal_count=3111 2519 592 154 1535 438 326 984 663 234 321 947 50 92 588 25 638 112 67 858 395 141 457 65 25 328 101 53 161 260 381 291 463 326 296 271 215 25 89 127 79 48 96 181 243 246 88 275 56 149 68 40 52 42 109 30 225 180 119 137 62 38
is_linear=0
shrinkage=0.05


Tree=15
num_leaves=63
num_cat=0
split_feature=0 9 16 3 3 1 9 0 1 7 11 6 3 11 1 6 1 9 9 9 3 0 3 1 14 3 6 6 11 0 3 9 11 8 3 3 3 3 6 3 3 2 11 0 17 6 4 3 14 3 3 3 3 3 9 11 3 3 3 3 2 6
split_gain=281.918 100.657 66.7515 42.8946 31.538 23.0228 15.7194 12.9166 6.44836 5.58382 5.56852 4.98101 4.97059 4.92913 4.67499 3.85112 3.64291 2.97385 2.499 2.26657 1.74813 1.61329 1.36906 1.29202 1.23501 1.22558 1.19423 1.47252 1.17886 1.17347 1.15924 1.12125 0.879904 0.871249 0.862756 0.796263 0.793619 0.777123 0.771865 0.685883 2.05252 0.680963 0.773744 0.673529 0.68014 0.667994 0.677602 0.636279 0.609198 0.600666 0.553888 0.520327 0.505319 0.502232 0.474886 0.478403 0.45932 0.454022 0.453069 0.440805 0.436972 0.436405
threshold=8.5000000000000018 4438.5000000000009 36.050000000000004 10058.500000000002 20985.500000000004 2017.5000000000002 3229.6000000000008 3.5000000000000004 2014.5000000000002 2.3000000000000003 147.50000000000003 57.650000000000013 67824.500000000015 193.50000000000003 2018.5000000000002 41.850000000000009 2018.5000000000002 4434.1000000000013 3220.0000000000005 3231.2000000000003 21964.500000000004 2.5000000000000004 31168.000000000004 2019.5000000000002 0.010575657894736844 46777.000000000007 35.550000000000004 78.450000000000017 252.50000000000003 11.500000000000002 1000.5000000000001 3226.400000000001 147.50000000000003 0.0010893786258269218 19091.500000000004 21283.000000000004 2139.5000000000005 11009.500000000002 61.550000000000004 5407.5000000000009 6347.5000000000009 1.5000000000000002 285.25000000000006 6.5000000000000009 68.330000000000013 51.850000000000001 1.5000000000000002 36947.500000000007 0.055000000000000007 31361.000000000004 3000.5000000000005 22.000000000000004 33124.000000000007 35933.000000000007 3228.0000000000005 248.25000000000003 8647.0000000000018 2139.5000000000005 19997.500000000004 45489.500000000007 1.5000000000000002 35.100000000000001
decision_type=2 2 2 2 2 2 2 2 2 2 2 2 2 2 2 2 2 2 2 2 2 2 2 2 2 2 2 2 2 2 2 2 2 2 2 2 2 2 2 2 2 2 2 2 2 2 2 2 2 2 2 2 2 2 2 2 2 2 2 2 2 2
left_child=2 3 9 6 15 8 24 11 18 57 22 23 17 21 -8 33 28 20 25 26 29 32 -5 56 30 -4 36 51 37 -12 -2 -22 52 -3 -23 -11 61 -9 54 -29 -41 42 -33 44 -15 46 -21 -20 -36 -46 -18 -28 -10 -43 -31 -56 -7 -1 -13 -50 -19 -16
right_child=1 4 5 10 -6 7 14 16 13 35 12 58 -14 43 19 -17 50 60 47 45 31 34 -24 -25 -26 -27 27 39 -30 38 -32 41 -34 -35 48 -37 -38 -39 -40 40 -42 53 -44 -45 49 -47 -48 -49 59 -51 -52 -53 -54 -55 55 -57 -58 -59 -60 -61 -62 -63
leaf_value=0.050582780649787509 0.022431359533220532 0.09766821373592724 -0.028127318282717285 0.0036328568667552638 -0.0071079009833435224 -0.0071699621598613544 0.013795518014511024 0.0035564977412476488 -0.023200642113661886 0.028189990421136221 0.018258699901246775 -0.016985987476496534 -0.022088131184379259 -0.013221555606603786 0.039878161783729278 0.054013229409853619 0.017497446849177194 0.01834312706039502 -0.011559182917699218 0.059352707633605367 -0.0080203482594627604 -0.013178890257231183 -0.0037458495482281654 0.0001645940732448659 0.019537521172659819 -0.037828693736572661 0.047334811003769149 0.021013345181321107 0.010130498991073933 0.004976954381912947 0.0077183048219544963 0.0027048568500993918 -0.018445722350573287 0.08222973545392355 -0.020496138795439541 0.01400006714694459 0.022049040647764362 -0.0072047956355456872 0.001903600336663658 0.051854705810546853 0.024111344907432795 0.014242594751893826 0.010081920064597702 -0.014451579736279592 -0.0011900580328840175 0.036954747978597879 0.043500001622097828 -0.022656943243163738 -0.010602013586509612 -0.010745110473563446 0.008319658581768313 0.03775241140057059 -0.029710581770965035 0.0056520115575511704 0.011385643168980719 0.019621375855058434 -0.012464384484866803 0.03950133389896817 -0.023249113666159768 -0.020820848271250726 0.028173592984676362 0.026569805429740381
leaf_weight=19 15.999999999999998 10.999999999999998 97 194 11.999999999999998 108 27 23 201 14.999999999999998 60 165 11.999999999999998 46 14 11.999999999999998 35 26 15.999999999999998 13 12.999999999999998 84 93 47 54 49 17 18 17 25 82 104 94 54 174 29 31 62 24 10.000000000000002 20 46 54 84 38 11.999999999999998 14 67 31 29 31 85 35 27 149 20 66 18 35 15.999999999999998 20 11
leaf_count=19 16 11 97 194 12 108 27 23 201 15 60 165 12 46 14 12 35 26 16 13 13 84 93 47 54 49 17 18 17 25 82 104 94 54 174 29 31 62 24 10 20 46 54 84 38 12 14 67 31 29 31 85 35 27 149 20 66 18 35 16 20 11
internal_value=0 0.0168574 -0.0134392 0.0133118 0.0682879 -0.0156146 0.0263446 -0.00768767 -0.0200152 0.0308759 0.00693829 -0.012365 0.00975704 -0.0179702 0.0335414 0.0800379 0.00403358 0.0104298 -0.0274451 0.0357175 0.00935584 -0.0201138 0.00124185 -0.00719126 0.013466 -0.0313833 0.033625 0.0359511 -0.00188901 0.0120666 0.0101204 0.00626733 -0.0225367 0.0848424 -0.0174923 0.0188375 0.0273943 -0.00429292 0.0103624 0.0287295 0.0333591 0.0070714 0.00522613 -0.0110607 -0.00854002 0.0467703 0.0511328 -0.0205176 -0.0191318 -0.00532583 0.0131867 0.0393495 -0.0241661 0.0110653 0.0114088 0.0123603 -0.00917819 0.0451918 -0.018082 -0.0140808 0.0226172 0.0340225
internal_weight=0 1380 1731 1291 89 1650 424 589 1061 81 867 421 580 832 272 77 168 568 229 245 522 635 287 221 152 146 206 150 102 278 98 244 330 65 305 44 56 85 218 48 30 231 158 197 113 39 27 83 221 67 66 102 236 73 194 169 174 37 200 47 46 25
internal_count=3111 1380 1731 1291 89 1650 424 589 1061 81 867 421 580 832 272 77 168 568 229 245 522 635 287 221 152 146 206 150 102 278 98 244 330 65 305 44 56 85 218 48 30 231 158 197 113 39 27 83 221 67 66 102 236 73 194 169 174 37 200 47 46 25
is_linear=0
shrinkage=0.05


Tree=16
num_leaves=63
num_cat=0
split_feature=10 9 17 2 7 10 13 14 10 10 10 6 3 3 11 17 6 6 6 4 3 3 6 2 3 3 3 10 3 6 17 9 3 10 4 17 4 6 3 5 9 6 9 6 6 2 10 3 9 3 15 3 3 3 3 3 11 11 5 3 7 5
split_gain=263.074 80.8446 35.9139 34.5591 24.6083 23.3006 12.1574 11.9629 13.2583 8.58028 7.71144 6.2814 6.26401 4.12886 4.00296 3.86636 2.41712 2.35169 2.90787 3.57021 2.29592 1.96824 1.9019 1.79129 1.76308 1.52786 1.24404 1.17574 1.14391 1.07835 1.07161 1.03707 1.02249 0.957553 0.939923 0.885754 0.858659 1.72991 0.977104 0.814439 0.769889 0.760985 0.753974 1.04361 0.670092 0.660545 0.640431 0.600225 0.597914 0.557114 0.530132 0.551479 0.510154 0.5044 0.479024 0.47764 0.477341 0.440027 0.437107 0.405437 0.405387 0.378787
threshold=2020.3000000000004 3226.400000000001 56.52000000000001 1.5000000000000002 1.8500000000000003 2016.8500000000001 41.70000000000001 0.011017241379310348 2020.8000000000002 2016.1000000000001 2019.8500000000001 45.20000000000001 10058.500000000002 31010.000000000004 177.50000000000003 85.480000000000004 61.550000000000004 78.450000000000017 61.550000000000004 1.5000000000000002 62078.000000000007 6971.5000000000009 49.150000000000013 1.5000000000000002 19997.500000000004 1294.0000000000002 50180.000000000007 2019.1000000000001 7917.5000000000009 39.500000000000007 71.820000000000007 4027.0000000000005 10529.500000000002 2018.6500000000003 1.0000000180025095e-35 59.810000000000009 1.5000000000000002 50.900000000000006 2004.5000000000002 262.50000000000006 2018.5000000000002 62.250000000000007 2018.5000000000002 53.800000000000004 36.000000000000007 1.0000000180025095e-35 2017.8500000000001 73019.500000000015 3228.0000000000005 17625.000000000004 89.955357142857153 59019.500000000007 11586.000000000002 27996.000000000004 25835.500000000004 20818.000000000004 255.50000000000003 147.50000000000003 147.50000000000003 2741.0000000000005 1.2500000000000002 137.50000000000003
decision_type=2 2 2 2 2 2 2 2 2 2 2 2 2 2 2 2 2 2 2 2 2 2 2 2 2 2 2 2 2 2 2 2 2 2 2 2 2 2 2 2 2 2 2 2 2 2 2 2 2 2 2 2 2 2 2 2 2 2 2 2 2 2
left_child=1 2 11 7 32 20 10 22 12 26 23 28 34 17 24 21 33 18 19 27 31 -10 25 39 35 -2 56 46 -1 59 49 54 44 -15 -9 -11 37 -36 -38 -7 -37 57 43 -13 -5 -21 -8 -22 -20 -16 51 -18 -19 -45 -3 -32 -4 -26 -30 -6 -27 -14
right_child=3 5 9 4 29 6 13 8 15 14 -12 42 61 16 30 -17 50 52 48 45 47 -23 -24 -25 41 60 -28 -29 58 -31 55 -33 -34 -35 36 40 38 -39 -40 -41 -42 -43 -44 53 -46 -47 -48 -49 -50 -51 -52 -53 -54 -55 -56 -57 -58 -59 -60 -61 -62 -63
leaf_value=0.013099197711858711 0.029516200713502867 -0.0032746598776429896 -0.027014764115728181 0.050006515383720397 0.09242242097854611 0.013578913628392048 0.0043045737661183614 0.017322448537581497 0.042571225983125197 -0.008423032321254997 0.05207674308844349 0.0014789283126950838 0.020470255017280579 -0.00040242444327082106 -0.0083704621187196335 0.062037505480376155 -0.0030870764747027075 0.02134303621609103 -0.0096985482252561137 -0.0080766864237375568 -0.020222250744700434 0.02260478420648724 -0.00093281769326754988 0.023401895549148323 -0.023660716850479897 0.0028887783425549669 -0.035252243509659401 0.022285065495155076 0.0054533268878480699 0.069812050591344418 0.0035245222660402449 0.0018607589846047071 0.022798314232092637 0.0090911826235242198 0.050331849356492368 -0.019251168361407216 0.031928656736145852 0.029591758924746709 0.017780892086179497 -0.00024617551937878424 -0.014723722864582671 -0.016527751646935939 -0.0084014318863380334 -0.0054877414893255471 0.036258778598111795 0.0031990786595944912 0.013530337598024942 -0.032300664981206255 0.0014516031110542828 -0.014390790686407624 -0.014492439797946385 -0.013971673553952804 0.012421786121361085 -0.01743171594359658 -0.015041899562493201 -0.0093536406731800532 -0.016116405481641945 -0.019683759840934175 -0.0049859362033506244 0.08009200930595399 0.01226074504852295 0.010169476245709482
leaf_weight=59 11.999999999999998 9.9999999999999982 116 9.9999999999999982 10.000000000000002 59 24 18 54 34 17 65 9.9999999999999982 49 65 22 111 22 12.999999999999998 15.999999999999998 24 15.999999999999998 35 50 176 14.999999999999998 52 33 61 23 18.000000000000004 12.999999999999998 12.999999999999998 58 11.999999999999998 177 23 62 26 12.999999999999998 200 78 122 45 78 69 87 18 160 94 13.999999999999998 12.999999999999998 59 10.999999999999998 64 11.999999999999998 10.999999999999998 115 11.999999999999998 20 50 83
leaf_count=59 12 10 116 10 10 59 24 18 54 34 17 65 10 49 65 22 111 22 13 16 24 16 35 50 176 15 52 33 61 23 18 13 13 58 12 177 23 62 26 13 200 78 122 45 78 69 87 18 160 94 14 13 59 11 64 12 11 115 12 20 50 83
internal_value=0 -0.00704865 -0.0142924 0.0299925 0.050366 0.00402783 0.00697775 0.0228292 0.0276726 -0.0186807 0.0205277 -0.000858313 0.02135 0.00439059 -0.0168228 0.0437538 -0.000896415 0.00707241 0.00550632 0.00920247 -0.0157983 0.0380075 0.00873138 0.0161316 -0.0184047 0.0131242 -0.028738 0.013999 0.00792178 0.0779574 -0.0102943 -0.0111637 0.0358874 0.00474364 0.0279939 -0.0161523 0.0295556 0.032955 0.0244217 0.0110827 -0.0168493 -0.0209135 -0.00562774 -0.00283113 0.037821 0.00107658 0.0115356 -0.0253987 0.00061373 -0.0119297 -0.0052695 -0.0042282 0.0148448 -0.00783388 -0.0134517 -0.00162674 -0.0260708 -0.0220891 0.00373728 0.0842021 0.010098 0.0112771
internal_weight=0 2519 1523 592 154 996 867 438 326 1148 139 375 234 728 969 92 245 483 402 229 129 70 112 122 780 77 179 144 132 53 189 87 101 107 141 411 123 74 49 72 377 369 243 121 88 85 111 42 173 159 138 124 81 56 74 30 127 291 73 30 65 93
internal_count=3111 2519 1523 592 154 996 867 438 326 1148 139 375 234 728 969 92 245 483 402 229 129 70 112 122 780 77 179 144 132 53 189 87 101 107 141 411 123 74 49 72 377 369 243 121 88 85 111 42 173 159 138 124 81 56 74 30 127 291 73 30 65 93
is_linear=0
shrinkage=0.05


Tree=17
num_leaves=63
num_cat=0
split_feature=10 0 10 0 10 10 3 11 11 10 7 3 10 10 0 14 7 0 9 0 6 0 17 3 4 12 9 3 6 6 3 3 3 3 3 9 10 6 4 1 3 6 3 5 3 3 13 3 3 3 6 3 3 5 3 3 3 6 1 17 9 6
split_gain=237.424 126.483 31.1781 27.8557 12.2514 8.33715 6.97178 11.3644 6.79866 6.21488 5.4788 4.78584 4.74031 4.23796 4.11071 2.43233 2.02192 2.07381 1.87365 1.98807 1.50615 1.40697 1.33175 1.28923 1.27835 1.1465 1.13845 1.04082 0.957296 1.24411 0.953672 0.929543 0.928437 0.920462 0.86793 0.783968 0.745409 0.710393 0.911372 0.707341 0.704734 0.674473 0.636032 0.634243 0.620966 1.8524 0.619525 0.606342 0.603048 0.575973 0.516424 0.514639 0.498356 0.48183 0.467655 0.462068 0.460873 0.455612 0.445054 0.427199 0.425739 0.39111
threshold=2020.3000000000004 8.5000000000000018 2021.1000000000001 10.500000000000002 2018.3000000000004 2019.1000000000001 10058.500000000002 206.50000000000003 236.00000000000003 2014.8500000000001 1.8500000000000003 16506.000000000004 2014.5000000000002 2021.3000000000004 2.5000000000000004 0.055000000000000007 1.8500000000000003 8.5000000000000018 2419.8000000000006 3.5000000000000004 43.850000000000009 2.5000000000000004 69.88000000000001 2879.5000000000005 1.5000000000000002 1186.1764705882356 4442.9000000000005 5745.0000000000009 35.550000000000004 78.450000000000017 9143.0000000000018 39807.000000000007 42395.000000000007 31010.000000000004 35933.000000000007 3224.8000000000006 2019.3000000000004 43.850000000000009 1.5000000000000002 2009.5000000000002 27148.500000000004 61.550000000000004 2139.5000000000005 137.50000000000003 5407.5000000000009 6347.5000000000009 46.95000000000001 2975.5000000000005 20188.000000000004 26209.000000000004 49.150000000000013 14649.500000000002 28513.500000000004 137.50000000000003 38540.000000000007 22.000000000000004 7917.5000000000009 57.050000000000004 2016.5000000000002 59.810000000000009 3424.6500000000001 35.550000000000004
decision_type=2 2 2 2 2 2 2 2 2 2 2 2 2 2 2 2 2 2 2 2 2 2 2 2 2 2 2 2 2 2 2 2 2 2 2 2 2 2 2 2 2 2 2 2 2 2 2 2 2 2 2 2 2 2 2 2 2 2 2 2 2 2
left_child=1 4 6 13 12 9 7 21 -5 -3 37 -12 39 -4 30 20 17 -9 19 33 54 -2 -15 -16 34 -25 56 -26 42 55 50 35 58 59 57 49 -27 51 41 -1 -13 -39 -19 52 -31 -46 -41 -24 -29 -20 -6 61 -43 -8 -11 -30 -10 -22 -17 -14 -33 -7
